{"learner":{"attributes":{"scikit_learn":"{\"_estimator_type\": \"classifier\"}"},"feature_names":[],"feature_types":[],"gradient_booster":{"model":{"cats":{"enc":[],"feature_segments":[],"sorted_idx":[]},"gbtree_model_param":{"num_parallel_tree":"1","num_trees":"120"},"iteration_indptr":[0,1,2,3,4,5,6,7,8,9,10,11,12,13,14,15,16,17,18,19,20,21,22,23,24,25,26,27,28,29,30,31,32,33,34,35,36,37,38,39,40,41,42,43,44,45,46,47,48,49,50,51,52,53,54,55,56,57,58,59,60,61,62,63,64,65,66,67,68,69,70,71,72,73,74,75,76,77,78,79,80,81,82,83,84,85,86,87,88,89,90,91,92,93,94,95,96,97,98,99,100,101,102,103,104,105,106,107,108,109,110,111,112,113,114,115,116,117,118,119,120],"tree_info":[0,0,0,0,0,0,0,0,0,0,0,0,0,0,0,0,0,0,0,0,0,0,0,0,0,0,0,0,0,0,0,0,0,0,0,0,0,0,0,0,0,0,0,0,0,0,0,0,0,0,0,0,0,0,0,0,0,0,0,0,0,0,0,0,0,0,0,0,0,0,0,0,0,0,0,0,0,0,0,0,0,0,0,0,0,0,0,0,0,0,0,0,0,0,0,0,0,0,0,0,0,0,0,0,0,0,0,0,0,0,0,0,0,0,0,0,0,0,0,0],"trees":[{"base_weights":[-3.541214E-4,6.5840334E-1,-3.2701758E-1,4.9468368E-1,9.3681854E-1,-5.40267E-1,3.9933103E-1,6.5841407E-1,1.9107814E-1,7.770687E-1,1.1355217E0,-7.632663E-1,-4.8231635E-2,1.8633719E-1,8.8801247E-1,5.1537406E-1,7.934103E-1,3.1010407E-1,-2.0096229E-1,6.52282E-1,9.4725114E-1,1.1635774E0,7.987811E-1,7.8200184E-2,-8.484543E-1,1.9708556E-1,-2.6567003E-1,-7.0674936E-3,4.5534885E-1,9.8447263E-1,4.4335324E-1,7.49782E-1,4.0606242E-1,9.0990704E-1,6.906401E-1,4.6639606E-1,1.7662816E-1,-4.5069882E-1,1.0747469E-1,7.634433E-1,4.1598725E-1,1.1663104E0,8.816213E-1,1.2610223E0,1.0795797E0,1.1510506E0,7.113405E-1,5.9266996E-1,-2.2540951E-1,-2.0402887E-1,-9.575375E-1,4.1082945E-1,-5.2041296E-2,-3.6788553E-1,4.1847602E-1,4.3797123E-1,-1.0962117E-1,8.427786E-1,3.107349E-1,7.795186E-1,1.1585678E0,1.1039544E-1,6.401641E-1,7.803181E-2,2.6307559E-2,4.9322665E-2,3.4009912E-3,9.33039E-2,-2.2505817E-3,8.8907115E-2,5.668335E-2,6.552557E-2,3.9690934E-2,2.2260088E-3,3.841325E-2,-5.6657642E-2,1.5850076E-2,-2.0248922E-2,2.6543915E-2,6.552613E-2,9.265909E-2,3.2494888E-2,7.927104E-2,9.733024E-2,1.2321595E-1,9.6457295E-2,6.768312E-2,1.4013728E-1,1.2227122E-1,9.993293E-2,1.2124945E-1,6.2333662E-2,1.210342E-1,1.0901236E-1,6.320717E-2,2.2564692E-2,7.036666E-2,2.0859411E-2,-4.363797E-2,-3.5313003E-2,1.0164294E-2,-5.0620228E-2,-1.0834979E-1,1.4479706E-2,5.4333698E-2,-3.7942223E-2,1.0650876E-2,-4.457109E-2,5.886996E-4,2.991131E-2,9.098952E-2,-5.149401E-3,5.278766E-2,-2.7210066E-2,1.1469497E-2,3.0100126E-2,9.5260166E-2,4.5263167E-2,2.0039075E-3,9.3686365E-2,4.784211E-2,1.359807E-1,1.0449512E-1,-2.3500962E-2,5.429106E-2,5.206665E-2,1.14408374E-1],"categories":[],"categories_nodes":[],"categories_segments":[],"categories_sizes":[],"default_left":[0,0,0,0,0,0,0,0,0,0,0,0,0,0,0,0,0,0,0,0,0,0,0,0,0,0,0,0,0,0,0,0,0,0,0,0,0,0,0,0,0,0,0,0,0,0,0,0,0,0,0,0,0,0,0,0,0,0,0,0,0,0,0,0,0,0,0,0,0,0,0,0,0,0,0,0,0,0,0,0,0,0,0,0,0,0,0,0,0,0,0,0,0,0,0,0,0,0,0,0,0,0,0,0,0,0,0,0,0,0,0,0,0,0,0,0,0,0,0,0,0,0,0,0,0,0,0],"id":0,"left_children":[1,3,5,7,9,11,13,15,17,19,21,23,25,27,29,31,33,35,37,39,41,43,45,47,49,51,53,55,57,59,61,63,65,67,69,71,73,75,77,79,81,83,85,87,89,91,93,95,97,99,101,103,105,107,109,111,113,115,117,119,121,123,125,-1,-1,-1,-1,-1,-1,-1,-1,-1,-1,-1,-1,-1,-1,-1,-1,-1,-1,-1,-1,-1,-1,-1,-1,-1,-1,-1,-1,-1,-1,-1,-1,-1,-1,-1,-1,-1,-1,-1,-1,-1,-1,-1,-1,-1,-1,-1,-1,-1,-1,-1,-1,-1,-1,-1,-1,-1,-1,-1,-1,-1,-1,-1,-1],"loss_changes":[3.3568477E4,2.3566387E3,1.6152812E4,1.6186616E3,6.069043E2,8.845299E3,2.4633682E3,4.081006E2,5.325101E2,2.2485254E2,7.966699E1,3.976541E3,1.3411913E3,8.5768616E2,3.0770898E2,2.629663E2,1.296543E2,1.8252466E2,2.0479494E2,1.6066553E2,6.3514404E1,6.3078125E1,1.9489319E1,7.968377E2,3.5408672E3,6.2913544E2,9.322599E2,4.3779202E2,3.8603967E2,2.0971582E2,8.397011E1,4.834021E1,2.2728857E2,1.0995947E2,1.4163428E2,5.2645996E1,1.5127675E2,1.03790436E2,5.83239E1,7.293579E1,6.706491E1,1.1914795E1,5.809961E1,1.7851562E1,4.3961426E1,3.2971191E0,1.5248779E1,7.6968506E1,2.9385492E2,3.324539E2,2.4486133E3,2.2408167E2,2.832706E2,3.3734802E2,1.0138385E2,7.908063E1,2.8415997E2,1.1118494E2,2.071564E2,1.2813818E2,7.1506836E1,7.148593E1,4.7929047E1,0E0,0E0,0E0,0E0,0E0,0E0,0E0,0E0,0E0,0E0,0E0,0E0,0E0,0E0,0E0,0E0,0E0,0E0,0E0,0E0,0E0,0E0,0E0,0E0,0E0,0E0,0E0,0E0,0E0,0E0,0E0,0E0,0E0,0E0,0E0,0E0,0E0,0E0,0E0,0E0,0E0,0E0,0E0,0E0,0E0,0E0,0E0,0E0,0E0,0E0,0E0,0E0,0E0,0E0,0E0,0E0,0E0,0E0,0E0,0E0,0E0,0E0,0E0,0E0],"parents":[2147483647,0,0,1,1,2,2,3,3,4,4,5,5,6,6,7,7,8,8,9,9,10,10,11,11,12,12,13,13,14,14,15,15,16,16,17,17,18,18,19,19,20,20,21,21,22,22,23,23,24,24,25,25,26,26,27,27,28,28,29,29,30,30,31,31,32,32,33,33,34,34,35,35,36,36,37,37,38,38,39,39,40,40,41,41,42,42,43,43,44,44,45,45,46,46,47,47,48,48,49,49,50,50,51,51,52,52,53,53,54,54,55,55,56,56,57,57,58,58,59,59,60,60,61,61,62,62],"right_children":[2,4,6,8,10,12,14,16,18,20,22,24,26,28,30,32,34,36,38,40,42,44,46,48,50,52,54,56,58,60,62,64,66,68,70,72,74,76,78,80,82,84,86,88,90,92,94,96,98,100,102,104,106,108,110,112,114,116,118,120,122,124,126,-1,-1,-1,-1,-1,-1,-1,-1,-1,-1,-1,-1,-1,-1,-1,-1,-1,-1,-1,-1,-1,-1,-1,-1,-1,-1,-1,-1,-1,-1,-1,-1,-1,-1,-1,-1,-1,-1,-1,-1,-1,-1,-1,-1,-1,-1,-1,-1,-1,-1,-1,-1,-1,-1,-1,-1,-1,-1,-1,-1,-1,-1,-1,-1],"split_conditions":[-1.5971357E-1,9.604835E-2,2.0022608E-1,-3.87401E-1,3.1184942E-1,7.751908E-2,1.0153583E0,8.6130984E-2,1.3585366E-1,2.4151936E-1,1.0129822E0,-3.4892273E-1,-5.4454807E-2,-1.7986416E-3,4.492926E-1,-2.414443E-1,-2.6965165E-1,-1.4821535E-1,4.5352392E-2,1.2379571E-2,-9.192515E-2,-3.2413137E-1,-2.1902637E-1,-4.4422883E-1,-3.4638625E-2,-1.2327493E-2,7.6605546E-1,-2.0800377E-1,-1.8413602E-1,4.410187E-2,4.0784843E-2,5.099514E-1,9.82458E-2,6.920391E-2,-1.1647286E0,-1.8044983E-1,-1.2543133E-1,7.69248E-2,1.076946E-2,-8.49365E-2,2.7499554E-1,-8.6334676E-2,1.0437449E-1,-1.6039263E-1,1.5202598E-1,-2.9542416E-1,-2.4659918E-1,-2.4173398E-1,-8.7955004E-1,-1.8792594E-2,-9.3375035E-2,-9.4938874E-2,-4.171269E-2,3.6781E-1,5.733606E-1,-2.741694E-1,-1.2748773E-2,4.0372247E-1,8.3280045E-1,9.225486E-1,-3.2604656E-1,-1.3665688E-1,-1.0630582E-1,7.803181E-2,2.6307559E-2,4.9322665E-2,3.4009912E-3,9.33039E-2,-2.2505817E-3,8.8907115E-2,5.668335E-2,6.552557E-2,3.9690934E-2,2.2260088E-3,3.841325E-2,-5.6657642E-2,1.5850076E-2,-2.0248922E-2,2.6543915E-2,6.552613E-2,9.265909E-2,3.2494888E-2,7.927104E-2,9.733024E-2,1.2321595E-1,9.6457295E-2,6.768312E-2,1.4013728E-1,1.2227122E-1,9.993293E-2,1.2124945E-1,6.2333662E-2,1.210342E-1,1.0901236E-1,6.320717E-2,2.2564692E-2,7.036666E-2,2.0859411E-2,-4.363797E-2,-3.5313003E-2,1.0164294E-2,-5.0620228E-2,-1.0834979E-1,1.4479706E-2,5.4333698E-2,-3.7942223E-2,1.0650876E-2,-4.457109E-2,5.886996E-4,2.991131E-2,9.098952E-2,-5.149401E-3,5.278766E-2,-2.7210066E-2,1.1469497E-2,3.0100126E-2,9.5260166E-2,4.5263167E-2,2.0039075E-3,9.3686365E-2,4.784211E-2,1.359807E-1,1.0449512E-1,-2.3500962E-2,5.429106E-2,5.206665E-2,1.14408374E-1],"split_indices":[98,96,96,98,90,86,96,92,82,70,88,93,82,90,51,72,82,82,58,48,63,53,25,95,98,93,90,61,70,48,48,48,48,96,98,83,96,52,54,92,61,16,48,23,93,3,37,48,93,96,80,48,70,88,53,48,51,96,98,98,64,50,50,0,0,0,0,0,0,0,0,0,0,0,0,0,0,0,0,0,0,0,0,0,0,0,0,0,0,0,0,0,0,0,0,0,0,0,0,0,0,0,0,0,0,0,0,0,0,0,0,0,0,0,0,0,0,0,0,0,0,0,0,0,0,0,0],"split_type":[0,0,0,0,0,0,0,0,0,0,0,0,0,0,0,0,0,0,0,0,0,0,0,0,0,0,0,0,0,0,0,0,0,0,0,0,0,0,0,0,0,0,0,0,0,0,0,0,0,0,0,0,0,0,0,0,0,0,0,0,0,0,0,0,0,0,0,0,0,0,0,0,0,0,0,0,0,0,0,0,0,0,0,0,0,0,0,0,0,0,0,0,0,0,0,0,0,0,0,0,0,0,0,0,0,0,0,0,0,0,0,0,0,0,0,0,0,0,0,0,0,0,0,0,0,0,0],"sum_hessian":[1.5599116E5,5.1710164E4,1.0428099E5,3.2563977E4,1.9146188E4,8.0613766E4,2.3667223E4,2.115448E4,1.1409497E4,1.0616128E4,8.53006E3,5.5472207E4,2.5141562E4,1.6483988E4,7.183234E3,1.027357E4,1.0880909E4,8.752418E3,2.6570796E3,6.127765E3,4.488363E3,7.871763E3,6.582965E2,5.0996035E3,5.0372605E4,1.1813496E4,1.3328065E4,9.590161E3,6.893827E3,5.90175E3,1.2814839E3,3.2653943E3,7.008176E3,5.09619E3,5.784719E3,4.0304812E3,4.7219365E3,1.4680012E3,1.1890785E3,4.165798E3,1.9619674E3,1.0308435E3,3.4575195E3,3.6376978E3,4.2340654E3,1.2848972E2,5.2980676E2,1.8922367E3,3.2073667E3,7.292706E3,4.30799E4,6.357925E3,5.4555713E3,1.1596015E4,1.7320513E3,1.7954427E3,7.7947183E3,1.8724878E3,5.0213394E3,2.7131567E3,3.1885933E3,4.7665543E2,8.048284E2,3.0720503E3,1.9334412E2,5.6776855E3,1.3304904E3,4.9728203E3,1.2336964E2,2.2201658E3,3.5645535E3,1.0818005E3,2.9486807E3,2.7082805E3,2.0136558E3,1.2334525E3,2.345486E2,4.0131705E2,7.877615E2,2.5078657E3,1.6579319E3,1.5816183E3,3.803491E2,2.6624435E2,7.645992E2,2.458128E3,9.993916E2,7.7240125E2,2.8652964E3,2.6453767E3,1.5886888E3,1.4141184E1,1.1434854E2,8.947956E1,4.403272E2,4.400834E2,1.4521533E3,1.0491295E3,2.1582373E3,4.901627E3,2.391079E3,9.400718E3,3.367918E4,2.1145947E3,4.2433306E3,1.7795948E3,3.6759763E3,9.597476E3,1.9985394E3,1.3948572E3,3.371941E2,2.7867883E2,1.5167639E3,4.5203027E3,3.2744155E3,3.1622614E2,1.5562617E3,3.3738914E3,1.6474479E3,1.7805701E3,9.325867E2,1.1466549E3,2.0419382E3,2.652691E2,2.1138632E2,6.522012E2,1.5262726E2],"tree_param":{"num_deleted":"0","num_feature":"100","num_nodes":"127","size_leaf_vector":"1"}},{"base_weights":[1.3856813E-3,6.004094E-1,-2.9171485E-1,4.3351752E-1,8.356082E-1,1.3208663E-1,-7.6361555E-1,6.2836355E-1,2.0851271E-1,9.6689034E-1,6.783689E-1,4.773784E-1,-1.355817E-1,-2.6079002E-1,-9.164027E-1,5.303456E-1,8.223577E-1,3.0476907E-1,-1.3688616E-1,1.133532E0,8.834547E-1,8.4238595E-1,5.3866225E-1,7.581086E-1,2.7767646E-1,8.403515E-2,-2.9283372E-1,-3.615227E-1,1.4865485E-1,-4.5353568E-1,-1.0523338E0,6.894631E-1,4.4172552E-1,8.8704276E-1,6.284115E-1,2.4357218E-1,5.6117034E-1,9.843984E-2,-4.0327272E-1,1.0801396E0,1.321943E0,7.328289E-1,9.979354E-1,8.728733E-1,1.9311117E-1,6.4577395E-1,3.409284E-1,5.509644E-1,9.46802E-1,4.7419393E-1,1.3261372E-1,-8.275179E-3,2.9959422E-1,-6.9030595E-1,-1.4591241E-1,-2.2884884E-1,-5.742269E-1,3.7164026E-1,-3.734062E-2,1.5770778E-1,-5.051523E-1,-1.1724478E0,-4.767014E-1,5.7737138E-2,8.0515474E-2,5.1711768E-2,9.838202E-3,9.500243E-2,7.112105E-2,5.34422E-2,8.597552E-2,3.5627186E-2,9.683094E-3,5.8902826E-2,1.1184535E-2,-9.215035E-2,1.4013857E-2,-3.1096397E-2,-1.027581E-1,1.23060845E-1,1.0155558E-1,1.1995069E-1,1.378412E-1,8.6786665E-2,4.5277663E-2,9.516315E-2,1.2417825E-1,8.339902E-2,1.2557547E-1,6.011329E-2,-1.9393487E-2,8.605258E-2,5.5854797E-2,5.8683284E-2,1.7399402E-2,6.659348E-2,1.1401745E-2,7.024761E-2,1.080694E-1,3.424215E-2,7.494463E-2,-6.123803E-3,3.664687E-2,4.5406077E-2,-8.398164E-3,-5.2537825E-2,3.3103578E-2,-8.373793E-2,-3.607237E-2,-2.6404971E-2,1.6527796E-2,-2.7345771E-2,3.1517964E-2,5.6279316E-3,-6.557089E-2,-4.70701E-3,4.532756E-2,3.0106304E-2,-1.7314112E-2,-3.1263795E-2,3.7499532E-2,-2.3630219E-2,-6.678917E-2,-1.192315E-1,3.2919552E-2,6.703149E-3,-6.258534E-2],"categories":[],"categories_nodes":[],"categories_segments":[],"categories_sizes":[],"default_left":[0,0,0,0,0,0,0,0,0,0,0,0,0,0,0,0,0,0,0,0,0,0,0,0,0,0,0,0,0,0,0,0,0,0,0,0,0,0,0,0,0,0,0,0,0,0,0,0,0,0,0,0,0,0,0,0,0,0,0,0,0,0,0,0,0,0,0,0,0,0,0,0,0,0,0,0,0,0,0,0,0,0,0,0,0,0,0,0,0,0,0,0,0,0,0,0,0,0,0,0,0,0,0,0,0,0,0,0,0,0,0,0,0,0,0,0,0,0,0,0,0,0,0,0,0,0,0],"id":1,"left_children":[1,3,5,7,9,11,13,15,17,19,21,23,25,27,29,31,33,35,37,39,41,43,45,47,49,51,53,55,57,59,61,63,65,67,69,71,73,75,77,79,81,83,85,87,89,91,93,95,97,99,101,103,105,107,109,111,113,115,117,119,121,123,125,-1,-1,-1,-1,-1,-1,-1,-1,-1,-1,-1,-1,-1,-1,-1,-1,-1,-1,-1,-1,-1,-1,-1,-1,-1,-1,-1,-1,-1,-1,-1,-1,-1,-1,-1,-1,-1,-1,-1,-1,-1,-1,-1,-1,-1,-1,-1,-1,-1,-1,-1,-1,-1,-1,-1,-1,-1,-1,-1,-1,-1,-1,-1,-1],"loss_changes":[2.7392965E4,2.0116953E3,2.0951363E4,1.3144707E3,4.3850586E2,5.101284E3,3.8078008E3,3.0511768E2,4.62747E2,1.601709E2,2.2143848E2,1.3510249E3,1.0738103E3,4.7654523E2,2.3913926E3,1.5026831E2,6.7088135E1,1.706499E2,1.9022687E2,3.744287E1,1.3254395E2,8.79668E1,1.10593994E2,3.9105273E2,4.0147107E2,2.581716E2,1.0580023E3,2.6152942E2,9.464893E1,2.7240845E2,2.0311719E3,4.904712E1,1.7755347E2,4.4075684E1,2.8938354E1,1.453133E2,2.6176636E1,6.86735E1,8.169971E1,2.8061523E1,4.2145996E0,1.2596814E2,4.836963E1,6.2262695E1,3.1855665E1,6.3069824E1,7.545E1,2.3994922E2,1.706958E2,2.1669153E2,3.6744385E2,3.1803625E2,1.0108008E2,2.3671655E2,4.8643405E2,1.3870673E2,1.8298901E2,3.5494766E1,5.7265854E1,6.888763E1,3.4809753E2,7.256836E2,4.1159766E2,0E0,0E0,0E0,0E0,0E0,0E0,0E0,0E0,0E0,0E0,0E0,0E0,0E0,0E0,0E0,0E0,0E0,0E0,0E0,0E0,0E0,0E0,0E0,0E0,0E0,0E0,0E0,0E0,0E0,0E0,0E0,0E0,0E0,0E0,0E0,0E0,0E0,0E0,0E0,0E0,0E0,0E0,0E0,0E0,0E0,0E0,0E0,0E0,0E0,0E0,0E0,0E0,0E0,0E0,0E0,0E0,0E0,0E0,0E0,0E0,0E0,0E0,0E0,0E0],"parents":[2147483647,0,0,1,1,2,2,3,3,4,4,5,5,6,6,7,7,8,8,9,9,10,10,11,11,12,12,13,13,14,14,15,15,16,16,17,17,18,18,19,19,20,20,21,21,22,22,23,23,24,24,25,25,26,26,27,27,28,28,29,29,30,30,31,31,32,32,33,33,34,34,35,35,36,36,37,37,38,38,39,39,40,40,41,41,42,42,43,43,44,44,45,45,46,46,47,47,48,48,49,49,50,50,51,51,52,52,53,53,54,54,55,55,56,56,57,57,58,58,59,59,60,60,61,61,62,62],"right_children":[2,4,6,8,10,12,14,16,18,20,22,24,26,28,30,32,34,36,38,40,42,44,46,48,50,52,54,56,58,60,62,64,66,68,70,72,74,76,78,80,82,84,86,88,90,92,94,96,98,100,102,104,106,108,110,112,114,116,118,120,122,124,126,-1,-1,-1,-1,-1,-1,-1,-1,-1,-1,-1,-1,-1,-1,-1,-1,-1,-1,-1,-1,-1,-1,-1,-1,-1,-1,-1,-1,-1,-1,-1,-1,-1,-1,-1,-1,-1,-1,-1,-1,-1,-1,-1,-1,-1,-1,-1,-1,-1,-1,-1,-1,-1,-1,-1,-1,-1,-1,-1,-1,-1,-1,-1,-1],"split_conditions":[-1.5971357E-1,4.8450433E-2,-7.715258E-1,-4.9380985E-1,-1.72027E-2,-1.6215047E0,-1.7763929E-3,3.1962365E-1,1.3015227E-1,-3.2413137E-1,1.4397431E-2,-2.5104702E0,3.8717616E-1,7.722383E-3,-2.4074276E-1,-1.7501311E-2,1.0903401E-1,2.223588E-1,1.626251E-3,3.3786732E-1,-9.8028384E-2,7.581961E-1,1.2379571E-2,5.9852876E-2,-3.3422863E-1,1.8780825E-1,-4.482408E-3,-5.088239E-2,-5.4174166E-2,-5.545848E-1,1.747239E-1,9.8815046E-2,9.82458E-2,-2.828291E-2,1.0988055E-1,-9.130175E-2,9.906838E-2,1.530948E-1,3.793592E-1,-1.4811274E-1,-9.419271E-2,1.7432784E-1,3.8715935E-1,5.6514037E-1,-1.3651318E-2,-9.844314E-2,-7.664723E-2,4.3557498E-1,-5.5375594E-1,2.1774608E-1,1.824127E-1,-4.339915E-1,-6.1368454E-1,1.8251982E-1,1.8251982E-1,3.2454216E-1,-1.1737461E-1,-5.032692E-3,-1.8626522E-1,-3.8011782E-3,-8.87818E-3,7.399958E-1,-4.122437E-1,5.7737138E-2,8.0515474E-2,5.1711768E-2,9.838202E-3,9.500243E-2,7.112105E-2,5.34422E-2,8.597552E-2,3.5627186E-2,9.683094E-3,5.8902826E-2,1.1184535E-2,-9.215035E-2,1.4013857E-2,-3.1096397E-2,-1.027581E-1,1.23060845E-1,1.0155558E-1,1.1995069E-1,1.378412E-1,8.6786665E-2,4.5277663E-2,9.516315E-2,1.2417825E-1,8.339902E-2,1.2557547E-1,6.011329E-2,-1.9393487E-2,8.605258E-2,5.5854797E-2,5.8683284E-2,1.7399402E-2,6.659348E-2,1.1401745E-2,7.024761E-2,1.080694E-1,3.424215E-2,7.494463E-2,-6.123803E-3,3.664687E-2,4.5406077E-2,-8.398164E-3,-5.2537825E-2,3.3103578E-2,-8.373793E-2,-3.607237E-2,-2.6404971E-2,1.6527796E-2,-2.7345771E-2,3.1517964E-2,5.6279316E-3,-6.557089E-2,-4.70701E-3,4.532756E-2,3.0106304E-2,-1.7314112E-2,-3.1263795E-2,3.7499532E-2,-2.3630219E-2,-6.678917E-2,-1.192315E-1,3.2919552E-2,6.703149E-3,-6.258534E-2],"split_indices":[98,96,99,98,89,99,98,92,82,53,81,99,98,96,97,79,83,64,65,46,92,71,48,48,97,58,48,98,71,79,89,44,48,48,10,82,82,82,71,43,44,76,46,52,24,77,44,62,89,96,48,82,84,83,83,86,56,56,42,62,82,2,95,0,0,0,0,0,0,0,0,0,0,0,0,0,0,0,0,0,0,0,0,0,0,0,0,0,0,0,0,0,0,0,0,0,0,0,0,0,0,0,0,0,0,0,0,0,0,0,0,0,0,0,0,0,0,0,0,0,0,0,0,0,0,0,0],"split_type":[0,0,0,0,0,0,0,0,0,0,0,0,0,0,0,0,0,0,0,0,0,0,0,0,0,0,0,0,0,0,0,0,0,0,0,0,0,0,0,0,0,0,0,0,0,0,0,0,0,0,0,0,0,0,0,0,0,0,0,0,0,0,0,0,0,0,0,0,0,0,0,0,0,0,0,0,0,0,0,0,0,0,0,0,0,0,0,0,0,0,0,0,0,0,0,0,0,0,0,0,0,0,0,0,0,0,0,0,0,0,0,0,0,0,0,0,0,0,0,0,0,0,0,0,0,0,0],"sum_hessian":[1.5601734E5,5.125795E4,1.0475939E5,2.9984473E4,2.1273475E4,5.5192863E4,4.9566527E4,1.6068198E4,1.3916274E4,1.1590878E4,9.682598E3,2.4101361E4,3.1091502E4,1.1551856E4,3.801467E4,1.0677162E4,5.3910366E3,1.088339E4,3.0328845E3,3.8629749E3,7.727903E3,4.4514814E3,5.231116E3,1.0017085E4,1.4084275E4,1.2973411E4,1.8118092E4,9.271079E3,2.2807776E3,8.630566E3,2.9384105E4,3.8169836E3,6.860178E3,4.04003E3,1.3510065E3,8.787881E3,2.0955088E3,1.6106584E3,1.422226E3,3.0152397E3,8.4773505E2,3.3403303E3,4.3875723E3,4.2515034E3,1.9997801E2,3.3916216E3,1.8394945E3,4.776951E3,5.2401333E3,5.9803657E3,8.10391E3,9.084188E3,3.8892224E3,4.888725E3,1.3229366E4,5.7109565E3,3.5601223E3,1.0367933E3,1.2439843E3,6.7189825E2,7.958668E3,2.4310361E4,5.0737437E3,1.9416973E3,1.8752863E3,5.624608E3,1.2355706E3,2.9713257E3,1.0687042E3,9.630514E2,3.8795505E2,4.969667E3,3.8182139E3,1.9728802E3,1.2262861E2,6.243403E1,1.5482245E3,1.2403315E3,1.8189442E2,9.0010406E2,2.1151357E3,2.7459595E2,5.731391E2,2.2522327E3,1.0880977E3,3.6914995E3,6.9607275E2,3.862436E3,3.8906735E2,9.70818E1,1.0289621E2,9.77106E2,2.4145156E3,7.4279596E2,1.0966986E3,3.781445E3,9.9550616E2,1.8572585E3,3.3828748E3,4.0457668E3,1.9345989E3,4.431336E3,3.672574E3,1.2775078E3,7.806681E3,1.4220837E2,3.7470142E3,3.3792305E3,1.5094949E3,9.589176E3,3.6401902E3,5.2786216E3,4.3233527E2,4.0746588E2,3.1526565E3,1.6923007E2,8.675632E2,3.5589822E2,8.8808606E2,2.1217673E2,4.5972153E2,3.0018982E3,4.9567695E3,2.399313E4,3.1722952E2,1.092304E3,3.9814397E3],"tree_param":{"num_deleted":"0","num_feature":"100","num_nodes":"127","size_leaf_vector":"1"}},{"base_weights":[1.7129922E-3,5.445662E-1,-2.606763E-1,3.6763382E-1,7.464139E-1,1.549964E-1,-6.523748E-1,5.5304074E-1,1.4656061E-1,6.189396E-1,9.291428E-1,5.24429E-1,-4.4932958E-2,-2.1802677E-1,-7.766749E-1,4.0565503E-1,6.690642E-1,2.7968362E-1,-9.1664396E-2,7.229777E-1,4.732001E-1,4.2523253E-1,9.761502E-1,8.702127E-1,4.0382412E-1,-2.6510328E-1,1.2864456E-1,-3.07645E-1,1.8214206E-1,-5.8735186E-1,-1.0984532E0,4.558042E-1,-5.176261E-3,8.046564E-1,5.6076866E-1,2.0131265E-1,5.29333E-1,-3.288956E-1,1.17553025E-1,7.81392E-1,4.9878907E-1,3.6862952E-1,6.5043986E-1,7.3484874E-1,3.0335936E-1,9.233703E-1,1.1581646E0,1.0168515E0,6.2095517E-1,4.934507E-1,6.013284E-2,4.903873E-2,-3.877626E-1,7.583481E-2,4.9176493E-1,-1.9464344E-1,-5.250404E-1,4.792581E-2,5.8922404E-1,-3.3093962E-1,-7.178813E-1,-7.744125E-1,-1.2083163E0,3.262695E-2,5.9992265E-2,1.3106837E-2,-3.7877258E-2,6.4729534E-2,8.875903E-2,7.496361E-2,4.6236612E-2,2.5207652E-2,-6.087635E-3,5.734374E-2,1.5808592E-2,-4.6306152E-2,5.333436E-3,5.117146E-3,4.807714E-2,6.972151E-2,9.0280436E-2,7.152549E-2,3.1214712E-2,4.7887363E-2,1.4205351E-2,8.2038134E-2,5.386278E-2,1.2624083E-1,6.2094938E-2,3.7691426E-2,-1.6367694E-2,8.7016284E-2,1.12727664E-1,1.20039344E-1,9.6172266E-2,9.116458E-2,1.2200192E-1,2.5739465E-2,8.403317E-2,5.820436E-2,2.8362582E-2,-3.3154156E-2,3.56913E-2,5.5921596E-2,-5.264959E-3,-5.884712E-2,-2.1603702E-2,-1.213475E-2,1.4735915E-2,2.1955146E-2,6.511732E-2,-2.368651E-2,2.278331E-2,4.6186108E-4,-6.0173344E-2,3.408787E-2,-6.655948E-3,7.726275E-2,3.0646447E-2,-3.3250987E-4,-4.604605E-2,-9.1448806E-2,-5.005763E-2,-9.049391E-2,-4.6469E-2,-1.23066776E-1,3.575698E-3],"categories":[],"categories_nodes":[],"categories_segments":[],"categories_sizes":[],"default_left":[0,0,0,0,0,0,0,0,0,0,0,0,0,0,0,0,0,0,0,0,0,0,0,0,0,0,0,0,0,0,0,0,0,0,0,0,0,0,0,0,0,0,0,0,0,0,0,0,0,0,0,0,0,0,0,0,0,0,0,0,0,0,0,0,0,0,0,0,0,0,0,0,0,0,0,0,0,0,0,0,0,0,0,0,0,0,0,0,0,0,0,0,0,0,0,0,0,0,0,0,0,0,0,0,0,0,0,0,0,0,0,0,0,0,0,0,0,0,0,0,0,0,0,0,0,0,0],"id":2,"left_children":[1,3,5,7,9,11,13,15,17,19,21,23,25,27,29,31,33,35,37,39,41,43,45,47,49,51,53,55,57,59,61,63,65,67,69,71,73,75,77,79,81,83,85,87,89,91,93,95,97,99,101,103,105,107,109,111,113,115,117,119,121,123,125,-1,-1,-1,-1,-1,-1,-1,-1,-1,-1,-1,-1,-1,-1,-1,-1,-1,-1,-1,-1,-1,-1,-1,-1,-1,-1,-1,-1,-1,-1,-1,-1,-1,-1,-1,-1,-1,-1,-1,-1,-1,-1,-1,-1,-1,-1,-1,-1,-1,-1,-1,-1,-1,-1,-1,-1,-1,-1,-1,-1,-1,-1,-1,-1],"loss_changes":[2.2138883E4,1.8084727E3,1.7060387E4,1.1062292E3,5.50459E2,3.7547676E3,2.912371E3,2.5074512E2,3.9049777E2,2.1099365E2,2.298125E2,7.4408545E2,1.2606411E3,4.3056854E2,2.5545176E3,1.3326672E2,1.2013257E2,1.5443848E2,2.1915022E2,1.0608789E2,1.0741406E2,3.1136993E1,8.432715E1,1.6805957E2,4.0770874E2,5.603428E2,3.5367374E2,2.4085132E2,1.2001737E2,8.8363574E2,5.52125E2,1.07419556E2,3.5917023E1,4.6983154E1,8.456482E1,8.0051254E1,3.0800049E1,1.06131775E2,5.655341E1,6.527295E1,6.7787964E1,9.123953E1,4.048755E1,1.32788925E1,2.0606274E1,7.383545E1,1.538916E1,6.096338E1,1.3633026E2,1.9499365E2,3.1849933E2,2.1192192E2,3.603352E2,2.2714433E2,1.0147351E2,1.1520232E2,1.3624854E2,5.547735E1,2.8010849E1,3.7809222E2,7.47166E2,1.5871289E2,3.2260742E2,0E0,0E0,0E0,0E0,0E0,0E0,0E0,0E0,0E0,0E0,0E0,0E0,0E0,0E0,0E0,0E0,0E0,0E0,0E0,0E0,0E0,0E0,0E0,0E0,0E0,0E0,0E0,0E0,0E0,0E0,0E0,0E0,0E0,0E0,0E0,0E0,0E0,0E0,0E0,0E0,0E0,0E0,0E0,0E0,0E0,0E0,0E0,0E0,0E0,0E0,0E0,0E0,0E0,0E0,0E0,0E0,0E0,0E0,0E0,0E0,0E0,0E0,0E0,0E0],"parents":[2147483647,0,0,1,1,2,2,3,3,4,4,5,5,6,6,7,7,8,8,9,9,10,10,11,11,12,12,13,13,14,14,15,15,16,16,17,17,18,18,19,19,20,20,21,21,22,22,23,23,24,24,25,25,26,26,27,27,28,28,29,29,30,30,31,31,32,32,33,33,34,34,35,35,36,36,37,37,38,38,39,39,40,40,41,41,42,42,43,43,44,44,45,45,46,46,47,47,48,48,49,49,50,50,51,51,52,52,53,53,54,54,55,55,56,56,57,57,58,58,59,59,60,60,61,61,62,62],"right_children":[2,4,6,8,10,12,14,16,18,20,22,24,26,28,30,32,34,36,38,40,42,44,46,48,50,52,54,56,58,60,62,64,66,68,70,72,74,76,78,80,82,84,86,88,90,92,94,96,98,100,102,104,106,108,110,112,114,116,118,120,122,124,126,-1,-1,-1,-1,-1,-1,-1,-1,-1,-1,-1,-1,-1,-1,-1,-1,-1,-1,-1,-1,-1,-1,-1,-1,-1,-1,-1,-1,-1,-1,-1,-1,-1,-1,-1,-1,-1,-1,-1,-1,-1,-1,-1,-1,-1,-1,-1,-1,-1,-1,-1,-1,-1,-1,-1,-1,-1,-1,-1,-1,-1,-1,-1,-1],"split_conditions":[-1.5971357E-1,-2.943456E-2,-8.8088393E-1,-4.9380985E-1,2.2447452E-1,-1.8961396E0,-1.7763929E-3,9.465297E-2,3.1685676E-2,-4.9380985E-1,-7.381727E-1,-3.173108E0,3.4796838E-2,1.0914092E-2,-3.3135894E-1,4.4840172E-1,-2.6965165E-1,2.046363E-1,4.5352392E-2,1.12126924E-1,-9.60845E-2,-1.8049754E-1,3.3786732E-1,7.372852E-2,1.3895748E0,-2.4592292E-1,4.7265318E-1,-4.5934714E-2,3.926655E-2,-8.2225665E-2,-1.07597426E-1,9.8815046E-2,1.563962E-2,-1.7145801E-2,-1.7614197E0,-3.974027E-2,4.2958418E-1,8.863355E-2,2.8791866E-1,1.9395028E-1,-2.0373673E0,2.114795E-2,-8.698358E-2,-2.1408756E-1,-1.1302312E-1,7.7417433E-1,5.316171E-2,1.7379391E-1,-1.1812177E-2,1.6135085E-1,1.3226336E-1,1.4316073E-1,1.6081578E-1,-4.6895748E-1,-1.1738253E-1,3.2454216E-1,-9.739677E-2,-1.7826341E-1,1.215367E-1,-2.8074438E-2,-9.122031E-2,8.1159875E-2,7.399958E-1,3.262695E-2,5.9992265E-2,1.3106837E-2,-3.7877258E-2,6.4729534E-2,8.875903E-2,7.496361E-2,4.6236612E-2,2.5207652E-2,-6.087635E-3,5.734374E-2,1.5808592E-2,-4.6306152E-2,5.333436E-3,5.117146E-3,4.807714E-2,6.972151E-2,9.0280436E-2,7.152549E-2,3.1214712E-2,4.7887363E-2,1.4205351E-2,8.2038134E-2,5.386278E-2,1.2624083E-1,6.2094938E-2,3.7691426E-2,-1.6367694E-2,8.7016284E-2,1.12727664E-1,1.20039344E-1,9.6172266E-2,9.116458E-2,1.2200192E-1,2.5739465E-2,8.403317E-2,5.820436E-2,2.8362582E-2,-3.3154156E-2,3.56913E-2,5.5921596E-2,-5.264959E-3,-5.884712E-2,-2.1603702E-2,-1.213475E-2,1.4735915E-2,2.1955146E-2,6.511732E-2,-2.368651E-2,2.278331E-2,4.6186108E-4,-6.0173344E-2,3.408787E-2,-6.655948E-3,7.726275E-2,3.0646447E-2,-3.3250987E-4,-4.604605E-2,-9.1448806E-2,-5.005763E-2,-9.049391E-2,-4.6469E-2,-1.23066776E-1,3.575698E-3],"split_indices":[98,96,99,98,90,99,98,92,82,98,87,99,86,96,99,79,82,64,58,48,94,37,46,84,98,79,63,98,63,79,97,44,48,44,99,82,43,94,36,46,99,48,72,4,51,80,89,48,48,77,48,98,48,90,75,86,79,42,67,82,86,67,2,0,0,0,0,0,0,0,0,0,0,0,0,0,0,0,0,0,0,0,0,0,0,0,0,0,0,0,0,0,0,0,0,0,0,0,0,0,0,0,0,0,0,0,0,0,0,0,0,0,0,0,0,0,0,0,0,0,0,0,0,0,0,0,0],"split_type":[0,0,0,0,0,0,0,0,0,0,0,0,0,0,0,0,0,0,0,0,0,0,0,0,0,0,0,0,0,0,0,0,0,0,0,0,0,0,0,0,0,0,0,0,0,0,0,0,0,0,0,0,0,0,0,0,0,0,0,0,0,0,0,0,0,0,0,0,0,0,0,0,0,0,0,0,0,0,0,0,0,0,0,0,0,0,0,0,0,0,0,0,0,0,0,0,0,0,0,0,0,0,0,0,0,0,0,0,0,0,0,0,0,0,0,0,0,0,0,0,0,0,0,0,0,0,0],"sum_hessian":[1.5542527E5,5.0645168E4,1.0478009E5,2.6989748E4,2.3655418E4,5.083466E4,5.394543E4,1.4678155E4,1.2311593E4,1.393709E4,9.718329E3,1.7849832E4,3.298483E4,1.2003558E4,4.194187E4,6.4672476E3,8.210907E3,7.897949E3,4.413644E3,8.1296587E3,5.8074307E3,8.3008057E2,8.888248E3,4.6142383E3,1.3235594E4,1.4540608E4,1.844422E4,9.807409E3,2.196148E3,2.6407467E4,1.5534405E4,5.763591E3,7.0365686E2,3.6431047E3,4.5678027E3,6.0123374E3,1.8856118E3,2.06808E3,2.3455637E3,6.4472803E3,1.6823787E3,3.654421E3,2.1530098E3,2.3303372E2,5.970469E2,6.894947E3,1.9933015E3,2.9031987E3,1.7110398E3,1.0497625E4,2.7379688E3,4.0833545E3,1.0457254E4,1.6103453E4,2.3407676E3,6.4543506E3,3.3530588E3,1.6524481E3,5.436998E2,8.90939E3,1.7498078E4,3.9353042E3,1.1599102E4,3.0370928E3,2.726498E3,5.160946E2,1.875623E2,1.2603965E3,2.3827083E3,1.562406E3,3.0053967E3,5.037113E3,9.752247E2,1.6848999E3,2.0071188E2,1.5306112E3,5.3746893E2,1.9840931E3,3.614707E2,3.8114763E3,2.6358037E3,7.776427E2,9.047359E2,2.4575488E3,1.1968721E3,8.518934E2,1.3011165E3,3.9587715E1,1.9344601E2,5.159771E2,8.106973E1,5.4722754E3,1.4226715E3,1.6364136E3,3.5688797E2,1.9163479E3,9.868507E2,6.44733E2,1.0663068E3,7.379891E3,3.1177341E3,1.1802377E3,1.5577311E3,6.7788086E2,3.4054736E3,4.820614E3,5.63664E3,4.286232E3,1.1817222E4,8.6537964E2,1.475388E3,5.8683193E3,5.860315E2,4.242227E2,2.928836E3,4.6376263E2,1.1886854E3,3.2874005E2,2.1495978E2,2.5246016E3,6.384788E3,9.184863E3,8.313215E3,2.7672E3,1.1681042E3,1.1394397E4,2.047041E2],"tree_param":{"num_deleted":"0","num_feature":"100","num_nodes":"127","size_leaf_vector":"1"}},{"base_weights":[7.074284E-4,4.9864432E-1,-2.3628055E-1,3.3768618E-1,6.859535E-1,1.1440451E-1,-6.1861384E-1,4.731813E-1,9.1860354E-2,5.5924857E-1,8.368659E-1,4.7843635E-1,-5.923456E-2,-2.1401559E-1,-7.4104834E-1,3.3719316E-1,5.967782E-1,-9.3901515E-2,2.458875E-1,4.7507447E-1,7.353156E-1,4.7319576E-1,8.925634E-1,8.047307E-1,3.6656284E-1,-2.4680667E-1,9.875405E-2,-3.0323443E-1,1.03783615E-1,-5.9442496E-1,-1.0353495E0,6.2239236E-1,2.572178E-1,5.557029E-1,8.424144E-1,1.3434403E-1,-3.0312124E-1,9.3127646E-2,4.0442884E-1,3.0432174E-1,5.60695E-1,8.0848694E-1,5.6895196E-1,6.471719E-1,3.0096725E-1,6.464177E-1,9.244046E-1,9.277329E-1,5.976491E-1,4.5136794E-1,4.44854E-2,5.5735387E-2,-3.3320928E-1,4.9460296E-2,4.6395066E-1,-3.1978193E-1,9.1051495E-1,3.122692E-1,-7.714524E-2,-2.804737E-1,-6.94221E-1,-7.740159E-1,-1.117602E0,8.7640874E-2,5.0549924E-2,4.8766866E-2,1.7677335E-2,6.4808E-2,4.5235567E-2,4.4144277E-2,9.206045E-2,5.956892E-3,4.3326255E-2,-1.3772142E-2,-5.3320676E-2,8.115223E-2,5.290527E-3,5.6862008E-2,2.9045006E-2,2.297557E-2,5.385192E-2,6.9495216E-2,4.7281235E-2,7.089321E-2,9.5950805E-2,-8.275895E-3,6.337675E-2,8.864929E-2,5.5755045E-2,1.7014395E-2,5.5369955E-2,7.137527E-2,2.8024403E-2,8.885815E-2,1.1103822E-1,1.0427239E-1,8.418703E-2,4.2327728E-2,7.176095E-2,6.257403E-2,3.5415653E-2,-9.602984E-3,4.2955134E-2,-2.5693147E-2,2.0144317E-2,-2.7247785E-2,-7.110333E-2,-1.9358862E-2,1.1488493E-2,1.7951412E-2,6.2128384E-2,-3.0363088E-2,-1.7082463E-1,6.0281098E-2,1.2250439E-1,1.8783186E-2,6.322745E-2,2.3994045E-2,-2.0608833E-2,-4.5031767E-2,-2.5242749E-3,-7.76763E-2,-8.65336E-3,-8.05453E-2,6.573735E-2,-1.139814E-1,3.2986929E-3],"categories":[],"categories_nodes":[],"categories_segments":[],"categories_sizes":[],"default_left":[0,0,0,0,0,0,0,0,0,0,0,0,0,0,0,0,0,0,0,0,0,0,0,0,0,0,0,0,0,0,0,0,0,0,0,0,0,0,0,0,0,0,0,0,0,0,0,0,0,0,0,0,0,0,0,0,0,0,0,0,0,0,0,0,0,0,0,0,0,0,0,0,0,0,0,0,0,0,0,0,0,0,0,0,0,0,0,0,0,0,0,0,0,0,0,0,0,0,0,0,0,0,0,0,0,0,0,0,0,0,0,0,0,0,0,0,0,0,0,0,0,0,0,0,0,0,0],"id":3,"left_children":[1,3,5,7,9,11,13,15,17,19,21,23,25,27,29,31,33,35,37,39,41,43,45,47,49,51,53,55,57,59,61,63,65,67,69,71,73,75,77,79,81,83,85,87,89,91,93,95,97,99,101,103,105,107,109,111,113,115,117,119,121,123,125,-1,-1,-1,-1,-1,-1,-1,-1,-1,-1,-1,-1,-1,-1,-1,-1,-1,-1,-1,-1,-1,-1,-1,-1,-1,-1,-1,-1,-1,-1,-1,-1,-1,-1,-1,-1,-1,-1,-1,-1,-1,-1,-1,-1,-1,-1,-1,-1,-1,-1,-1,-1,-1,-1,-1,-1,-1,-1,-1,-1,-1,-1,-1,-1],"loss_changes":[1.824135E4,1.5026045E3,1.4042658E4,8.929929E2,4.4002637E2,3.4531238E3,2.4819414E3,2.9030615E2,2.726454E2,1.8528613E2,2.125039E2,6.4371436E2,1.0961213E3,3.301117E2,1.6592344E3,1.8759955E2,9.087598E1,2.0632834E2,1.2612463E2,1.2376514E2,4.8835938E1,4.170218E1,7.083984E1,1.1415918E2,3.58875E2,4.420736E2,3.614143E2,1.8285858E2,9.6310234E1,8.042871E2,2.7405762E2,5.3066956E1,1.19129974E2,7.3783936E1,4.0196716E1,4.61679E1,8.571141E1,7.665488E1,4.7668E1,4.9354645E1,6.627478E1,4.1570435E1,5.244879E1,1.4406525E1,2.319981E1,2.5623749E1,5.276758E1,2.7000488E1,3.485962E1,1.7608423E2,1.4828365E2,1.7123701E2,3.0164136E2,2.8133472E2,1.0673883E2,2.0059943E2,1.1119217E1,4.711541E1,5.5957382E1,2.685356E2,9.771875E2,1.384541E2,2.4859961E2,0E0,0E0,0E0,0E0,0E0,0E0,0E0,0E0,0E0,0E0,0E0,0E0,0E0,0E0,0E0,0E0,0E0,0E0,0E0,0E0,0E0,0E0,0E0,0E0,0E0,0E0,0E0,0E0,0E0,0E0,0E0,0E0,0E0,0E0,0E0,0E0,0E0,0E0,0E0,0E0,0E0,0E0,0E0,0E0,0E0,0E0,0E0,0E0,0E0,0E0,0E0,0E0,0E0,0E0,0E0,0E0,0E0,0E0,0E0,0E0,0E0,0E0,0E0,0E0],"parents":[2147483647,0,0,1,1,2,2,3,3,4,4,5,5,6,6,7,7,8,8,9,9,10,10,11,11,12,12,13,13,14,14,15,15,16,16,17,17,18,18,19,19,20,20,21,21,22,22,23,23,24,24,25,25,26,26,27,27,28,28,29,29,30,30,31,31,32,32,33,33,34,34,35,35,36,36,37,37,38,38,39,39,40,40,41,41,42,42,43,43,44,44,45,45,46,46,47,47,48,48,49,49,50,50,51,51,52,52,53,53,54,54,55,55,56,56,57,57,58,58,59,59,60,60,61,61,62,62],"right_children":[2,4,6,8,10,12,14,16,18,20,22,24,26,28,30,32,34,36,38,40,42,44,46,48,50,52,54,56,58,60,62,64,66,68,70,72,74,76,78,80,82,84,86,88,90,92,94,96,98,100,102,104,106,108,110,112,114,116,118,120,122,124,126,-1,-1,-1,-1,-1,-1,-1,-1,-1,-1,-1,-1,-1,-1,-1,-1,-1,-1,-1,-1,-1,-1,-1,-1,-1,-1,-1,-1,-1,-1,-1,-1,-1,-1,-1,-1,-1,-1,-1,-1,-1,-1,-1,-1,-1,-1,-1,-1,-1,-1,-1,-1,-1,-1,-1,-1,-1,-1,-1,-1,-1,-1,-1,-1],"split_conditions":[-1.5971357E-1,-2.5011856E-2,-7.715258E-1,-3.87401E-1,1.4762497E-1,-1.8961396E0,-1.7763929E-3,9.465297E-2,-1.0438793E-1,2.8533107E-1,-6.155651E-1,-3.173108E0,3.4796838E-2,9.657429E-4,-2.7707982E-1,-2.2157793E-1,2.2518672E-1,-2.4556175E-2,1.14281446E-1,-4.5916848E-2,1.4138292E-1,-1.0091329E-1,-5.055469E-1,7.372852E-2,1.3895748E0,-3.281389E-1,4.7265318E-1,7.399958E-1,-4.992696E-2,-3.155482E-1,-1.0379835E-1,-4.2066184E-1,-2.479165E-1,-8.317314E-1,-2.5105193E-1,3.1166512E-1,-8.49365E-2,-4.0515405E-1,-3.5552148E-2,-4.474057E-2,-1.3584161E-1,6.953087E-2,-1.0766279E0,-1.8049754E-1,7.9409994E-2,2.29412E-1,3.8715935E-1,-1.3006307E-1,2.0019796E-2,-2.5386338E0,2.409374E-1,-3.7755984E-1,3.6434227E-1,-5.915561E-1,-1.1738253E-1,7.558075E-1,1.6841431E-1,3.926655E-2,-1.7826341E-1,8.091652E-2,3.5394487E-1,2.7394995E-1,7.399958E-1,8.7640874E-2,5.0549924E-2,4.8766866E-2,1.7677335E-2,6.4808E-2,4.5235567E-2,4.4144277E-2,9.206045E-2,5.956892E-3,4.3326255E-2,-1.3772142E-2,-5.3320676E-2,8.115223E-2,5.290527E-3,5.6862008E-2,2.9045006E-2,2.297557E-2,5.385192E-2,6.9495216E-2,4.7281235E-2,7.089321E-2,9.5950805E-2,-8.275895E-3,6.337675E-2,8.864929E-2,5.5755045E-2,1.7014395E-2,5.5369955E-2,7.137527E-2,2.8024403E-2,8.885815E-2,1.1103822E-1,1.0427239E-1,8.418703E-2,4.2327728E-2,7.176095E-2,6.257403E-2,3.5415653E-2,-9.602984E-3,4.2955134E-2,-2.5693147E-2,2.0144317E-2,-2.7247785E-2,-7.110333E-2,-1.9358862E-2,1.1488493E-2,1.7951412E-2,6.2128384E-2,-3.0363088E-2,-1.7082463E-1,6.0281098E-2,1.2250439E-1,1.8783186E-2,6.322745E-2,2.3994045E-2,-2.0608833E-2,-4.5031767E-2,-2.5242749E-3,-7.76763E-2,-8.65336E-3,-8.05453E-2,6.573735E-2,-1.139814E-1,3.2986929E-3],"split_indices":[98,96,99,98,90,99,98,92,94,70,87,99,86,96,99,30,10,71,44,66,44,63,94,84,98,79,63,2,71,97,97,46,72,98,39,92,92,3,79,92,86,20,94,37,39,44,46,53,44,99,44,85,64,90,75,28,8,63,42,44,89,78,2,0,0,0,0,0,0,0,0,0,0,0,0,0,0,0,0,0,0,0,0,0,0,0,0,0,0,0,0,0,0,0,0,0,0,0,0,0,0,0,0,0,0,0,0,0,0,0,0,0,0,0,0,0,0,0,0,0,0,0,0,0,0,0,0],"split_type":[0,0,0,0,0,0,0,0,0,0,0,0,0,0,0,0,0,0,0,0,0,0,0,0,0,0,0,0,0,0,0,0,0,0,0,0,0,0,0,0,0,0,0,0,0,0,0,0,0,0,0,0,0,0,0,0,0,0,0,0,0,0,0,0,0,0,0,0,0,0,0,0,0,0,0,0,0,0,0,0,0,0,0,0,0,0,0,0,0,0,0,0,0,0,0,0,0,0,0,0,0,0,0,0,0,0,0,0,0,0,0,0,0,0,0,0,0,0,0,0,0,0,0,0,0,0,0],"sum_hessian":[1.545791E5,4.9846082E4,1.04733016E5,2.6810307E4,2.3035775E4,5.462781E4,5.0105207E4,1.728318E4,9.527127E3,1.2524773E4,1.0511002E4,1.7641305E4,3.69865E4,1.1640535E4,3.846467E4,8.230858E3,9.052321E3,4.3188457E3,5.2082812E3,8.476182E3,4.0485918E3,1.3972595E3,9.113742E3,4.502617E3,1.31386875E4,1.6909785E4,2.0076717E4,9.088952E3,2.5515835E3,2.567579E4,1.2788882E4,1.801121E3,6.429738E3,7.75825E3,1.2940712E3,2.0656785E3,2.2531672E3,2.653313E3,2.554968E3,2.8322964E3,5.6438857E3,2.8091777E3,1.2394141E3,6.9373114E2,7.035284E2,1.0463477E3,8.0673945E3,2.8225823E3,1.6800349E3,1.0399919E4,2.7387688E3,3.7565244E3,1.315326E4,1.769007E4,2.3866467E3,8.967432E3,1.2151981E2,1.1851736E3,1.3664098E3,6.193935E3,1.9481854E4,3.0640754E3,9.724807E3,5.6558044E2,1.2355405E3,1.6623906E3,4.767347E3,4.0937625E3,3.6644875E3,2.1225229E2,1.0818188E3,1.653301E3,4.1237744E2,1.311778E3,9.413892E2,1.396637E2,2.5136492E3,1.0452509E3,1.5097173E3,2.1498025E3,6.824938E2,2.2300935E3,3.413792E3,1.6965123E3,1.1126655E3,1.120898E2,1.1273242E3,1.865869E2,5.0714426E2,4.646711E2,2.3885724E2,8.830212E2,1.6332642E2,6.769272E3,1.2981224E3,1.201857E3,1.6207252E3,6.865743E2,9.934607E2,3.720629E3,6.67929E3,2.007103E3,7.316657E2,1.1938785E3,2.562646E3,1.13332705E4,1.8199891E3,3.7514985E3,1.3938572E4,8.5074994E2,1.5358967E3,8.865524E3,1.0190771E2,6.2900616E1,5.86192E1,8.5448517E2,3.306884E2,3.947685E2,9.7164136E2,3.7186123E3,2.4753225E3,1.7151848E4,2.3300073E3,2.9986543E3,6.54212E1,9.540635E3,1.841716E2],"tree_param":{"num_deleted":"0","num_feature":"100","num_nodes":"127","size_leaf_vector":"1"}},{"base_weights":[1.2448928E-3,2.3747404E-1,-3.6750352E-1,5.1267165E-1,8.710746E-2,1.9224955E-1,-4.921502E-1,7.920976E-1,4.383512E-1,5.4901697E-2,6.8869895E-1,3.5907942E-1,-2.3291466E-1,-6.0833234E-1,-9.66666E-2,9.0826243E-1,6.249863E-1,3.688525E-1,6.92994E-1,4.1866925E-1,1.570297E-2,3.5044765E-1,8.645027E-1,5.15202E-1,1.511832E-1,-5.7785034E-1,1.8618347E-2,-6.818183E-1,-1.9097775E-1,1.4435591E-1,-3.3207172E-1,8.3312017E-1,1.077788E0,4.254932E-1,7.1004957E-1,4.961103E-1,2.3289406E-1,5.775167E-1,8.497098E-1,2.898208E-1,6.8776256E-1,4.016606E-1,-2.0133676E-2,5.298814E-1,1.4160636E-1,9.004543E-1,-1.3280344E-1,2.1090174E-1,5.8025503E-1,1.980504E-1,-3.0096236E-1,-8.784628E-1,-4.2415345E-1,-2.354223E-1,1.7690459E-1,-8.0572677E-1,-4.5772114E-1,7.986824E-2,-3.5392484E-1,3.2247487E-1,-3.850591E-1,-2.557767E-1,-9.594081E-1,9.381828E-2,6.456127E-2,1.02730356E-1,1.2162409E-1,-9.255452E-3,5.8354586E-2,5.6551706E-2,8.7174855E-2,5.4903366E-2,1.8167248E-2,4.9674433E-2,1.2234397E-2,1.01682745E-1,5.2506775E-2,7.710945E-2,9.893468E-2,3.2059085E-2,-4.412898E-2,9.130487E-2,4.4946477E-2,1.2258216E-2,4.724793E-2,-1.2904747E-2,1.083127E-2,6.360285E-2,2.9857118E-2,-1.8698087E-2,3.480744E-2,9.612694E-2,5.911396E-2,-7.792104E-2,7.440716E-3,-1.9672683E-2,2.9207313E-2,1.7490553E-2,6.2339574E-2,4.6062734E-2,1.0537482E-2,-1.0819286E-2,-9.253701E-2,-1.13568805E-1,-5.346796E-2,-5.2313793E-2,1.3787651E-3,2.4449825E-2,-4.2968873E-2,-5.5103994E-4,3.9705135E-2,-6.5817E-2,-9.56593E-2,-2.360164E-2,-5.785939E-2,3.6617618E-2,-6.3159093E-3,-4.717302E-2,-7.8048483E-3,1.7875576E-2,5.295505E-2,2.66782E-3,-4.9496695E-2,-3.271423E-2,1.639708E-2,-1.3607472E-1,-8.219887E-2],"categories":[],"categories_nodes":[],"categories_segments":[],"categories_sizes":[],"default_left":[0,0,0,0,0,0,0,0,0,0,0,0,0,0,0,0,0,0,0,0,0,0,0,0,0,0,0,0,0,0,0,0,0,0,0,0,0,0,0,0,0,0,0,0,0,0,0,0,0,0,0,0,0,0,0,0,0,0,0,0,0,0,0,0,0,0,0,0,0,0,0,0,0,0,0,0,0,0,0,0,0,0,0,0,0,0,0,0,0,0,0,0,0,0,0,0,0,0,0,0,0,0,0,0,0,0,0,0,0,0,0,0,0,0,0,0,0,0,0,0,0,0,0,0,0,0,0],"id":4,"left_children":[1,3,5,7,9,11,13,15,17,19,21,23,25,27,29,31,33,35,37,39,41,43,45,47,49,51,53,55,57,59,61,63,65,67,69,71,73,75,77,79,81,83,85,87,89,91,93,95,97,99,101,103,105,107,109,111,113,115,117,119,121,123,125,-1,-1,-1,-1,-1,-1,-1,-1,-1,-1,-1,-1,-1,-1,-1,-1,-1,-1,-1,-1,-1,-1,-1,-1,-1,-1,-1,-1,-1,-1,-1,-1,-1,-1,-1,-1,-1,-1,-1,-1,-1,-1,-1,-1,-1,-1,-1,-1,-1,-1,-1,-1,-1,-1,-1,-1,-1,-1,-1,-1,-1,-1,-1,-1],"loss_changes":[1.3388151E4,3.8764912E3,4.18734E3,6.870488E2,1.1737007E3,7.754041E2,2.2552617E3,1.3440625E2,4.624995E2,8.199513E2,1.8274902E2,2.5473651E2,2.6732724E2,1.1634336E3,6.324792E2,5.1323975E1,4.8136597E1,3.5533203E2,1.0094873E2,1.9374536E2,7.1801154E2,3.9437897E1,7.271973E1,8.862683E1,7.1440735E1,5.9659363E1,7.1726204E1,8.9536035E2,2.5076588E2,5.195459E2,2.6966553E2,5.5438477E1,7.5269775E0,7.012471E1,4.6240784E1,1.7647363E2,2.89711E2,7.3898315E1,2.5318848E1,8.5272736E1,9.678265E1,8.711182E1,6.6454E2,1.3726273E1,3.3216457E1,3.619812E1,9.611365E0,2.6236317E1,6.4471924E1,7.423806E1,3.8027916E1,3.8180878E1,3.7360107E1,6.3949043E1,4.4132732E1,4.617666E2,3.0771802E2,8.744756E1,1.1525336E2,1.2258249E2,6.2785522E1,1.507052E2,3.2585083E1,0E0,0E0,0E0,0E0,0E0,0E0,0E0,0E0,0E0,0E0,0E0,0E0,0E0,0E0,0E0,0E0,0E0,0E0,0E0,0E0,0E0,0E0,0E0,0E0,0E0,0E0,0E0,0E0,0E0,0E0,0E0,0E0,0E0,0E0,0E0,0E0,0E0,0E0,0E0,0E0,0E0,0E0,0E0,0E0,0E0,0E0,0E0,0E0,0E0,0E0,0E0,0E0,0E0,0E0,0E0,0E0,0E0,0E0,0E0,0E0,0E0,0E0,0E0,0E0],"parents":[2147483647,0,0,1,1,2,2,3,3,4,4,5,5,6,6,7,7,8,8,9,9,10,10,11,11,12,12,13,13,14,14,15,15,16,16,17,17,18,18,19,19,20,20,21,21,22,22,23,23,24,24,25,25,26,26,27,27,28,28,29,29,30,30,31,31,32,32,33,33,34,34,35,35,36,36,37,37,38,38,39,39,40,40,41,41,42,42,43,43,44,44,45,45,46,46,47,47,48,48,49,49,50,50,51,51,52,52,53,53,54,54,55,55,56,56,57,57,58,58,59,59,60,60,61,61,62,62],"right_children":[2,4,6,8,10,12,14,16,18,20,22,24,26,28,30,32,34,36,38,40,42,44,46,48,50,52,54,56,58,60,62,64,66,68,70,72,74,76,78,80,82,84,86,88,90,92,94,96,98,100,102,104,106,108,110,112,114,116,118,120,122,124,126,-1,-1,-1,-1,-1,-1,-1,-1,-1,-1,-1,-1,-1,-1,-1,-1,-1,-1,-1,-1,-1,-1,-1,-1,-1,-1,-1,-1,-1,-1,-1,-1,-1,-1,-1,-1,-1,-1,-1,-1,-1,-1,-1,-1,-1,-1,-1,-1,-1,-1,-1,-1,-1,-1,-1,-1,-1,-1,-1,-1,-1,-1,-1,-1],"split_conditions":[-6.774512E-1,-1.7476007E0,-1.2043421E-1,-3.173108E0,6.2244767E-1,1.6095592E-1,1.4144632E-1,7.372852E-2,3.6301523E-1,-4.1324812E-1,-7.001547E-2,-2.2059794E-1,-5.449317E-2,1.4656307E-1,-3.0409114E-2,1.7379391E-1,-1.0068318E0,8.4006175E-2,1.9395028E-1,3.5558477E-1,-6.2860835E-1,8.975096E-3,2.5467563E-1,-1.5962036E-1,2.092638E-1,-3.3022165E-1,1.6275942E-1,2.1624869E-2,-3.3984974E-2,3.2803434E-1,1.9912098E-1,-1.3006307E-1,1.2923476E-1,-1.8859625E-1,1.9395028E-1,6.772047E-1,-3.571184E-1,-1.4941335E0,3.9603803E-1,6.697259E-1,-5.088061E-2,-6.018301E-1,2.9390467E-2,8.077595E-2,5.2769754E-2,2.0397833E-2,-1.5188454E-1,-2.074605E-1,-1.7572361E-1,-1.1982651E-1,3.5009712E-1,1.3002364E-1,2.1583717E-1,-1.5932225E-1,9.8815046E-2,2.5940748E-2,-3.2116808E-3,-6.276781E-2,6.383625E-2,7.4566826E-2,-1.3707495E-1,9.39945E-2,-1.3120715E-1,9.381828E-2,6.456127E-2,1.02730356E-1,1.2162409E-1,-9.255452E-3,5.8354586E-2,5.6551706E-2,8.7174855E-2,5.4903366E-2,1.8167248E-2,4.9674433E-2,1.2234397E-2,1.01682745E-1,5.2506775E-2,7.710945E-2,9.893468E-2,3.2059085E-2,-4.412898E-2,9.130487E-2,4.4946477E-2,1.2258216E-2,4.724793E-2,-1.2904747E-2,1.083127E-2,6.360285E-2,2.9857118E-2,-1.8698087E-2,3.480744E-2,9.612694E-2,5.911396E-2,-7.792104E-2,7.440716E-3,-1.9672683E-2,2.9207313E-2,1.7490553E-2,6.2339574E-2,4.6062734E-2,1.0537482E-2,-1.0819286E-2,-9.253701E-2,-1.13568805E-1,-5.346796E-2,-5.2313793E-2,1.3787651E-3,2.4449825E-2,-4.2968873E-2,-5.5103994E-4,3.9705135E-2,-6.5817E-2,-9.56593E-2,-2.360164E-2,-5.785939E-2,3.6617618E-2,-6.3159093E-3,-4.717302E-2,-7.8048483E-3,1.7875576E-2,5.295505E-2,2.66782E-3,-4.9496695E-2,-3.271423E-2,1.639708E-2,-1.3607472E-1,-8.219887E-2],"split_indices":[99,99,82,99,80,91,89,84,82,72,56,82,52,83,91,48,72,72,46,94,81,67,74,97,90,50,95,67,75,95,61,53,0,48,46,70,79,49,46,73,89,89,83,41,48,78,48,16,87,81,45,38,78,76,44,71,91,71,74,80,97,52,48,0,0,0,0,0,0,0,0,0,0,0,0,0,0,0,0,0,0,0,0,0,0,0,0,0,0,0,0,0,0,0,0,0,0,0,0,0,0,0,0,0,0,0,0,0,0,0,0,0,0,0,0,0,0,0,0,0,0,0,0,0,0,0,0],"split_type":[0,0,0,0,0,0,0,0,0,0,0,0,0,0,0,0,0,0,0,0,0,0,0,0,0,0,0,0,0,0,0,0,0,0,0,0,0,0,0,0,0,0,0,0,0,0,0,0,0,0,0,0,0,0,0,0,0,0,0,0,0,0,0,0,0,0,0,0,0,0,0,0,0,0,0,0,0,0,0,0,0,0,0,0,0,0,0,0,0,0,0,0,0,0,0,0,0,0,0,0,0,0,0,0,0,0,0,0,0,0,0,0,0,0,0,0,0,0,0,0,0,0,0,0,0,0,0],"sum_hessian":[1.5369203E5,9.367921E4,6.0012812E4,3.309926E4,6.0579953E4,1.0929768E4,4.9083043E4,6.9519683E3,2.6147293E4,5.750268E4,3.0772725E3,7.8497607E3,3.0800068E3,3.793751E4,1.1145532E4,4.0985156E3,2.853453E3,2.0543012E4,5.6042803E3,5.592657E3,5.191002E4,1.0534325E3,2.02384E3,4.482264E3,3.3674968E3,1.298303E3,1.7817039E3,3.2257176E4,5.6803354E3,5.507251E3,5.6382817E3,2.8438796E3,1.2546359E3,8.547854E2,1.9986675E3,1.0609664E4,9.933349E3,3.2293748E3,2.3749055E3,3.783231E3,1.8094264E3,4.409532E3,4.750049E4,5.6578235E2,4.8765018E2,1.9535154E3,7.03246E1,7.9019415E2,3.6920698E3,3.0517312E3,3.1576556E2,4.3763214E2,8.606708E2,6.837829E2,1.0979209E3,2.077024E4,1.1486937E4,2.1339143E3,3.5464211E3,4.1211143E3,1.3861367E3,5.028176E3,6.101059E2,1.8200698E3,1.0238098E3,9.255644E2,3.2907144E2,1.9992091E2,6.548645E2,1.0577283E3,9.409392E2,9.08056E3,1.5291042E3,2.9320122E3,7.0013364E3,3.4246957E2,2.8869053E3,1.5236282E3,8.512774E2,3.6309766E3,1.522545E2,9.2865063E2,8.807758E2,8.9303613E2,3.5164958E3,2.5704672E4,2.1795816E4,3.8661636E2,1.7916594E2,1.882117E2,2.9943848E2,1.6307772E3,3.227382E2,1.640079E1,5.392381E1,1.3098529E2,6.5920886E2,3.556301E2,3.33644E3,7.950767E2,2.2566545E3,2.4217398E2,7.359159E1,2.4901259E2,1.8861955E2,7.018438E2,1.5882698E2,1.9695699E2,4.868259E2,6.009472E2,4.9697372E2,1.0502999E4,1.0267241E4,4.0540164E3,7.43292E3,7.103655E2,1.423549E3,2.4846924E3,1.061729E3,2.433811E3,1.6873031E3,2.9221118E2,1.0939255E3,4.2977E3,7.304752E2,1.533471E2,4.567588E2],"tree_param":{"num_deleted":"0","num_feature":"100","num_nodes":"127","size_leaf_vector":"1"}},{"base_weights":[7.3724403E-4,4.3294486E-1,-1.9783643E-1,3.0278164E-1,6.087402E-1,2.544262E-1,-3.917089E-1,4.4716084E-1,1.3400736E-1,5.225268E-1,7.543573E-1,5.452136E-1,1.3667676E-1,-1.8587074E-1,-5.279117E-1,3.7565923E-1,5.9758276E-1,7.323139E-1,1.0882363E-1,4.7217822E-1,8.994859E-1,6.5731096E-1,8.789542E-1,2.8112814E-1,6.3064796E-1,2.5150123E-1,2.4959447E-3,3.6738273E-2,-3.2060015E-1,-1.5834714E-1,-6.5457696E-1,9.321216E-1,3.571759E-1,4.8174497E-1,7.0525295E-1,-6.1535515E-2,9.4150573E-1,-1.2796567E-2,2.200626E-1,6.4002466E-1,3.9152023E-1,7.2495717E-1,1.0191536E0,6.9178015E-1,2.0166492E-1,8.1542486E-1,9.912321E-1,1.1368981E-1,4.907747E-1,7.515243E-1,5.076641E-1,1.6953635E-1,5.227664E-1,2.3041502E-1,-9.41647E-2,3.0998814E-1,-1.6103683E-2,-1.8630855E-1,-5.3114164E-1,4.588582E-2,-2.678953E-1,-3.976531E-1,-7.9067546E-1,1.4846878E-2,1.1504906E-1,4.8890375E-2,2.8419483E-2,6.0139067E-2,3.693913E-2,6.2946E-2,8.865663E-2,2.8181016E-2,-4.8650693E-2,1.2906645E-1,8.071231E-2,3.5831235E-2,-9.2162285E-3,1.6829249E-2,4.681277E-2,7.891218E-2,5.6423973E-2,3.4542274E-2,6.318397E-2,9.0343535E-2,5.775076E-2,7.688471E-2,1.1106366E-1,8.4647335E-2,5.9053868E-2,3.231353E-2,-7.609121E-2,8.233332E-2,-3.338251E-2,1.0677338E-1,7.8363635E-2,7.122477E-2,4.4625527E-3,4.1629054E-2,8.396913E-2,6.529607E-2,9.4983995E-2,4.00983E-2,7.0695706E-2,2.8443206E-2,1.1561707E-3,1.6321419E-2,5.760504E-2,7.851188E-3,3.8167756E-2,-2.0264842E-2,1.0746159E-2,5.2758183E-2,1.4068722E-2,5.3510685E-2,-4.078003E-3,6.2767738E-3,-2.6195427E-2,-6.7595825E-2,-2.308899E-2,2.8526947E-2,-5.7078884E-3,-1.2307212E-2,-4.2929757E-2,-3.1824302E-2,-6.986635E-2,-8.0525745E-3,-8.435556E-2],"categories":[],"categories_nodes":[],"categories_segments":[],"categories_sizes":[],"default_left":[0,0,0,0,0,0,0,0,0,0,0,0,0,0,0,0,0,0,0,0,0,0,0,0,0,0,0,0,0,0,0,0,0,0,0,0,0,0,0,0,0,0,0,0,0,0,0,0,0,0,0,0,0,0,0,0,0,0,0,0,0,0,0,0,0,0,0,0,0,0,0,0,0,0,0,0,0,0,0,0,0,0,0,0,0,0,0,0,0,0,0,0,0,0,0,0,0,0,0,0,0,0,0,0,0,0,0,0,0,0,0,0,0,0,0,0,0,0,0,0,0,0,0,0,0,0,0],"id":5,"left_children":[1,3,5,7,9,11,13,15,17,19,21,23,25,27,29,31,33,35,37,39,41,43,45,47,49,51,53,55,57,59,61,63,65,67,69,71,73,75,77,79,81,83,85,87,89,91,93,95,97,99,101,103,105,107,109,111,113,115,117,119,121,123,125,-1,-1,-1,-1,-1,-1,-1,-1,-1,-1,-1,-1,-1,-1,-1,-1,-1,-1,-1,-1,-1,-1,-1,-1,-1,-1,-1,-1,-1,-1,-1,-1,-1,-1,-1,-1,-1,-1,-1,-1,-1,-1,-1,-1,-1,-1,-1,-1,-1,-1,-1,-1,-1,-1,-1,-1,-1,-1,-1,-1,-1,-1,-1,-1],"loss_changes":[1.3108792E4,1.1000557E3,9.176431E3,6.731931E2,2.5639893E2,1.0751466E3,2.0536348E3,1.59927E2,1.9187883E2,2.4348486E2,9.1373535E1,2.0402124E2,3.4439575E2,8.7493134E2,2.0634795E3,1.035022E2,5.9475098E1,8.5483795E1,1.6541287E2,1.5326123E2,3.086377E1,6.706311E1,2.292041E1,7.766417E1,1.0126343E2,2.6772784E2,2.2712971E2,1.5883037E2,5.137258E2,2.5179773E2,1.1476699E3,5.526169E1,9.381091E1,3.0876526E1,3.3569336E1,1.5928015E1,1.8063751E1,1.720881E2,8.192996E1,4.1123047E1,8.465515E1,1.5766846E1,1.9644775E1,6.1793335E1,3.5596542E1,1.9635498E1,1.818103E1,5.0908005E1,2.5192627E1,6.674194E1,7.183905E1,1.679205E2,5.3444824E1,7.051558E1,1.5837094E2,6.559134E1,1.25406425E2,2.091069E2,3.07552E2,9.687866E1,1.7116742E2,2.7157666E2,8.058418E2,0E0,0E0,0E0,0E0,0E0,0E0,0E0,0E0,0E0,0E0,0E0,0E0,0E0,0E0,0E0,0E0,0E0,0E0,0E0,0E0,0E0,0E0,0E0,0E0,0E0,0E0,0E0,0E0,0E0,0E0,0E0,0E0,0E0,0E0,0E0,0E0,0E0,0E0,0E0,0E0,0E0,0E0,0E0,0E0,0E0,0E0,0E0,0E0,0E0,0E0,0E0,0E0,0E0,0E0,0E0,0E0,0E0,0E0,0E0,0E0,0E0,0E0,0E0,0E0],"parents":[2147483647,0,0,1,1,2,2,3,3,4,4,5,5,6,6,7,7,8,8,9,9,10,10,11,11,12,12,13,13,14,14,15,15,16,16,17,17,18,18,19,19,20,20,21,21,22,22,23,23,24,24,25,25,26,26,27,27,28,28,29,29,30,30,31,31,32,32,33,33,34,34,35,35,36,36,37,37,38,38,39,39,40,40,41,41,42,42,43,43,44,44,45,45,46,46,47,47,48,48,49,49,50,50,51,51,52,52,53,53,54,54,55,55,56,56,57,57,58,58,59,59,60,60,61,61,62,62],"right_children":[2,4,6,8,10,12,14,16,18,20,22,24,26,28,30,32,34,36,38,40,42,44,46,48,50,52,54,56,58,60,62,64,66,68,70,72,74,76,78,80,82,84,86,88,90,92,94,96,98,100,102,104,106,108,110,112,114,116,118,120,122,124,126,-1,-1,-1,-1,-1,-1,-1,-1,-1,-1,-1,-1,-1,-1,-1,-1,-1,-1,-1,-1,-1,-1,-1,-1,-1,-1,-1,-1,-1,-1,-1,-1,-1,-1,-1,-1,-1,-1,-1,-1,-1,-1,-1,-1,-1,-1,-1,-1,-1,-1,-1,-1,-1,-1,-1,-1,-1,-1,-1,-1,-1,-1,-1,-1],"split_conditions":[-1.63893E-1,1.0914092E-2,-1.370644E0,-4.9380985E-1,1.7474696E-1,-2.5386338E0,-6.367843E-1,3.1962365E-1,-1.9322511E0,6.1395675E-1,1.9794941E-1,-5.5210984E-1,5.882393E-2,3.1186745E-1,-1.7763929E-3,-1.9322511E0,4.8270516E-2,-9.269856E-2,-4.2609442E-2,-1.8349124E-1,2.1166487E-1,5.17592E-1,3.9603803E-1,9.5622614E-2,-2.3134995E-1,3.7376732E-1,-5.506969E-2,-3.571184E-1,1.12271635E-2,-4.992696E-2,-1.07597426E-1,-9.269856E-2,-1.7501311E-2,-3.6674955E-1,1.0988055E-1,1.2810184E-2,-1.1925817E-1,-1.3311374E-1,2.504272E-1,-1.2887488E-1,2.1265559E-1,-5.3613394E-2,-8.5815124E-2,-8.886474E-1,3.9224273E-1,5.77407E-1,1.3824393E-1,-4.4811225E-1,2.2722846E-1,2.0081893E-1,1.294432E-1,2.3277067E-2,-7.3549956E-1,1.22764975E-1,2.0747015E-1,6.2055543E-2,-1.9025352E0,-1.179347E0,1.67534E-2,-1.6966283E-2,-2.4435999E-2,-2.5089622E-1,-2.150177E-1,1.4846878E-2,1.1504906E-1,4.8890375E-2,2.8419483E-2,6.0139067E-2,3.693913E-2,6.2946E-2,8.865663E-2,2.8181016E-2,-4.8650693E-2,1.2906645E-1,8.071231E-2,3.5831235E-2,-9.2162285E-3,1.6829249E-2,4.681277E-2,7.891218E-2,5.6423973E-2,3.4542274E-2,6.318397E-2,9.0343535E-2,5.775076E-2,7.688471E-2,1.1106366E-1,8.4647335E-2,5.9053868E-2,3.231353E-2,-7.609121E-2,8.233332E-2,-3.338251E-2,1.0677338E-1,7.8363635E-2,7.122477E-2,4.4625527E-3,4.1629054E-2,8.396913E-2,6.529607E-2,9.4983995E-2,4.00983E-2,7.0695706E-2,2.8443206E-2,1.1561707E-3,1.6321419E-2,5.760504E-2,7.851188E-3,3.8167756E-2,-2.0264842E-2,1.0746159E-2,5.2758183E-2,1.4068722E-2,5.3510685E-2,-4.078003E-3,6.2767738E-3,-2.6195427E-2,-6.7595825E-2,-2.308899E-2,2.8526947E-2,-5.7078884E-3,-1.2307212E-2,-4.2929757E-2,-3.1824302E-2,-6.986635E-2,-8.0525745E-3,-8.435556E-2],"split_indices":[98,96,99,98,87,99,99,92,49,68,46,75,97,98,98,49,94,39,66,65,96,83,46,44,61,78,87,79,64,71,97,39,79,95,10,72,35,83,36,33,15,33,44,49,44,4,39,46,50,44,33,53,77,47,86,56,49,99,83,68,74,99,95,0,0,0,0,0,0,0,0,0,0,0,0,0,0,0,0,0,0,0,0,0,0,0,0,0,0,0,0,0,0,0,0,0,0,0,0,0,0,0,0,0,0,0,0,0,0,0,0,0,0,0,0,0,0,0,0,0,0,0,0,0,0,0,0],"split_type":[0,0,0,0,0,0,0,0,0,0,0,0,0,0,0,0,0,0,0,0,0,0,0,0,0,0,0,0,0,0,0,0,0,0,0,0,0,0,0,0,0,0,0,0,0,0,0,0,0,0,0,0,0,0,0,0,0,0,0,0,0,0,0,0,0,0,0,0,0,0,0,0,0,0,0,0,0,0,0,0,0,0,0,0,0,0,0,0,0,0,0,0,0,0,0,0,0,0,0,0,0,0,0,0,0,0,0,0,0,0,0,0,0,0,0,0,0,0,0,0,0,0,0,0,0,0,0],"sum_hessian":[1.5273653E5,4.808199E4,1.0465454E5,2.7628146E4,2.045384E4,3.1401441E4,7.325309E4,1.488932E4,1.2738827E4,1.2850324E4,7.603516E3,9.049551E3,2.235189E4,2.917078E4,4.4082316E4,1.0094496E4,4.794824E3,5.134068E2,1.222542E4,1.1338189E4,1.5121348E3,4.2778496E3,3.3256667E3,2.2130627E3,6.836488E3,1.2044232E4,1.0307658E4,1.0998705E4,1.8172074E4,1.12528125E4,3.2829504E4,3.2292902E2,9.771567E3,2.3124407E3,2.4823835E3,1.07222084E2,4.061847E2,5.8406187E3,6.384802E3,3.677827E3,7.6603623E3,6.1794904E2,8.9418567E2,3.9765122E3,3.0133728E2,2.129188E3,1.1964789E3,1.2312462E3,9.818166E2,3.445209E3,3.3912786E3,9.250689E3,2.7935427E3,3.069234E3,7.238424E3,1.7815103E3,9.217194E3,1.1096303E4,7.075771E3,3.928817E3,7.323996E3,1.1369787E4,2.1459717E4,7.0741486E1,2.5218752E2,3.4816423E3,6.289925E3,1.1177711E3,1.1946696E3,1.7537494E3,7.286341E2,5.9492992E1,4.772909E1,1.1049288E2,2.956918E2,1.0283953E3,4.812223E3,5.2837783E3,1.1010233E3,1.2362499E3,2.441577E3,6.4295073E3,1.230855E3,2.7724036E2,3.4070868E2,2.418538E2,6.5233185E2,1.5700984E3,2.4064138E3,2.681615E2,3.3175774E1,2.114918E3,1.426986E1,8.712635E2,3.2521533E2,1.26406746E2,1.1048394E3,8.109039E2,1.7091275E2,2.3042703E3,1.1409387E3,2.2108354E3,1.1804432E3,5.3551E3,3.8955898E3,3.610817E2,2.4324612E3,1.5321321E3,1.5371018E3,4.706251E3,2.532173E3,7.786438E2,1.00286646E3,3.9406393E2,8.823131E3,2.584983E3,8.51132E3,4.7726084E3,2.3031626E3,1.1810986E3,2.7477183E3,3.8611882E3,3.4628079E3,8.998052E3,2.3717356E3,1.4873947E3,1.9972322E4],"tree_param":{"num_deleted":"0","num_feature":"100","num_nodes":"127","size_leaf_vector":"1"}},{"base_weights":[8.5789507E-4,3.8178298E-1,-1.8504922E-1,5.7444036E-1,2.7574185E-1,2.6139966E-1,-3.5232762E-1,6.463185E-1,3.6089125E-1,1.3715287E-1,4.2650354E-1,5.167807E-1,1.5609917E-1,-1.7515194E-1,-5.0224364E-1,5.3571236E-1,7.444855E-1,4.797195E-1,1.3484132E-1,3.0500108E-1,3.6671355E-2,6.820615E-1,3.47954E-1,3.3383718E-1,6.981225E-1,-7.266399E-2,2.4837878E-1,1.5310131E-2,-3.074895E-1,-1.8192674E-1,-6.047795E-1,7.299264E-1,4.797777E-1,7.11669E-1,9.691997E-1,4.0965188E-1,7.557553E-1,2.1322249E-1,-2.903798E-1,9.973475E-2,3.842033E-1,2.806693E-1,-4.515935E-2,8.868576E-1,6.1513007E-1,4.8062643E-1,2.5753117E-1,4.676319E-1,8.6934805E-2,7.937123E-1,4.631068E-1,5.6507766E-2,-4.095031E-1,8.77095E-1,2.2804819E-1,-2.0123212E-1,8.1174426E-2,-6.66612E-1,-1.8357985E-1,-2.8067988E-1,1.6193837E-2,-2.7025095E-1,-6.958824E-1,-1.26677975E-2,7.5881146E-2,-1.4246295E-1,4.870855E-2,6.482766E-2,8.584025E-2,1.041456E-1,7.164232E-2,3.4616463E-2,8.363683E-2,8.070121E-2,2.6937664E-2,1.3457358E-2,5.6600433E-2,1.10415295E-1,-4.062524E-2,7.700954E-2,1.0863193E-3,9.75956E-3,4.391581E-2,4.7621455E-2,1.5907532E-2,2.2849802E-2,-1.2148733E-2,6.213488E-2,9.6999966E-2,5.2423306E-2,7.682119E-2,4.466607E-2,9.4655536E-2,3.5511624E-2,9.9341795E-3,3.892477E-2,7.3909186E-2,-1.2955973E-2,2.8984366E-2,6.7871206E-2,9.323699E-2,3.3951987E-2,7.141693E-2,9.1630176E-2,2.7414325E-3,-5.360545E-2,3.2263321E-3,1.2454456E-1,7.036602E-2,6.7855135E-2,1.9897198E-2,-2.3476869E-2,7.870294E-2,4.758208E-2,4.144068E-3,-4.660717E-2,-8.1245564E-2,2.0474265E-4,-3.318392E-2,-1.1198152E-3,-3.616727E-2,1.5608287E-2,-2.4689853E-2,-4.048271E-2,-3.2967143E-3,-7.819278E-2,-4.245803E-2],"categories":[],"categories_nodes":[],"categories_segments":[],"categories_sizes":[],"default_left":[0,0,0,0,0,0,0,0,0,0,0,0,0,0,0,0,0,0,0,0,0,0,0,0,0,0,0,0,0,0,0,0,0,0,0,0,0,0,0,0,0,0,0,0,0,0,0,0,0,0,0,0,0,0,0,0,0,0,0,0,0,0,0,0,0,0,0,0,0,0,0,0,0,0,0,0,0,0,0,0,0,0,0,0,0,0,0,0,0,0,0,0,0,0,0,0,0,0,0,0,0,0,0,0,0,0,0,0,0,0,0,0,0,0,0,0,0,0,0,0,0,0,0,0,0,0,0],"id":6,"left_children":[1,3,5,7,9,11,13,15,17,19,21,23,25,27,29,31,33,35,37,39,41,43,45,47,49,51,53,55,57,59,61,63,65,67,69,71,73,75,77,79,81,83,85,87,89,91,93,95,97,99,101,103,105,107,109,111,113,115,117,119,121,123,125,-1,-1,-1,-1,-1,-1,-1,-1,-1,-1,-1,-1,-1,-1,-1,-1,-1,-1,-1,-1,-1,-1,-1,-1,-1,-1,-1,-1,-1,-1,-1,-1,-1,-1,-1,-1,-1,-1,-1,-1,-1,-1,-1,-1,-1,-1,-1,-1,-1,-1,-1,-1,-1,-1,-1,-1,-1,-1,-1,-1,-1,-1,-1,-1],"loss_changes":[1.074723E4,1.0167041E3,7.6166294E3,2.709829E2,6.707534E2,7.474662E2,1.9705059E3,1.4312598E2,1.1951776E2,2.8214444E2,3.084402E2,2.6899365E2,4.1555313E2,8.571111E2,1.3197539E3,6.720886E1,5.0934082E1,5.6119934E1,5.1232155E1,1.0180884E2,2.0898242E2,4.8994385E1,1.4100305E2,1.3347412E2,9.116785E1,2.4623451E2,1.7908777E2,1.9886171E2,8.9270483E2,1.9068423E2,9.275459E2,3.445642E1,6.793176E1,5.629785E1,1.549646E1,6.2808594E1,1.44782715E1,3.5907883E1,3.9129173E1,1.03984695E2,7.1150024E1,6.2425735E1,1.6375333E2,1.8999084E1,3.754492E1,7.501587E1,1.0799237E2,5.5483276E1,6.248977E1,4.553076E1,3.638611E1,1.0231061E2,8.771387E1,2.7169617E1,1.778581E2,1.0796199E2,1.6762402E2,1.5014526E2,4.105735E2,1.419544E2,1.1938831E2,2.0810083E2,5.581719E2,0E0,0E0,0E0,0E0,0E0,0E0,0E0,0E0,0E0,0E0,0E0,0E0,0E0,0E0,0E0,0E0,0E0,0E0,0E0,0E0,0E0,0E0,0E0,0E0,0E0,0E0,0E0,0E0,0E0,0E0,0E0,0E0,0E0,0E0,0E0,0E0,0E0,0E0,0E0,0E0,0E0,0E0,0E0,0E0,0E0,0E0,0E0,0E0,0E0,0E0,0E0,0E0,0E0,0E0,0E0,0E0,0E0,0E0,0E0,0E0,0E0,0E0,0E0,0E0],"parents":[2147483647,0,0,1,1,2,2,3,3,4,4,5,5,6,6,7,7,8,8,9,9,10,10,11,11,12,12,13,13,14,14,15,15,16,16,17,17,18,18,19,19,20,20,21,21,22,22,23,23,24,24,25,25,26,26,27,27,28,28,29,29,30,30,31,31,32,32,33,33,34,34,35,35,36,36,37,37,38,38,39,39,40,40,41,41,42,42,43,43,44,44,45,45,46,46,47,47,48,48,49,49,50,50,51,51,52,52,53,53,54,54,55,55,56,56,57,57,58,58,59,59,60,60,61,61,62,62],"right_children":[2,4,6,8,10,12,14,16,18,20,22,24,26,28,30,32,34,36,38,40,42,44,46,48,50,52,54,56,58,60,62,64,66,68,70,72,74,76,78,80,82,84,86,88,90,92,94,96,98,100,102,104,106,108,110,112,114,116,118,120,122,124,126,-1,-1,-1,-1,-1,-1,-1,-1,-1,-1,-1,-1,-1,-1,-1,-1,-1,-1,-1,-1,-1,-1,-1,-1,-1,-1,-1,-1,-1,-1,-1,-1,-1,-1,-1,-1,-1,-1,-1,-1,-1,-1,-1,-1,-1,-1,-1,-1,-1,-1,-1,-1,-1,-1,-1,-1,-1,-1,-1,-1,-1,-1,-1,-1],"split_conditions":[-1.3501054E-1,-7.7863884E-1,-1.4698993E0,5.5230805E-3,-7.104439E-2,-2.6818945E0,-5.942756E-1,-5.282841E-2,-3.7213262E-2,-1.4821535E-1,-3.9629537E-1,5.9852876E-2,-8.8646926E-2,3.9427623E-1,-1.7763929E-3,-2.2157793E-1,3.9603803E-1,3.3786732E-1,5.43971E-1,-1.640782E-1,-2.0621525E-1,-8.633356E-1,-1.0316731E-2,7.372852E-2,3.9118373E-1,8.3280045E-1,-1.6379751E0,-2.5529504E-1,-4.482408E-3,-2.5011856E-2,-1.0137794E-1,-8.890506E-1,-7.1241486E-1,8.80997E-2,-1.4393108E-1,3.163727E-1,-1.0434142E0,2.504272E-1,-3.4850708E-1,-1.9025352E0,-3.196937E-1,-1.4351884E-1,-3.8653645E-1,-2.6209903E-1,6.683674E-2,4.487497E-1,-1.4408165E-2,6.463845E-1,4.5653183E-2,1.0673685E-1,1.9025739E-1,-1.9322511E0,2.973548E-1,-3.1261665E-1,-5.791845E-1,4.782707E-1,-4.339915E-1,-3.85933E-2,-4.85435E-2,-3.1412024E-2,-3.4638625E-2,6.787344E-2,4.935525E-2,-1.26677975E-2,7.5881146E-2,-1.4246295E-1,4.870855E-2,6.482766E-2,8.584025E-2,1.041456E-1,7.164232E-2,3.4616463E-2,8.363683E-2,8.070121E-2,2.6937664E-2,1.3457358E-2,5.6600433E-2,1.10415295E-1,-4.062524E-2,7.700954E-2,1.0863193E-3,9.75956E-3,4.391581E-2,4.7621455E-2,1.5907532E-2,2.2849802E-2,-1.2148733E-2,6.213488E-2,9.6999966E-2,5.2423306E-2,7.682119E-2,4.466607E-2,9.4655536E-2,3.5511624E-2,9.9341795E-3,3.892477E-2,7.3909186E-2,-1.2955973E-2,2.8984366E-2,6.7871206E-2,9.323699E-2,3.3951987E-2,7.141693E-2,9.1630176E-2,2.7414325E-3,-5.360545E-2,3.2263321E-3,1.2454456E-1,7.036602E-2,6.7855135E-2,1.9897198E-2,-2.3476869E-2,7.870294E-2,4.758208E-2,4.144068E-3,-4.660717E-2,-8.1245564E-2,2.0474265E-4,-3.318392E-2,-1.1198152E-3,-3.616727E-2,1.5608287E-2,-2.4689853E-2,-4.048271E-2,-3.2967143E-3,-7.819278E-2,-4.245803E-2],"split_indices":[98,98,99,48,96,99,99,96,89,82,83,48,48,98,98,30,46,46,48,44,30,85,81,84,67,98,49,48,48,96,64,44,38,20,48,36,99,36,1,49,94,40,91,48,19,52,48,81,44,47,44,49,44,47,67,20,82,97,64,79,98,57,67,0,0,0,0,0,0,0,0,0,0,0,0,0,0,0,0,0,0,0,0,0,0,0,0,0,0,0,0,0,0,0,0,0,0,0,0,0,0,0,0,0,0,0,0,0,0,0,0,0,0,0,0,0,0,0,0,0,0,0,0,0,0,0,0],"split_type":[0,0,0,0,0,0,0,0,0,0,0,0,0,0,0,0,0,0,0,0,0,0,0,0,0,0,0,0,0,0,0,0,0,0,0,0,0,0,0,0,0,0,0,0,0,0,0,0,0,0,0,0,0,0,0,0,0,0,0,0,0,0,0,0,0,0,0,0,0,0,0,0,0,0,0,0,0,0,0,0,0,0,0,0,0,0,0,0,0,0,0,0,0,0,0,0,0,0,0,0,0,0,0,0,0,0,0,0,0,0,0,0,0,0,0,0,0,0,0,0,0,0,0,0,0,0,0],"sum_hessian":[1.5175928E5,4.977299E4,1.0198629E5,1.7668371E4,3.210462E4,2.7797377E4,7.4188914E4,1.3217493E4,4.4508784E3,1.6728611E4,1.5376009E4,8.1142666E3,1.968311E4,3.4004023E4,4.018489E4,6.2180215E3,6.999471E3,2.916587E3,1.5342916E3,6.2636055E3,1.0465005E4,3.6131326E3,1.1762876E4,4.04071E3,4.0735566E3,5.6577173E3,1.4025393E4,1.3940928E4,2.0063094E4,9.744944E3,3.0439947E4,1.3876909E3,4.8303306E3,6.111183E3,8.882879E2,2.3281138E3,5.8847314E2,1.2959138E3,2.3837775E2,1.7445532E3,4.5190522E3,2.6276384E3,7.837366E3,8.8696295E2,2.7261697E3,4.7658677E3,6.9970083E3,2.6200361E3,1.4206738E3,2.894057E3,1.1794999E3,4.090078E3,1.5676393E3,4.380083E2,1.3587384E4,3.250895E3,1.0690033E4,5.1455547E3,1.4917539E4,6.5030728E3,3.241871E3,6.516267E3,2.392368E4,4.5156555E1,1.3425344E3,1.7723246E1,4.8126074E3,4.271295E3,1.8398882E3,6.8839105E2,1.998968E2,2.0281716E3,2.9994205E2,5.317733E2,5.669984E1,1.0608011E3,2.351127E2,1.763313E1,2.2074461E2,2.0331061E2,1.5412427E3,7.2752704E2,3.7915254E3,1.0063416E3,1.6212968E3,1.7088092E3,6.128557E3,2.1353284E2,6.7343005E2,1.7132812E3,1.0128885E3,4.4438726E3,3.2199515E2,4.326685E3,2.670323E3,2.0348932E3,5.851429E2,6.8750195E2,7.331719E2,1.5852075E3,1.3088492E3,7.9199036E2,3.875095E2,1.3287086E2,3.957207E3,1.218396E3,3.4924332E2,1.382353E2,2.9977298E2,8.224291E2,1.2764955E4,3.1449343E3,1.05960625E2,9.7683795E2,9.713195E3,2.1682822E3,2.9772725E3,6.6244365E3,8.293103E3,1.5030892E3,4.9999834E3,2.116769E3,1.125102E3,4.157579E3,2.358688E3,1.8161688E4,5.761992E3],"tree_param":{"num_deleted":"0","num_feature":"100","num_nodes":"127","size_leaf_vector":"1"}},{"base_weights":[2.6112874E-3,3.4801763E-1,-1.679843E-1,5.3167576E-1,2.5046352E-1,-2.7969587E-1,2.5145894E-1,4.041933E-1,6.50631E-1,1.7395565E-1,4.847399E-1,-4.0655428E-1,-9.4642835E-3,1.4035876E-1,5.1315093E-1,4.6713033E-1,1.2500475E-1,7.6044434E-1,5.280316E-1,1.1585786E-1,3.7554598E-1,5.8113885E-1,2.7434006E-1,-1.2627998E-1,-4.9739674E-1,-1.3399422E-1,1.5922932E-1,1.2310685E-2,3.1796074E-1,2.9586083E-1,6.505833E-1,9.1688013E-1,4.4542548E-1,3.4105003E-1,-5.2848794E-2,8.58282E-1,6.8184906E-1,9.098454E-1,4.9178728E-1,-1.7282143E-2,2.0363463E-1,4.5677334E-1,2.0043856E-1,4.7157192E-1,7.3355377E-1,4.7161114E-1,2.7761335E-2,-1.7977269E-1,3.6531729E-1,-5.6528777E-1,-1.197546E-1,7.665252E-2,-2.4561782E-1,1.7579494E-2,5.017533E-1,-3.8233277E-1,8.432538E-2,4.132176E-1,2.7785352E-3,4.7195983E-1,1.0265129E-2,7.12655E-1,3.1754565E-1,5.051619E-2,1.0166484E-1,4.1123886E-2,7.252281E-2,1.351514E-1,2.9403374E-2,-1.08506896E-1,4.96645E-4,9.570936E-2,7.568997E-2,5.9792936E-2,9.00388E-2,1.1255597E-1,7.2354004E-2,7.0868336E-2,4.256196E-2,1.5280272E-3,-4.4943284E-2,6.3569434E-2,1.7983574E-2,4.2645432E-2,7.886546E-2,4.5688603E-2,9.2023155E-3,4.2280704E-2,6.792139E-2,6.109136E-2,8.646278E-2,7.172137E-2,4.016618E-2,2.5035286E-2,-2.0387812E-2,-4.8287865E-3,-3.4566764E-2,5.3440806E-2,1.1376186E-2,-2.435464E-2,-6.374537E-2,-5.083167E-2,1.5689483E-2,-1.568052E-2,2.0573406E-2,-3.247536E-2,-1.5620886E-3,-1.2121892E-2,1.7538534E-2,3.248183E-2,6.316012E-2,-2.4776919E-2,-7.2038725E-2,3.9890528E-2,9.32631E-4,2.6151363E-2,4.940523E-2,-2.0045914E-2,1.934336E-2,6.585793E-2,3.248095E-2,3.6372192E-2,-1.5431064E-2,7.8486465E-2,5.5600084E-2,2.0436203E-2,5.504467E-2],"categories":[],"categories_nodes":[],"categories_segments":[],"categories_sizes":[],"default_left":[0,0,0,0,0,0,0,0,0,0,0,0,0,0,0,0,0,0,0,0,0,0,0,0,0,0,0,0,0,0,0,0,0,0,0,0,0,0,0,0,0,0,0,0,0,0,0,0,0,0,0,0,0,0,0,0,0,0,0,0,0,0,0,0,0,0,0,0,0,0,0,0,0,0,0,0,0,0,0,0,0,0,0,0,0,0,0,0,0,0,0,0,0,0,0,0,0,0,0,0,0,0,0,0,0,0,0,0,0,0,0,0,0,0,0,0,0,0,0,0,0,0,0,0,0,0,0],"id":7,"left_children":[1,3,5,7,9,11,13,15,17,19,21,23,25,27,29,31,33,35,37,39,41,43,45,47,49,51,53,55,57,59,61,63,65,67,69,71,73,75,77,79,81,83,85,87,89,91,93,95,97,99,101,103,105,107,109,111,113,115,117,119,121,123,125,-1,-1,-1,-1,-1,-1,-1,-1,-1,-1,-1,-1,-1,-1,-1,-1,-1,-1,-1,-1,-1,-1,-1,-1,-1,-1,-1,-1,-1,-1,-1,-1,-1,-1,-1,-1,-1,-1,-1,-1,-1,-1,-1,-1,-1,-1,-1,-1,-1,-1,-1,-1,-1,-1,-1,-1,-1,-1,-1,-1,-1,-1,-1,-1],"loss_changes":[8.869566E3,8.9148047E2,4.721295E3,2.61521E2,5.824968E2,2.7276758E3,6.1606384E2,1.4640442E2,1.19802E2,2.869344E2,1.6211707E2,1.3785977E3,5.340421E2,3.3833792E2,1.8839905E2,6.5987305E1,5.8988968E1,3.5613525E1,5.7977173E1,2.22313E2,7.787317E1,9.1269165E1,1.223649E2,3.486527E2,1.0483799E3,3.4390323E2,5.238159E2,2.4574997E2,1.8712683E2,1.2314319E2,7.9727295E1,1.2309998E1,6.178601E1,3.253035E1,5.029197E1,2.0244751E1,4.7426147E1,1.3848328E1,5.5066772E1,1.063784E2,1.17769165E2,3.733368E1,4.8299515E1,3.2058777E1,3.6325073E1,2.3722412E1,5.776028E1,2.607677E2,5.5286636E1,8.0464844E2,6.700645E2,1.5270975E2,1.7399188E2,1.6733638E2,7.236157E1,6.0523895E1,1.725213E2,5.8563965E1,5.6128452E1,4.137982E1,5.444353E1,3.643213E1,1.5952072E1,0E0,0E0,0E0,0E0,0E0,0E0,0E0,0E0,0E0,0E0,0E0,0E0,0E0,0E0,0E0,0E0,0E0,0E0,0E0,0E0,0E0,0E0,0E0,0E0,0E0,0E0,0E0,0E0,0E0,0E0,0E0,0E0,0E0,0E0,0E0,0E0,0E0,0E0,0E0,0E0,0E0,0E0,0E0,0E0,0E0,0E0,0E0,0E0,0E0,0E0,0E0,0E0,0E0,0E0,0E0,0E0,0E0,0E0,0E0,0E0,0E0,0E0,0E0,0E0],"parents":[2147483647,0,0,1,1,2,2,3,3,4,4,5,5,6,6,7,7,8,8,9,9,10,10,11,11,12,12,13,13,14,14,15,15,16,16,17,17,18,18,19,19,20,20,21,21,22,22,23,23,24,24,25,25,26,26,27,27,28,28,29,29,30,30,31,31,32,32,33,33,34,34,35,35,36,36,37,37,38,38,39,39,40,40,41,41,42,42,43,43,44,44,45,45,46,46,47,47,48,48,49,49,50,50,51,51,52,52,53,53,54,54,55,55,56,56,57,57,58,58,59,59,60,60,61,61,62,62],"right_children":[2,4,6,8,10,12,14,16,18,20,22,24,26,28,30,32,34,36,38,40,42,44,46,48,50,52,54,56,58,60,62,64,66,68,70,72,74,76,78,80,82,84,86,88,90,92,94,96,98,100,102,104,106,108,110,112,114,116,118,120,122,124,126,-1,-1,-1,-1,-1,-1,-1,-1,-1,-1,-1,-1,-1,-1,-1,-1,-1,-1,-1,-1,-1,-1,-1,-1,-1,-1,-1,-1,-1,-1,-1,-1,-1,-1,-1,-1,-1,-1,-1,-1,-1,-1,-1,-1,-1,-1,-1,-1,-1,-1,-1,-1,-1,-1,-1,-1,-1,-1,-1,-1,-1,-1,-1,-1],"split_conditions":[-1.24504484E-1,-7.7863884E-1,2.2837988E-1,4.004994E-2,1.5584186E-1,6.637385E-2,1.0153583E0,9.312278E-2,-1.8328875E-1,2.223588E-1,2.1438041E-1,-6.814617E-2,8.3458245E-2,-3.0946972E-2,-2.1604348E-3,-4.46748E-1,-5.2921228E-2,-5.5630486E-2,-3.1467718E-1,-6.3943155E-2,1.05871044E-1,2.727218E-1,-3.7280857E-3,3.738914E-1,1.9848949E-1,-3.4258302E-2,3.998465E-1,-2.3575336E-1,4.382482E-1,1.1006391E0,7.284368E-1,-9.611044E-2,5.3712857E-1,-9.39025E-1,-5.454212E-1,-7.356536E-2,1.0927284E-1,-3.972349E-2,-7.074149E-1,4.871298E-1,-4.46748E-1,3.015673E-1,-4.826222E-1,3.660969E-1,5.2421385E-1,-1.4902274E-1,2.5209466E-1,2.0170426E-1,-5.2399047E-2,-1.7763929E-3,5.0521355E-2,-9.4938874E-2,1.2588702E-1,-1.801855E-2,2.624964E-1,9.786531E-1,-2.2055602E-1,-5.5398226E-2,2.0628761E-1,-7.085756E-2,-1.5733378E-1,1.476188E-1,3.867352E-1,5.051619E-2,1.0166484E-1,4.1123886E-2,7.252281E-2,1.351514E-1,2.9403374E-2,-1.08506896E-1,4.96645E-4,9.570936E-2,7.568997E-2,5.9792936E-2,9.00388E-2,1.1255597E-1,7.2354004E-2,7.0868336E-2,4.256196E-2,1.5280272E-3,-4.4943284E-2,6.3569434E-2,1.7983574E-2,4.2645432E-2,7.886546E-2,4.5688603E-2,9.2023155E-3,4.2280704E-2,6.792139E-2,6.109136E-2,8.646278E-2,7.172137E-2,4.016618E-2,2.5035286E-2,-2.0387812E-2,-4.8287865E-3,-3.4566764E-2,5.3440806E-2,1.1376186E-2,-2.435464E-2,-6.374537E-2,-5.083167E-2,1.5689483E-2,-1.568052E-2,2.0573406E-2,-3.247536E-2,-1.5620886E-3,-1.2121892E-2,1.7538534E-2,3.248183E-2,6.316012E-2,-2.4776919E-2,-7.2038725E-2,3.9890528E-2,9.32631E-4,2.6151363E-2,4.940523E-2,-2.0045914E-2,1.934336E-2,6.585793E-2,3.248095E-2,3.6372192E-2,-1.5431064E-2,7.8486465E-2,5.5600084E-2,2.0436203E-2,5.504467E-2],"split_indices":[98,98,96,90,96,86,96,48,48,64,85,82,44,90,48,26,41,33,28,66,82,75,44,56,94,93,94,48,70,98,59,33,59,44,31,36,20,0,88,48,26,10,80,46,90,0,76,93,45,98,44,48,90,94,44,98,61,48,48,43,43,61,48,0,0,0,0,0,0,0,0,0,0,0,0,0,0,0,0,0,0,0,0,0,0,0,0,0,0,0,0,0,0,0,0,0,0,0,0,0,0,0,0,0,0,0,0,0,0,0,0,0,0,0,0,0,0,0,0,0,0,0,0,0,0,0,0],"split_type":[0,0,0,0,0,0,0,0,0,0,0,0,0,0,0,0,0,0,0,0,0,0,0,0,0,0,0,0,0,0,0,0,0,0,0,0,0,0,0,0,0,0,0,0,0,0,0,0,0,0,0,0,0,0,0,0,0,0,0,0,0,0,0,0,0,0,0,0,0,0,0,0,0,0,0,0,0,0,0,0,0,0,0,0,0,0,0,0,0,0,0,0,0,0,0,0,0,0,0,0,0,0,0,0,0,0,0,0,0,0,0,0,0,0,0,0,0,0,0,0,0,0,0,0,0,0,0],"sum_hessian":[1.5052148E5,4.976362E4,1.0075787E5,1.7261738E4,3.2501883E4,7.9566914E4,2.1190959E4,8.334347E3,8.927393E3,2.4501988E4,7.9998945E3,5.4147316E4,2.5419596E4,1.487667E4,6.314289E3,6.800621E3,1.5337258E3,4.7065205E3,4.2208716E3,1.9021592E4,5.480396E3,5.485047E3,2.5148477E3,1.3254838E4,4.0892477E4,1.4624194E4,1.0795401E4,8.644905E3,6.2317637E3,2.4476067E3,3.8666824E3,3.1118857E2,6.4894326E3,6.920949E2,8.416309E2,2.0921855E3,2.614335E3,3.6384656E2,3.8570251E3,7.558161E3,1.1463431E4,3.7426697E3,1.7377266E3,3.1934536E3,2.291593E3,1.3966052E3,1.1182426E3,1.1954639E4,1.3001989E3,3.4660797E4,6.2316787E3,5.065437E3,9.558757E3,7.6378438E3,3.1575579E3,1.3334171E3,7.311489E3,4.785224E3,1.4465396E3,1.51364E3,9.339666E2,3.258266E3,6.084164E2,6.1881752E1,2.4930682E2,5.785075E3,7.043574E2,2.9537422E1,6.625575E2,4.3697517E1,7.979334E2,1.0552512E3,1.0369342E3,1.8916649E3,7.2267E2,1.6627873E2,1.9756784E2,8.9933044E2,2.9576948E3,7.029458E3,5.2870276E2,5.971263E2,1.0866305E4,3.4314722E3,3.1119742E2,5.153932E2,1.2223334E3,2.5885635E3,6.0489E2,1.1868088E3,1.1047842E3,3.0753864E2,1.0890665E3,5.7021735E2,5.480252E2,6.6696816E3,5.2849575E3,7.7687427E2,5.233245E2,6.350845E3,2.8309953E4,2.5912942E3,3.6403845E3,1.8034646E3,3.2619727E3,7.111477E3,2.44728E3,4.0637751E3,3.5740688E3,1.3379397E3,1.8196182E3,9.550067E2,3.784104E2,1.4067262E3,5.904762E3,1.6649028E3,3.1203215E3,7.001405E2,7.46399E2,6.6579175E2,8.4784827E2,2.9633105E2,6.3763556E2,2.2274946E3,1.0307715E3,4.107032E2,1.9771321E2],"tree_param":{"num_deleted":"0","num_feature":"100","num_nodes":"127","size_leaf_vector":"1"}},{"base_weights":[-2.0557296E-4,3.1412193E-1,-1.5420324E-1,2.0218888E-1,4.5505357E-1,-2.591902E-1,2.1610108E-1,3.1322715E-1,3.7092086E-2,3.6811948E-1,5.9703153E-1,3.508235E-2,-3.565926E-1,1.1988695E-1,4.6411687E-1,2.0564015E-1,4.1026962E-1,1.3718368E-1,-1.2547208E-1,4.447283E-1,2.1437073E-1,2.1735287E-1,6.3653725E-1,1.3227949E-1,-1.8643592E-1,-4.9091098E-1,-1.9215696E-1,8.968261E-3,2.7826557E-1,2.881068E-1,6.1325216E-1,2.3445013E-1,-3.2776594E-1,4.9423173E-1,2.994065E-1,3.6958084E-1,8.869129E-2,-2.906332E-1,4.078715E-2,6.1686397E-1,3.952938E-1,1.1656465E-1,4.1030207E-1,1.4557505E-1,7.3736614E-1,8.0243516E-1,5.9385794E-1,-1.3645388E-1,2.159793E-1,-4.512636E-2,-4.368185E-1,-5.1377827E-1,7.6901674E-1,9.049653E-2,-2.798129E-1,-1.6525367E-1,1.3636848E-1,8.031218E-2,4.0006268E-1,4.519707E-1,3.9506264E-2,6.777394E-1,2.8645223E-1,4.117036E-2,1.5995953E-2,1.170731E-2,-5.2988738E-2,5.9841376E-2,4.0306743E-2,9.150889E-2,2.7974492E-2,1.1617863E-2,5.0979245E-2,5.1429976E-2,6.2688775E-3,-7.8489915E-2,-2.2579348E-2,-4.0026796E-3,3.6108214E-2,4.7554303E-2,7.379143E-2,3.3488095E-2,5.703292E-2,5.026242E-2,3.6760462E-3,5.364718E-2,1.907364E-2,1.1019677E-1,1.1136493E-2,1.2681086E-1,5.453668E-2,8.237823E-2,-1.027534E-3,5.9891403E-2,-1.0515455E-1,-2.2517283E-2,2.2204682E-2,3.1951457E-2,7.527483E-3,2.3765719E-2,-1.0470048E-2,-1.6417338E-2,-6.1100956E-2,-2.0656874E-2,-5.8232795E-2,1.1008152E-2,1.1920979E-1,1.6880988E-3,4.6135418E-2,-3.2741018E-2,2.7681524E-2,2.0194255E-2,-2.42978E-2,7.7081257E-3,4.0662725E-2,2.6985014E-2,-1.5645018E-2,5.116859E-2,2.7365146E-2,5.785957E-2,3.1123465E-2,1.8633358E-2,-3.0097563E-2,7.603546E-2,4.99763E-2,1.2480549E-2,4.7194842E-2],"categories":[],"categories_nodes":[],"categories_segments":[],"categories_sizes":[],"default_left":[0,0,0,0,0,0,0,0,0,0,0,0,0,0,0,0,0,0,0,0,0,0,0,0,0,0,0,0,0,0,0,0,0,0,0,0,0,0,0,0,0,0,0,0,0,0,0,0,0,0,0,0,0,0,0,0,0,0,0,0,0,0,0,0,0,0,0,0,0,0,0,0,0,0,0,0,0,0,0,0,0,0,0,0,0,0,0,0,0,0,0,0,0,0,0,0,0,0,0,0,0,0,0,0,0,0,0,0,0,0,0,0,0,0,0,0,0,0,0,0,0,0,0,0,0,0,0],"id":8,"left_children":[1,3,5,7,9,11,13,15,17,19,21,23,25,27,29,31,33,35,37,39,41,43,45,47,49,51,53,55,57,59,61,63,65,67,69,71,73,75,77,79,81,83,85,87,89,91,93,95,97,99,101,103,105,107,109,111,113,115,117,119,121,123,125,-1,-1,-1,-1,-1,-1,-1,-1,-1,-1,-1,-1,-1,-1,-1,-1,-1,-1,-1,-1,-1,-1,-1,-1,-1,-1,-1,-1,-1,-1,-1,-1,-1,-1,-1,-1,-1,-1,-1,-1,-1,-1,-1,-1,-1,-1,-1,-1,-1,-1,-1,-1,-1,-1,-1,-1,-1,-1,-1,-1,-1,-1,-1,-1],"loss_changes":[7.2384165E3,7.755845E2,3.9019548E3,5.0241614E2,2.6842578E2,2.2413271E3,5.289817E2,1.7099512E2,1.7935867E2,1.5894043E2,1.2382153E2,4.1873203E2,1.2975015E3,2.806292E2,1.6247241E2,1.1952588E2,8.003589E1,7.685034E1,1.1536158E2,7.643396E1,8.603903E1,2.9020649E1,5.2519287E1,3.040612E2,2.0982785E2,9.32021E2,6.544994E2,2.0857762E2,1.5860547E2,1.15836E2,7.047583E1,9.731357E1,3.5912205E1,4.6300293E1,4.4714355E1,4.1776047E1,6.244885E1,6.736214E1,5.4223274E1,3.4010742E1,7.386426E1,9.234372E1,4.1324142E1,2.2353909E1,8.928547E0,2.6530151E1,5.0189453E1,1.0216977E2,1.5012769E2,6.391403E1,1.0151407E2,6.687129E2,1.6067645E2,1.7071935E2,5.342842E2,1.1333068E2,8.693918E1,1.125694E2,5.7333923E1,3.036496E1,5.659449E1,4.0789307E1,1.6564419E1,0E0,0E0,0E0,0E0,0E0,0E0,0E0,0E0,0E0,0E0,0E0,0E0,0E0,0E0,0E0,0E0,0E0,0E0,0E0,0E0,0E0,0E0,0E0,0E0,0E0,0E0,0E0,0E0,0E0,0E0,0E0,0E0,0E0,0E0,0E0,0E0,0E0,0E0,0E0,0E0,0E0,0E0,0E0,0E0,0E0,0E0,0E0,0E0,0E0,0E0,0E0,0E0,0E0,0E0,0E0,0E0,0E0,0E0,0E0,0E0,0E0,0E0,0E0,0E0],"parents":[2147483647,0,0,1,1,2,2,3,3,4,4,5,5,6,6,7,7,8,8,9,9,10,10,11,11,12,12,13,13,14,14,15,15,16,16,17,17,18,18,19,19,20,20,21,21,22,22,23,23,24,24,25,25,26,26,27,27,28,28,29,29,30,30,31,31,32,32,33,33,34,34,35,35,36,36,37,37,38,38,39,39,40,40,41,41,42,42,43,43,44,44,45,45,46,46,47,47,48,48,49,49,50,50,51,51,52,52,53,53,54,54,55,55,56,56,57,57,58,58,59,59,60,60,61,61,62,62],"right_children":[2,4,6,8,10,12,14,16,18,20,22,24,26,28,30,32,34,36,38,40,42,44,46,48,50,52,54,56,58,60,62,64,66,68,70,72,74,76,78,80,82,84,86,88,90,92,94,96,98,100,102,104,106,108,110,112,114,116,118,120,122,124,126,-1,-1,-1,-1,-1,-1,-1,-1,-1,-1,-1,-1,-1,-1,-1,-1,-1,-1,-1,-1,-1,-1,-1,-1,-1,-1,-1,-1,-1,-1,-1,-1,-1,-1,-1,-1,-1,-1,-1,-1,-1,-1,-1,-1,-1,-1,-1,-1,-1,-1,-1,-1,-1,-1,-1,-1,-1,-1,-1,-1,-1,-1,-1,-1],"split_conditions":[-1.24504484E-1,-2.5011856E-2,2.0022608E-1,-3.87401E-1,2.2447452E-1,-1.0491094E-1,1.0153583E0,7.307108E-2,3.1685676E-2,5.5230805E-3,-7.381727E-1,2.3670861E-1,2.8870907E-2,-1.7986416E-3,4.410187E-2,5.099514E-1,6.916907E-2,-3.3443314E-1,5.356609E-2,-1.8102033E-1,2.8967965E-1,2.5514543E-1,-1.9902405E-1,-2.1373868E-1,4.5409516E-1,7.399958E-1,-1.3239753E-1,6.6575184E-2,-4.231477E-1,1.1006391E0,7.284368E-1,-2.1430145E-1,-9.739677E-2,-4.9026992E-2,-1.9322511E0,-2.1373868E-1,-1.9025352E0,-1.03306584E-1,2.4709083E-1,-1.8120784E-2,1.0927284E-1,-2.4703069E-1,8.652276E-2,-5.723047E-1,-2.3610687E-1,6.8154424E-1,8.7248427E-1,2.973548E-1,-1.1810957E-1,-2.0869845E-1,3.6658864E-2,-1.6014464E-1,-2.6312268E-1,4.9115196E-1,4.0112463E-1,-9.053069E-1,2.4227718E-1,-2.5388336E-1,1.11121185E-1,3.1311664E-1,6.1098605E-1,1.476188E-1,1.4180753E-3,4.117036E-2,1.5995953E-2,1.170731E-2,-5.2988738E-2,5.9841376E-2,4.0306743E-2,9.150889E-2,2.7974492E-2,1.1617863E-2,5.0979245E-2,5.1429976E-2,6.2688775E-3,-7.8489915E-2,-2.2579348E-2,-4.0026796E-3,3.6108214E-2,4.7554303E-2,7.379143E-2,3.3488095E-2,5.703292E-2,5.026242E-2,3.6760462E-3,5.364718E-2,1.907364E-2,1.1019677E-1,1.1136493E-2,1.2681086E-1,5.453668E-2,8.237823E-2,-1.027534E-3,5.9891403E-2,-1.0515455E-1,-2.2517283E-2,2.2204682E-2,3.1951457E-2,7.527483E-3,2.3765719E-2,-1.0470048E-2,-1.6417338E-2,-6.1100956E-2,-2.0656874E-2,-5.8232795E-2,1.1008152E-2,1.1920979E-1,1.6880988E-3,4.6135418E-2,-3.2741018E-2,2.7681524E-2,2.0194255E-2,-2.42978E-2,7.7081257E-3,4.0662725E-2,2.6985014E-2,-1.5645018E-2,5.116859E-2,2.7365146E-2,5.785957E-2,3.1123465E-2,1.8633358E-2,-3.0097563E-2,7.603546E-2,4.99763E-2,1.2480549E-2,4.7194842E-2],"split_indices":[98,96,96,98,90,82,96,92,82,48,87,93,44,90,48,48,83,88,58,33,70,15,33,48,92,2,79,48,80,98,59,42,79,33,49,48,49,84,36,16,20,73,44,37,37,41,42,44,93,0,75,64,13,44,83,97,60,97,54,75,59,61,26,0,0,0,0,0,0,0,0,0,0,0,0,0,0,0,0,0,0,0,0,0,0,0,0,0,0,0,0,0,0,0,0,0,0,0,0,0,0,0,0,0,0,0,0,0,0,0,0,0,0,0,0,0,0,0,0,0,0,0,0,0,0,0,0],"split_type":[0,0,0,0,0,0,0,0,0,0,0,0,0,0,0,0,0,0,0,0,0,0,0,0,0,0,0,0,0,0,0,0,0,0,0,0,0,0,0,0,0,0,0,0,0,0,0,0,0,0,0,0,0,0,0,0,0,0,0,0,0,0,0,0,0,0,0,0,0,0,0,0,0,0,0,0,0,0,0,0,0,0,0,0,0,0,0,0,0,0,0,0,0,0,0,0,0,0,0,0,0,0,0,0,0,0,0,0,0,0,0,0,0,0,0,0,0,0,0,0,0,0,0,0,0,0,0],"sum_hessian":[1.4953444E5,4.9170527E4,1.00363914E5,2.740606E4,2.1764465E4,7.81948E4,2.2169123E4,1.6385115E4,1.1020946E4,1.3501187E4,8.263277E3,1.9445775E4,5.874902E4,1.5973803E4,6.1953213E3,7.7718755E3,8.613239E3,6.8212334E3,4.199713E3,9.009903E3,4.491283E3,7.793794E2,7.4838984E3,1.3515769E4,5.930006E3,3.2334646E4,2.6414371E4,9.395104E3,6.578699E3,2.8429697E3,3.3523516E3,7.3741484E3,3.9772726E2,4.8992993E3,3.7139397E3,1.1764656E3,5.644768E3,2.1064387E3,2.0932742E3,2.0076385E3,7.0022646E3,2.9968796E3,1.4944037E3,6.859739E2,9.340553E1,1.527722E3,5.9561763E3,3.2097278E3,1.0306041E4,3.7914104E3,2.1385955E3,3.1758826E4,5.7582025E2,6.2525386E3,2.0161834E4,3.9682112E3,5.426892E3,2.506544E3,4.0721553E3,1.7130215E3,1.1299481E3,2.798961E3,5.533908E2,2.1806575E3,5.1934907E3,1.2438819E2,2.7333905E2,2.2838103E3,2.615489E3,1.1352341E2,3.6004163E3,4.197274E2,7.5673816E2,3.2392896E2,5.320839E3,2.4299677E2,1.8634419E3,1.6722278E3,4.2104642E2,9.285386E2,1.0791E3,5.2077437E3,1.7945214E3,5.12469E2,2.4844106E3,9.4813226E2,5.4627136E2,2.2611986E1,6.633619E2,2.332464E1,7.0080894E1,1.4886079E3,3.911424E1,5.938564E3,1.7612432E1,2.5732837E3,6.364441E2,5.9364907E3,4.3695503E3,6.5922833E2,3.1321821E3,8.344501E2,1.3041453E3,5.7944893E3,2.5964338E4,2.2564525E2,3.5017502E2,5.217839E3,1.0346998E3,1.8573984E4,1.5878494E3,6.929379E2,3.2752732E3,4.451617E3,9.7527527E2,1.3920283E3,1.1145155E3,2.1609512E3,1.9112041E3,9.0007886E2,8.129426E2,7.8980865E2,3.401395E2,1.9093732E3,8.8958777E2,2.9659882E2,2.56792E2],"tree_param":{"num_deleted":"0","num_feature":"100","num_nodes":"127","size_leaf_vector":"1"}},{"base_weights":[1.7402094E-3,2.8797972E-1,-1.3724557E-1,1.82549E-1,4.2224714E-1,8.7904036E-2,-3.4942126E-1,2.857392E-1,3.0262565E-2,3.355009E-1,5.5469996E-1,2.9672697E-1,-1.9771906E-2,-4.3014795E-1,-1.3288493E-1,4.891573E-1,2.303554E-1,1.5082955E-1,-9.477784E-2,3.5971466E-1,-4.718826E-2,2.7093813E-1,6.0699505E-1,2.0276888E-1,4.7606882E-1,-1.9397232E-1,6.2189747E-2,-1.0584534E-1,-4.9432105E-1,-2.1854983E-1,4.756296E-2,6.735514E-1,4.0108648E-1,2.6373205E-1,-8.4004305E-2,6.567878E-1,1.3080259E-1,5.5213344E-1,-1.2603828E-1,3.1414163E-1,5.5426747E-1,5.8876246E-1,-1.3386036E-1,3.1772116E-1,-1.9521593E-1,4.98029E-1,7.2040504E-1,2.6386178E-1,-1.08325444E-1,6.338864E-1,3.194744E-1,8.931456E-3,-3.993028E-1,1.3886037E-1,-8.268046E-2,-2.5443566E-1,2.0819934E-1,-1.9014788E-1,-5.8732927E-1,-3.2139885E-1,-9.412011E-2,-5.802032E-2,3.2919616E-1,1.1946856E-2,7.3393546E-2,1.5434901E-2,5.90399E-2,2.063093E-2,4.9184818E-2,-1.3915728E-2,7.711253E-2,9.0548046E-2,3.7862193E-2,-1.3329117E-1,1.3919382E-2,2.3524025E-2,9.464183E-2,6.898325E-3,-2.2844454E-2,4.051721E-2,2.1055292E-2,5.6951262E-2,-5.9199423E-2,7.10533E-2,-4.2423685E-3,-2.3964267E-2,3.5513654E-2,2.5583804E-2,6.199059E-2,-5.2667983E-2,2.5183832E-2,7.700955E-2,4.160378E-2,6.519119E-2,8.244772E-2,4.308186E-2,1.880601E-2,5.367133E-3,-4.697017E-2,6.620621E-2,1.1282637E-2,-3.6775857E-2,3.5720807E-2,5.9144456E-2,-2.2029947E-3,-5.84726E-2,-2.2406867E-2,5.699576E-3,2.4925832E-2,2.2422247E-2,-1.6208645E-2,2.4285262E-2,-3.0254517E-2,3.1715255E-2,-3.9473264E-3,1.8197423E-2,-2.6373554E-2,-6.3558646E-2,-2.2558598E-2,-3.9310716E-2,-3.42034E-3,-3.933003E-2,-1.4726064E-3,1.42566655E-2,-1.705478E-2,1.23642765E-1,3.066785E-2],"categories":[],"categories_nodes":[],"categories_segments":[],"categories_sizes":[],"default_left":[0,0,0,0,0,0,0,0,0,0,0,0,0,0,0,0,0,0,0,0,0,0,0,0,0,0,0,0,0,0,0,0,0,0,0,0,0,0,0,0,0,0,0,0,0,0,0,0,0,0,0,0,0,0,0,0,0,0,0,0,0,0,0,0,0,0,0,0,0,0,0,0,0,0,0,0,0,0,0,0,0,0,0,0,0,0,0,0,0,0,0,0,0,0,0,0,0,0,0,0,0,0,0,0,0,0,0,0,0,0,0,0,0,0,0,0,0,0,0,0,0,0,0,0,0,0,0],"id":9,"left_children":[1,3,5,7,9,11,13,15,17,19,21,23,25,27,29,31,33,35,37,39,41,43,45,47,49,51,53,55,57,59,61,63,65,67,69,71,73,75,77,79,81,83,85,87,89,91,93,95,97,99,101,103,105,107,109,111,113,115,117,119,121,123,125,-1,-1,-1,-1,-1,-1,-1,-1,-1,-1,-1,-1,-1,-1,-1,-1,-1,-1,-1,-1,-1,-1,-1,-1,-1,-1,-1,-1,-1,-1,-1,-1,-1,-1,-1,-1,-1,-1,-1,-1,-1,-1,-1,-1,-1,-1,-1,-1,-1,-1,-1,-1,-1,-1,-1,-1,-1,-1,-1,-1,-1,-1,-1,-1],"loss_changes":[5.913911E3,6.8772534E2,4.7802983E3,4.2771173E2,2.4535522E2,1.0916483E3,9.0048047E2,1.8267175E2,1.6577077E2,1.19698975E2,1.2531177E2,2.782257E2,4.5737625E2,7.8093115E2,2.1629703E2,5.6100037E1,1.3384283E2,5.6637268E1,1.0923072E2,1.0752844E2,4.2491333E1,2.8796814E1,8.786426E1,2.060567E2,1.4011145E2,4.2702737E2,2.4198055E2,2.8938635E2,8.8615283E2,1.21390564E2,1.3397755E2,3.740268E1,1.0975342E2,1.5093408E2,5.7879112E1,1.4384766E1,6.633929E1,3.0889572E1,1.0286729E2,9.274298E1,4.0601135E1,7.137848E0,3.51558E1,2.224089E1,1.8032253E1,8.096838E1,2.4382324E1,1.14594666E2,1.0423581E2,4.142566E1,7.408603E1,9.300837E1,1.6539789E2,1.2873529E2,1.8378214E2,1.0077939E2,5.3765976E1,2.0097183E2,4.1865723E2,1.0695282E2,1.020116E2,7.400104E1,2.4718079E1,0E0,0E0,0E0,0E0,0E0,0E0,0E0,0E0,0E0,0E0,0E0,0E0,0E0,0E0,0E0,0E0,0E0,0E0,0E0,0E0,0E0,0E0,0E0,0E0,0E0,0E0,0E0,0E0,0E0,0E0,0E0,0E0,0E0,0E0,0E0,0E0,0E0,0E0,0E0,0E0,0E0,0E0,0E0,0E0,0E0,0E0,0E0,0E0,0E0,0E0,0E0,0E0,0E0,0E0,0E0,0E0,0E0,0E0,0E0,0E0,0E0,0E0,0E0,0E0],"parents":[2147483647,0,0,1,1,2,2,3,3,4,4,5,5,6,6,7,7,8,8,9,9,10,10,11,11,12,12,13,13,14,14,15,15,16,16,17,17,18,18,19,19,20,20,21,21,22,22,23,23,24,24,25,25,26,26,27,27,28,28,29,29,30,30,31,31,32,32,33,33,34,34,35,35,36,36,37,37,38,38,39,39,40,40,41,41,42,42,43,43,44,44,45,45,46,46,47,47,48,48,49,49,50,50,51,51,52,52,53,53,54,54,55,55,56,56,57,57,58,58,59,59,60,60,61,61,62,62],"right_children":[2,4,6,8,10,12,14,16,18,20,22,24,26,28,30,32,34,36,38,40,42,44,46,48,50,52,54,56,58,60,62,64,66,68,70,72,74,76,78,80,82,84,86,88,90,92,94,96,98,100,102,104,106,108,110,112,114,116,118,120,122,124,126,-1,-1,-1,-1,-1,-1,-1,-1,-1,-1,-1,-1,-1,-1,-1,-1,-1,-1,-1,-1,-1,-1,-1,-1,-1,-1,-1,-1,-1,-1,-1,-1,-1,-1,-1,-1,-1,-1,-1,-1,-1,-1,-1,-1,-1,-1,-1,-1,-1,-1,-1,-1,-1,-1,-1,-1,-1,-1,-1,-1,-1,-1,-1,-1],"split_conditions":[-1.24504484E-1,-2.5011856E-2,-8.8088393E-1,-3.87401E-1,1.9423155E-1,-1.8961396E0,6.2068734E-2,-2.2157793E-1,-3.500398E-2,4.9086115E-1,-6.155651E-1,2.0628761E-1,-2.332683E-2,-1.1704211E-2,5.872749E-2,-4.0197453E-1,3.387937E-1,-1.9322511E0,-1.9322511E0,3.566093E-1,-7.7038425E-1,-4.35855E-2,1.5061721E-1,1.5981377E0,-2.5104702E0,4.3431658E-1,5.689602E-2,-2.5011856E-2,-1.0795334E-1,5.0191462E-2,6.958746E-2,-3.589281E-1,-3.248989E-2,1.6186343E-1,3.1141767E-1,-1.4183825E-1,-8.1044954E-1,2.3069622E-1,-2.7371785E-2,-4.9380985E-1,4.4972032E-1,1.7199832E-1,1.7995046E-1,2.3484595E-1,4.9113166E-2,-1.2749764E0,3.3111206E-1,-1.8003088E-1,-1.3317151E-1,8.5689014E-1,-1.0390351E0,-1.9025352E0,-1.247197E-2,9.120291E-2,-2.9881507E-1,-1.0062491E-1,1.2876941E-1,-2.3725817E-1,7.410694E-2,1.615503E-1,-2.741694E-1,1.0068949E-1,-2.0139508E0,1.1946856E-2,7.3393546E-2,1.5434901E-2,5.90399E-2,2.063093E-2,4.9184818E-2,-1.3915728E-2,7.711253E-2,9.0548046E-2,3.7862193E-2,-1.3329117E-1,1.3919382E-2,2.3524025E-2,9.464183E-2,6.898325E-3,-2.2844454E-2,4.051721E-2,2.1055292E-2,5.6951262E-2,-5.9199423E-2,7.10533E-2,-4.2423685E-3,-2.3964267E-2,3.5513654E-2,2.5583804E-2,6.199059E-2,-5.2667983E-2,2.5183832E-2,7.700955E-2,4.160378E-2,6.519119E-2,8.244772E-2,4.308186E-2,1.880601E-2,5.367133E-3,-4.697017E-2,6.620621E-2,1.1282637E-2,-3.6775857E-2,3.5720807E-2,5.9144456E-2,-2.2029947E-3,-5.84726E-2,-2.2406867E-2,5.699576E-3,2.4925832E-2,2.2422247E-2,-1.6208645E-2,2.4285262E-2,-3.0254517E-2,3.1715255E-2,-3.9473264E-3,1.8197423E-2,-2.6373554E-2,-6.3558646E-2,-2.2558598E-2,-3.9310716E-2,-3.42034E-3,-3.933003E-2,-1.4726064E-3,1.42566655E-2,-1.705478E-2,1.23642765E-1,3.066785E-2],"split_indices":[98,96,99,98,90,99,67,30,82,48,87,48,48,98,90,46,48,49,49,46,68,52,46,98,99,98,79,96,64,85,52,34,10,10,17,42,15,12,79,98,33,8,14,30,23,49,75,43,68,59,50,49,86,50,56,79,28,95,86,83,48,98,49,0,0,0,0,0,0,0,0,0,0,0,0,0,0,0,0,0,0,0,0,0,0,0,0,0,0,0,0,0,0,0,0,0,0,0,0,0,0,0,0,0,0,0,0,0,0,0,0,0,0,0,0,0,0,0,0,0,0,0,0,0,0,0,0],"split_type":[0,0,0,0,0,0,0,0,0,0,0,0,0,0,0,0,0,0,0,0,0,0,0,0,0,0,0,0,0,0,0,0,0,0,0,0,0,0,0,0,0,0,0,0,0,0,0,0,0,0,0,0,0,0,0,0,0,0,0,0,0,0,0,0,0,0,0,0,0,0,0,0,0,0,0,0,0,0,0,0,0,0,0,0,0,0,0,0,0,0,0,0,0,0,0,0,0,0,0,0,0,0,0,0,0,0,0,0,0,0,0,0,0,0,0,0,0,0,0,0,0,0,0,0,0,0,0],"sum_hessian":[1.486514E5,4.858667E4,1.00064734E5,2.721725E4,2.1369424E4,4.8548367E4,5.1516367E4,1.6223341E4,1.0993909E4,1.2914784E4,8.45464E3,1.6516021E4,3.2032346E4,3.7525527E4,1.399084E4,3.4701313E3,1.275321E4,5.596969E3,5.39694E3,1.2146314E4,7.6846924E2,1.3166202E3,7.138019E3,1.0839358E4,5.6766626E3,1.0248638E4,2.1783709E4,6.199356E3,3.132617E4,9.486877E3,4.503962E3,1.1195272E3,2.350604E3,1.1529269E4,1.2239408E3,2.1189493E2,5.385074E3,2.4800491E2,5.148935E3,9.843208E3,2.3031064E3,9.147615E1,6.769931E2,1.1968257E3,1.1979451E2,3.6430818E3,3.4949375E3,9.060252E3,1.7791064E3,2.8257717E3,2.850891E3,5.155261E3,5.0933765E3,1.4244853E4,7.5388564E3,4.2083594E3,1.9909965E3,7.336383E3,2.3989787E4,5.1929736E3,4.293904E3,3.276433E3,1.227529E3,1.1030952E2,1.0092177E3,1.02131036E3,1.3292937E3,9.212219E3,2.31705E3,1.1505701E3,7.337062E1,1.1068365E2,1.0121128E2,2.979603E1,5.3552783E3,1.383818E2,1.096231E2,1.7729229E3,3.3760122E3,5.2376323E3,4.6055757E3,2.273374E3,2.9732422E1,7.6576965E1,1.4899191E1,5.570082E2,1.199849E2,9.949258E2,2.0189993E2,6.868821E1,5.11063E1,8.4170624E2,2.8013755E3,2.1121377E3,1.3827999E3,2.8276135E3,6.2326387E3,1.2290173E3,5.500891E2,2.6805537E3,1.4521797E2,1.4793019E2,2.702961E3,2.592669E2,4.895994E3,2.4736055E3,2.6197708E3,8.1803228E3,6.06453E3,1.5492407E3,5.9896157E3,3.7086188E2,3.8374976E3,1.3825299E3,6.084666E2,1.2110094E3,6.1253735E3,2.1165514E4,2.8242732E3,4.1551323E3,1.0378414E3,8.996821E2,3.3942214E3,1.1773928E3,2.0990403E3,2.8423964E1,1.1991051E3],"tree_param":{"num_deleted":"0","num_feature":"100","num_nodes":"127","size_leaf_vector":"1"}},{"base_weights":[1.0433263E-3,1.9864278E-1,-1.6051878E-1,3.2050532E-1,9.562371E-2,8.372784E-2,-2.644122E-1,2.639213E-1,5.215048E-1,3.567411E-1,6.220649E-2,3.3131984E-1,1.1049765E-2,-3.9792293E-1,-9.325686E-2,3.6108044E-1,1.6644211E-1,3.9698917E-1,6.621486E-1,3.223448E-1,8.761092E-1,-4.5394626E-2,1.3414006E-1,-5.7734214E-2,4.0364662E-1,1.0455192E-1,-9.9930845E-2,-2.6865298E-1,-5.3095526E-1,4.052182E-2,-2.4199598E-1,6.384346E-1,3.2515892E-1,4.267523E-1,1.2526521E-1,5.289409E-1,2.7683157E-1,2.688855E-1,6.819961E-1,4.5758945E-1,2.0888211E-1,-1.0619434E-2,9.153853E-1,-9.156169E-2,4.3649387E-1,1.0281317E-1,3.6524698E-1,2.9529133E-1,-2.7486646E-1,4.563489E-1,1.4043047E-1,1.944772E-1,-1.0559042E-2,-1.4064647E-1,3.5462672E-1,-2.0412344E-1,-5.5258495E-1,-5.6390494E-1,1.5512915E-2,-1.07903734E-1,1.3613233E-1,-4.1918853E-1,-1.0480977E-1,7.823483E-2,5.1626068E-2,3.0039594E-2,6.4112335E-2,-8.341643E-2,4.4772293E-2,-1.1052519E-2,1.8696027E-2,7.826011E-2,4.4215284E-2,2.0429224E-2,6.0587794E-2,-2.9524824E-2,5.3208828E-2,6.0695775E-2,7.9272814E-2,3.314671E-2,6.2416025E-2,3.7358634E-2,1.2619925E-2,9.446498E-2,-1.0725778E-1,7.444078E-2,1.090041E-1,-1.4817341E-2,1.641985E-2,7.661168E-2,3.3699997E-2,2.1687813E-2,4.357501E-3,5.3316005E-2,1.4093411E-2,6.902842E-2,8.922229E-3,-5.6526076E-2,-1.7205013E-2,3.960822E-2,6.621556E-2,3.8333014E-3,4.4161435E-2,1.4272046E-2,4.578929E-2,1.8302554E-2,-9.57056E-3,6.229616E-3,-2.6344988E-2,2.9918406E-2,9.892652E-2,-3.4014508E-3,-2.854085E-2,-3.6217358E-2,-7.734345E-2,-6.308828E-2,-2.7800262E-2,-3.721189E-2,4.6971273E-2,-2.2147363E-2,1.092482E-2,6.3336412E-3,4.0409826E-2,-1.0428287E-2,-6.080761E-2,4.1923415E-2,-1.355009E-2],"categories":[],"categories_nodes":[],"categories_segments":[],"categories_sizes":[],"default_left":[0,0,0,0,0,0,0,0,0,0,0,0,0,0,0,0,0,0,0,0,0,0,0,0,0,0,0,0,0,0,0,0,0,0,0,0,0,0,0,0,0,0,0,0,0,0,0,0,0,0,0,0,0,0,0,0,0,0,0,0,0,0,0,0,0,0,0,0,0,0,0,0,0,0,0,0,0,0,0,0,0,0,0,0,0,0,0,0,0,0,0,0,0,0,0,0,0,0,0,0,0,0,0,0,0,0,0,0,0,0,0,0,0,0,0,0,0,0,0,0,0,0,0,0,0,0,0],"id":10,"left_children":[1,3,5,7,9,11,13,15,17,19,21,23,25,27,29,31,33,35,37,39,41,43,45,47,49,51,53,55,57,59,61,63,65,67,69,71,73,75,77,79,81,83,85,87,89,91,93,95,97,99,101,103,105,107,109,111,113,115,117,119,121,123,125,-1,-1,-1,-1,-1,-1,-1,-1,-1,-1,-1,-1,-1,-1,-1,-1,-1,-1,-1,-1,-1,-1,-1,-1,-1,-1,-1,-1,-1,-1,-1,-1,-1,-1,-1,-1,-1,-1,-1,-1,-1,-1,-1,-1,-1,-1,-1,-1,-1,-1,-1,-1,-1,-1,-1,-1,-1,-1,-1,-1,-1,-1,-1,-1],"loss_changes":[4.707636E3,8.3272095E2,2.0587092E3,3.454619E2,3.1364346E2,4.3567004E2,1.3006018E3,2.245321E2,1.166167E2,7.257257E1,2.4668118E2,1.5462518E2,1.9424852E2,5.4973584E2,4.963471E2,1.1810742E2,1.26848145E2,5.6020447E1,2.4267456E1,5.8622986E1,8.811661E0,2.8413547E2,1.3824939E2,6.616825E1,6.4206116E1,1.0516805E2,1.5846857E2,2.9705017E2,2.8373242E2,1.8638936E2,2.870785E2,2.3519836E1,8.208557E1,4.3119263E1,1.4874477E2,3.679944E1,4.4182144E1,2.2749058E1,2.4291992E1,3.6449432E1,2.831491E1,1.2890495E1,6.415924E0,1.6876607E2,3.6361908E1,1.13657425E2,8.5789215E1,2.6702627E1,1.5856705E1,4.76109E1,2.3794186E1,7.769809E1,7.3478775E1,1.9582143E2,2.4473595E1,1.827461E2,1.25998474E2,2.8440332E2,1.5810912E2,1.2693485E2,1.5579962E2,3.065028E2,1.0715222E2,0E0,0E0,0E0,0E0,0E0,0E0,0E0,0E0,0E0,0E0,0E0,0E0,0E0,0E0,0E0,0E0,0E0,0E0,0E0,0E0,0E0,0E0,0E0,0E0,0E0,0E0,0E0,0E0,0E0,0E0,0E0,0E0,0E0,0E0,0E0,0E0,0E0,0E0,0E0,0E0,0E0,0E0,0E0,0E0,0E0,0E0,0E0,0E0,0E0,0E0,0E0,0E0,0E0,0E0,0E0,0E0,0E0,0E0,0E0,0E0,0E0,0E0,0E0,0E0],"parents":[2147483647,0,0,1,1,2,2,3,3,4,4,5,5,6,6,7,7,8,8,9,9,10,10,11,11,12,12,13,13,14,14,15,15,16,16,17,17,18,18,19,19,20,20,21,21,22,22,23,23,24,24,25,25,26,26,27,27,28,28,29,29,30,30,31,31,32,32,33,33,34,34,35,35,36,36,37,37,38,38,39,39,40,40,41,41,42,42,43,43,44,44,45,45,46,46,47,47,48,48,49,49,50,50,51,51,52,52,53,53,54,54,55,55,56,56,57,57,58,58,59,59,60,60,61,61,62,62],"right_children":[2,4,6,8,10,12,14,16,18,20,22,24,26,28,30,32,34,36,38,40,42,44,46,48,50,52,54,56,58,60,62,64,66,68,70,72,74,76,78,80,82,84,86,88,90,92,94,96,98,100,102,104,106,108,110,112,114,116,118,120,122,124,126,-1,-1,-1,-1,-1,-1,-1,-1,-1,-1,-1,-1,-1,-1,-1,-1,-1,-1,-1,-1,-1,-1,-1,-1,-1,-1,-1,-1,-1,-1,-1,-1,-1,-1,-1,-1,-1,-1,-1,-1,-1,-1,-1,-1,-1,-1,-1,-1,-1,-1,-1,-1,-1,-1,-1,-1,-1,-1,-1,-1,-1,-1,-1,-1],"split_conditions":[-1.0002451E0,-1.7476007E0,-6.814617E-2,1.6182431E0,-6.2860835E-1,-3.971278E-1,5.8533795E-2,-5.1030595E-2,1.9794941E-1,5.298448E-1,-2.3097079E-1,-2.9976416E-1,-1.8747749E-2,-3.685155E-1,-1.7898364E-2,-1.0042893E0,-3.9478993E-1,-1.678287E-2,-7.0789874E-1,-7.8023486E-2,-3.780832E-1,5.470141E-1,4.7265318E-1,1.1316073E-1,2.6833344E-1,5.4214768E-2,2.0053488E-1,3.7303665E-1,4.914208E-1,-1.7121717E-1,-3.558009E-2,-2.9399544E-2,2.961272E-1,-7.0921093E-1,-2.1373868E-1,-1.774949E-1,1.9409144E-1,-1.858449E-1,3.709116E-1,5.78244E-2,-3.1234944E-1,-8.721389E-2,8.3954275E-2,2.4753782E-1,-7.5353503E-1,-2.3143226E-1,2.4136443E-1,-1.7528722E-1,-3.9614722E-1,2.164401E-1,2.068197E-1,7.722383E-3,-8.593652E-2,8.5079126E-2,1.8447724E-1,-9.11253E-2,8.44066E-2,-2.5011856E-2,-1.6786944E-2,2.1708095E-1,1.2912574E-1,8.206848E-3,-2.9273108E-1,7.823483E-2,5.1626068E-2,3.0039594E-2,6.4112335E-2,-8.341643E-2,4.4772293E-2,-1.1052519E-2,1.8696027E-2,7.826011E-2,4.4215284E-2,2.0429224E-2,6.0587794E-2,-2.9524824E-2,5.3208828E-2,6.0695775E-2,7.9272814E-2,3.314671E-2,6.2416025E-2,3.7358634E-2,1.2619925E-2,9.446498E-2,-1.0725778E-1,7.444078E-2,1.090041E-1,-1.4817341E-2,1.641985E-2,7.661168E-2,3.3699997E-2,2.1687813E-2,4.357501E-3,5.3316005E-2,1.4093411E-2,6.902842E-2,8.922229E-3,-5.6526076E-2,-1.7205013E-2,3.960822E-2,6.621556E-2,3.8333014E-3,4.4161435E-2,1.4272046E-2,4.578929E-2,1.8302554E-2,-9.57056E-3,6.229616E-3,-2.6344988E-2,2.9918406E-2,9.892652E-2,-3.4014508E-3,-2.854085E-2,-3.6217358E-2,-7.734345E-2,-6.308828E-2,-2.7800262E-2,-3.721189E-2,4.6971273E-2,-2.2147363E-2,1.092482E-2,6.3336412E-3,4.0409826E-2,-1.0428287E-2,-6.080761E-2,4.1923415E-2,-1.355009E-2],"split_indices":[99,99,82,96,81,82,89,79,46,54,75,90,76,99,87,86,46,43,48,31,15,80,63,87,85,70,52,93,32,96,67,23,10,4,48,44,36,41,46,36,73,42,11,66,63,71,74,40,50,37,42,96,65,93,50,87,71,96,16,44,62,73,51,0,0,0,0,0,0,0,0,0,0,0,0,0,0,0,0,0,0,0,0,0,0,0,0,0,0,0,0,0,0,0,0,0,0,0,0,0,0,0,0,0,0,0,0,0,0,0,0,0,0,0,0,0,0,0,0,0,0,0,0,0,0,0,0],"split_type":[0,0,0,0,0,0,0,0,0,0,0,0,0,0,0,0,0,0,0,0,0,0,0,0,0,0,0,0,0,0,0,0,0,0,0,0,0,0,0,0,0,0,0,0,0,0,0,0,0,0,0,0,0,0,0,0,0,0,0,0,0,0,0,0,0,0,0,0,0,0,0,0,0,0,0,0,0,0,0,0,0,0,0,0,0,0,0,0,0,0,0,0,0,0,0,0,0,0,0,0,0,0,0,0,0,0,0,0,0,0,0,0,0,0,0,0,0,0,0,0,0,0,0,0,0,0,0],"sum_hessian":[1.4745919E5,6.633165E4,8.112753E4,3.0385795E4,3.5945855E4,2.421048E4,5.691705E4,2.3712674E4,6.6731226E3,4.0772363E3,3.186862E4,5.493215E3,1.8717266E4,3.1974125E4,2.4942926E4,1.1874475E4,1.1838198E4,3.5415325E3,3.1315898E3,3.8255046E3,2.5173163E2,1.2768842E4,1.9099777E4,8.6115643E2,4.6320586E3,1.0158606E4,8.558658E3,1.6217908E4,1.5756217E4,1.313226E4,1.1810667E4,1.3596549E3,1.051482E4,1.615574E3,1.0222624E4,1.6863049E3,1.8552277E3,1.5115327E2,2.9804365E3,1.7438488E3,2.081656E3,1.0708032E1,2.410236E2,1.1653222E4,1.1156205E3,1.6821096E4,2.2786804E3,3.2781567E2,5.333407E2,3.8587158E3,7.733426E2,5.7028335E3,4.455773E3,7.855698E3,7.0295996E2,1.3216011E4,3.001898E3,1.486018E4,8.9603656E2,5.145017E3,7.987242E3,5.1529517E3,6.657715E3,6.218033E2,7.378516E2,9.752445E3,7.6237463E2,2.5795101E1,1.5897788E3,2.1198904E3,8.102734E3,4.278341E2,1.2584708E3,1.5214418E3,3.337859E2,4.804807E1,1.0310522E2,1.7804102E3,1.2000265E3,9.941206E2,7.497281E2,6.945649E2,1.3870911E3,5.695338E0,5.012694E0,1.2445334E2,1.1657026E2,9.541632E3,2.1115896E3,2.5711142E2,8.585091E2,5.748847E3,1.1072249E4,1.3023832E3,9.762971E2,1.11583275E2,2.162324E2,1.3828136E2,3.9505936E2,2.9869631E3,8.7175275E2,5.783998E2,1.9494281E2,4.7676187E3,9.352148E2,1.3607947E3,3.0949783E3,2.9617153E3,4.893983E3,6.478358E2,5.512417E1,4.273688E3,8.942322E3,1.6134542E3,1.3884437E3,1.2038689E4,2.8214907E3,4.8354294E2,4.1249365E2,3.378205E3,1.7668123E3,6.281924E3,1.7053181E3,1.932582E3,3.2203696E3,3.676426E2,6.2900723E3],"tree_param":{"num_deleted":"0","num_feature":"100","num_nodes":"127","size_leaf_vector":"1"}},{"base_weights":[9.843152E-4,2.9972574E-1,-9.831629E-2,4.800588E-1,2.5050026E-1,1.05546825E-1,-2.3556444E-1,6.8448335E-1,3.772276E-1,3.7086064E-1,1.8208185E-1,3.3593434E-1,4.7206316E-2,-1.559905E-2,-3.134458E-1,7.534837E-1,4.4830424E-1,4.657847E-1,2.3318791E-1,4.9580058E-1,2.7361763E-1,2.053005E-1,-2.3708165E-1,1.7631802E-1,4.9709886E-1,-1.5753305E-1,9.314521E-2,-8.759732E-2,1.5587136E-1,-2.2808741E-1,-5.4972136E-1,-1.1201385E-2,7.7315974E-1,2.772762E-1,8.8502264E-1,3.451032E-1,5.6827736E-1,1.6063078E-1,6.040894E-1,6.439037E-1,4.1317302E-1,1.8939933E-1,4.0413633E-1,1.5889584E-1,3.9915997E-1,-3.2860056E-1,4.5448676E-1,3.2647765E-1,2.672475E-2,3.4833544E-1,6.192637E-1,5.2529786E-2,-3.964057E-1,-2.0003537E-2,1.7315714E-1,-9.86469E-2,9.9998426E-1,6.283268E-2,2.7722716E-1,-4.2616823E-1,-1.4133674E-1,-5.677534E-1,4.1043445E-1,-6.848978E-2,5.7183187E-2,7.800748E-2,-6.838896E-2,-1.7234774E-1,3.681839E-2,-4.087411E-2,9.8873995E-2,5.173501E-2,1.8094148E-2,-2.522022E-2,5.8417667E-2,8.894112E-3,5.228761E-2,1.15374446E-1,5.119523E-2,7.886826E-2,5.490747E-2,5.76463E-3,4.4580832E-2,1.3542689E-2,4.956895E-2,4.8433438E-2,1.3249986E-2,3.7609424E-2,1.185435E-2,8.559815E-2,3.5761606E-2,8.330221E-4,-5.3438287E-2,-4.7430467E-2,6.8807155E-2,1.6598916E-2,5.2086335E-2,-6.5298653E-3,3.5029206E-2,2.143105E-2,5.3658325E-2,4.975186E-2,7.4993886E-2,-3.7327416E-3,3.7841134E-2,-4.570301E-2,2.5741348E-2,3.0104274E-2,-6.824692E-3,3.153562E-2,1.060576E-2,-1.2561469E-2,2.9413724E-2,7.285821E-2,1.4044876E-1,4.0619668E-2,1.510447E-3,4.5184877E-2,1.515303E-2,-2.7340183E-2,-6.4459E-2,-2.925711E-2,-4.151717E-3,-5.9764195E-2,-4.2010748E-4,-2.0069022E-2,8.444347E-2],"categories":[],"categories_nodes":[],"categories_segments":[],"categories_sizes":[],"default_left":[0,0,0,0,0,0,0,0,0,0,0,0,0,0,0,0,0,0,0,0,0,0,0,0,0,0,0,0,0,0,0,0,0,0,0,0,0,0,0,0,0,0,0,0,0,0,0,0,0,0,0,0,0,0,0,0,0,0,0,0,0,0,0,0,0,0,0,0,0,0,0,0,0,0,0,0,0,0,0,0,0,0,0,0,0,0,0,0,0,0,0,0,0,0,0,0,0,0,0,0,0,0,0,0,0,0,0,0,0,0,0,0,0,0,0,0,0,0,0,0,0,0,0,0,0,0,0],"id":11,"left_children":[1,3,5,7,9,11,13,15,17,19,21,23,25,27,29,31,33,35,37,39,41,43,45,47,49,51,53,55,57,59,61,63,65,67,69,71,73,75,77,79,81,83,85,87,89,91,93,95,97,99,101,103,105,107,109,111,113,115,117,119,121,123,125,-1,-1,-1,-1,-1,-1,-1,-1,-1,-1,-1,-1,-1,-1,-1,-1,-1,-1,-1,-1,-1,-1,-1,-1,-1,-1,-1,-1,-1,-1,-1,-1,-1,-1,-1,-1,-1,-1,-1,-1,-1,-1,-1,-1,-1,-1,-1,-1,-1,-1,-1,-1,-1,-1,-1,-1,-1,-1,-1,-1,-1,-1,-1,-1],"loss_changes":[4.3492026E3,3.2455615E2,3.0787722E3,1.6458801E2,2.3655444E2,5.9506396E2,1.1265737E3,4.241211E1,6.647162E1,1.2637805E2,1.78367E2,2.3003864E2,3.3230087E2,2.1231468E2,9.793633E2,3.0532104E1,4.4239418E1,3.9772278E1,5.3437683E1,5.5490845E1,6.4312775E1,1.5611603E2,6.104277E1,1.00985214E2,8.067102E1,3.2490964E2,2.6123703E2,1.4565042E2,5.7404076E1,6.1303467E2,2.23375E2,2.0767931E1,2.0461426E1,7.874187E1,2.283319E1,4.1940353E1,2.2921387E1,4.3196617E1,1.5874474E1,2.1943787E1,3.3940063E1,5.8821976E1,4.9964508E1,1.2274173E2,6.33172E1,5.8955956E1,2.4811668E1,6.990898E1,6.7118286E1,5.0576675E1,3.8485962E1,1.0092214E2,1.2020749E2,1.8515977E2,1.6124432E2,1.270511E2,1.2359894E1,4.719174E1,4.8367203E1,3.6240137E2,3.7458035E2,2.1309009E2,6.3337452E1,0E0,0E0,0E0,0E0,0E0,0E0,0E0,0E0,0E0,0E0,0E0,0E0,0E0,0E0,0E0,0E0,0E0,0E0,0E0,0E0,0E0,0E0,0E0,0E0,0E0,0E0,0E0,0E0,0E0,0E0,0E0,0E0,0E0,0E0,0E0,0E0,0E0,0E0,0E0,0E0,0E0,0E0,0E0,0E0,0E0,0E0,0E0,0E0,0E0,0E0,0E0,0E0,0E0,0E0,0E0,0E0,0E0,0E0,0E0,0E0,0E0,0E0,0E0,0E0],"parents":[2147483647,0,0,1,1,2,2,3,3,4,4,5,5,6,6,7,7,8,8,9,9,10,10,11,11,12,12,13,13,14,14,15,15,16,16,17,17,18,18,19,19,20,20,21,21,22,22,23,23,24,24,25,25,26,26,27,27,28,28,29,29,30,30,31,31,32,32,33,33,34,34,35,35,36,36,37,37,38,38,39,39,40,40,41,41,42,42,43,43,44,44,45,45,46,46,47,47,48,48,49,49,50,50,51,51,52,52,53,53,54,54,55,55,56,56,57,57,58,58,59,59,60,60,61,61,62,62],"right_children":[2,4,6,8,10,12,14,16,18,20,22,24,26,28,30,32,34,36,38,40,42,44,46,48,50,52,54,56,58,60,62,64,66,68,70,72,74,76,78,80,82,84,86,88,90,92,94,96,98,100,102,104,106,108,110,112,114,116,118,120,122,124,126,-1,-1,-1,-1,-1,-1,-1,-1,-1,-1,-1,-1,-1,-1,-1,-1,-1,-1,-1,-1,-1,-1,-1,-1,-1,-1,-1,-1,-1,-1,-1,-1,-1,-1,-1,-1,-1,-1,-1,-1,-1,-1,-1,-1,-1,-1,-1,-1,-1,-1,-1,-1,-1,-1,-1,-1,-1,-1,-1,-1,-1,-1,-1,-1],"split_conditions":[-2.7884772E-1,-1.1647286E0,-1.0434142E0,-4.0932888E-1,-1.3311374E-1,-2.5104702E0,-1.6685167E-2,1.8619253E-1,5.5230805E-3,-7.9979315E-2,5.099514E-1,5.9852876E-2,-2.741694E-1,-2.1582698E-2,-2.7707982E-1,-4.646282E-1,1.2901305E-1,9.553804E-2,2.504272E-1,-9.619365E-2,1.6084667E-1,1.6703267E-1,4.6692356E-1,-3.243213E-2,-3.4943113E-1,3.8717616E-1,-2.7988356E-1,7.399958E-1,-8.977403E-2,-4.482408E-3,7.399958E-1,1.5922946E-1,5.2855814E-1,-5.0041586E-1,-4.9041286E-1,1.7026515E-1,-5.533207E-1,2.8491488E-1,-4.999889E-1,4.2384468E-2,-6.6107506E-1,2.3779044E-1,4.6638966E-1,-2.1210814E-1,-3.827873E-1,-1.7151557E-1,5.33808E-1,6.443433E-2,1.8184039E-1,1.22682616E-1,1.17698245E-1,2.0411123E-1,3.852485E-1,-2.5429285E-1,-1.4283478E-1,5.5674165E-1,-1.7409021E-2,-7.1808845E-2,-9.4666235E-2,3.1186745E-1,-1.2459454E-1,9.144166E-2,-7.652743E-1,-6.848978E-2,5.7183187E-2,7.800748E-2,-6.838896E-2,-1.7234774E-1,3.681839E-2,-4.087411E-2,9.8873995E-2,5.173501E-2,1.8094148E-2,-2.522022E-2,5.8417667E-2,8.894112E-3,5.228761E-2,1.15374446E-1,5.119523E-2,7.886826E-2,5.490747E-2,5.76463E-3,4.4580832E-2,1.3542689E-2,4.956895E-2,4.8433438E-2,1.3249986E-2,3.7609424E-2,1.185435E-2,8.559815E-2,3.5761606E-2,8.330221E-4,-5.3438287E-2,-4.7430467E-2,6.8807155E-2,1.6598916E-2,5.2086335E-2,-6.5298653E-3,3.5029206E-2,2.143105E-2,5.3658325E-2,4.975186E-2,7.4993886E-2,-3.7327416E-3,3.7841134E-2,-4.570301E-2,2.5741348E-2,3.0104274E-2,-6.824692E-3,3.153562E-2,1.060576E-2,-1.2561469E-2,2.9413724E-2,7.285821E-2,1.4044876E-1,4.0619668E-2,1.510447E-3,4.5184877E-2,1.515303E-2,-2.7340183E-2,-6.4459E-2,-2.925711E-2,-4.151717E-3,-5.9764195E-2,-4.2010748E-4,-2.0069022E-2,8.444347E-2],"split_indices":[98,98,99,48,83,99,98,39,48,33,48,48,48,96,99,15,10,46,36,55,46,10,41,43,75,98,75,2,94,48,2,23,35,31,43,82,39,35,44,66,46,36,93,19,8,41,48,25,36,92,47,15,24,25,93,86,63,67,98,98,84,57,16,0,0,0,0,0,0,0,0,0,0,0,0,0,0,0,0,0,0,0,0,0,0,0,0,0,0,0,0,0,0,0,0,0,0,0,0,0,0,0,0,0,0,0,0,0,0,0,0,0,0,0,0,0,0,0,0,0,0,0,0,0,0,0,0],"split_type":[0,0,0,0,0,0,0,0,0,0,0,0,0,0,0,0,0,0,0,0,0,0,0,0,0,0,0,0,0,0,0,0,0,0,0,0,0,0,0,0,0,0,0,0,0,0,0,0,0,0,0,0,0,0,0,0,0,0,0,0,0,0,0,0,0,0,0,0,0,0,0,0,0,0,0,0,0,0,0,0,0,0,0,0,0,0,0,0,0,0,0,0,0,0,0,0,0,0,0,0,0,0,0,0,0,0,0,0,0,0,0,0,0,0,0,0,0,0,0,0,0,0,0,0,0,0,0],"sum_hessian":[1.4660758E5,3.6574082E4,1.100335E5,7.8409004E3,2.873318E4,4.4272727E4,6.576077E4,2.62227E3,5.2186304E3,1.041206E4,1.8321121E4,8.944805E3,3.532792E4,1.719553E4,4.8565246E4,2.027686E3,5.9458405E2,3.230346E3,1.9882844E3,4.5552617E3,5.856798E3,1.7360012E4,9.6110956E2,4.4950396E3,4.449765E3,6.473693E3,2.8854229E4,1.2110833E4,5.084697E3,3.5677965E4,1.2887282E4,5.0876118E1,1.9768099E3,4.284349E2,1.6614915E2,1.4855411E3,1.7448049E3,1.6641669E3,3.241175E2,1.6288645E3,2.926397E3,3.5612937E3,2.295504E3,1.4008563E4,3.3514478E3,8.4924884E2,1.11860725E2,2.242683E3,2.2523564E3,2.0081898E3,2.4415754E3,3.4449817E3,3.0287114E3,1.1952445E4,1.6901783E4,1.1989927E4,1.2090564E2,2.8789998E3,2.2056973E3,1.08651875E4,2.4812775E4,1.2650117E4,2.3716461E2,2.3521849E1,2.7354269E1,1.9679347E3,8.875157E0,1.7840113E1,4.105948E2,1.2112882E1,1.5403627E2,7.2386914E2,7.6167194E2,3.288562E1,1.7119193E3,1.3902725E3,2.7389444E2,4.487689E1,2.792406E2,6.4175543E2,9.871091E2,2.4627373E2,2.6801233E3,3.0289875E3,5.323062E2,1.7716562E3,5.2384766E2,2.1935195E3,1.1815044E4,2.7774374E2,3.073704E3,3.2237634E2,5.268725E2,2.2271832E1,8.95889E1,1.2294662E3,1.0132168E3,1.7542432E3,4.9811325E2,1.1742844E3,8.3390546E2,1.2664651E3,1.1751104E3,2.7010823E3,7.4389954E2,2.7719844E3,2.5672705E2,1.5607628E3,1.0391683E4,5.417396E3,1.1484388E4,1.1220247E4,7.6968005E2,7.403375E1,4.687189E1,3.5043155E2,2.528568E3,9.220981E2,1.2835991E3,6.3948296E3,4.470358E3,9.864843E3,1.4947933E4,1.2012938E4,6.371789E2,9.8708595E1,1.3845602E2],"tree_param":{"num_deleted":"0","num_feature":"100","num_nodes":"127","size_leaf_vector":"1"}},{"base_weights":[1.9584927E-3,1.20520145E-1,-1.7954853E-1,2.715261E-1,4.3744985E-2,6.1688285E-2,-2.6065567E-1,2.188826E-1,4.624243E-1,4.936359E-1,2.718588E-2,1.6294062E-1,-1.9241746E-1,-3.290802E-1,1.7289955E-2,1.3898617E-1,3.404469E-1,3.3902565E-1,6.06759E-1,7.527058E-1,2.0764446E-1,9.463218E-3,4.449753E-1,2.870439E-1,7.5618595E-2,-3.346963E-1,1.1640329E-1,-1.16826616E-1,-4.0011048E-1,-1.5485099E-1,2.0987387E-1,1.11930706E-1,4.9116403E-1,4.25075E-1,2.3665501E-1,5.720336E-1,2.1358024E-1,1.5976861E-1,6.291875E-1,5.204543E-1,9.620358E-1,-1.3604377E-1,8.075438E-1,1.7241861E-1,-2.5331877E-2,2.4208277E-1,5.8997566E-1,3.5281572E-2,3.405414E-1,1.8205898E-1,-3.559928E-2,-1.2110907E-1,-4.6304703E-1,-8.5015464E-1,1.5820272E-1,-1.2912422E-1,1.0466131E0,-2.4052085E-1,-5.208482E-1,-3.2571828E-1,3.8064558E-2,1.2648264E-2,3.4769267E-1,2.3621975E-2,3.461438E-3,9.927721E-2,4.1190654E-2,6.636653E-2,3.7652668E-2,2.9697549E-3,2.8776664E-2,9.583842E-2,5.1117998E-2,1.3469334E-2,5.8364626E-2,-2.554426E-2,4.5269623E-2,5.571417E-2,7.370709E-2,7.170492E-2,2.6086798E-2,6.675801E-2,1.2201877E-1,1.6026113E-2,-3.725608E-2,6.590786E-2,1.2970313E-1,9.855549E-3,4.4448484E-2,-5.3957826E-3,1.9603493E-2,1.7271666E-2,5.743007E-2,7.597154E-2,4.5748364E-2,1.4000602E-2,-7.4668266E-2,2.6478535E-2,5.1651996E-2,1.1540521E-2,4.2604882E-2,1.3744051E-2,-1.3533584E-2,7.705163E-2,-1.57331E-2,1.5741935E-2,-5.1102377E-2,3.218931E-2,-1.1228006E-1,4.5802653E-2,4.9138004E-3,-1.8198144E-3,-2.4083098E-2,6.391575E-2,1.3511609E-1,-2.5113309E-3,-3.5705462E-2,-6.350615E-2,-3.6028884E-2,-3.932911E-2,1.2899274E-2,5.0044924E-2,-7.012832E-4,1.1369239E-2,-2.102955E-2,4.6139758E-2,2.2733971E-2],"categories":[],"categories_nodes":[],"categories_segments":[],"categories_sizes":[],"default_left":[0,0,0,0,0,0,0,0,0,0,0,0,0,0,0,0,0,0,0,0,0,0,0,0,0,0,0,0,0,0,0,0,0,0,0,0,0,0,0,0,0,0,0,0,0,0,0,0,0,0,0,0,0,0,0,0,0,0,0,0,0,0,0,0,0,0,0,0,0,0,0,0,0,0,0,0,0,0,0,0,0,0,0,0,0,0,0,0,0,0,0,0,0,0,0,0,0,0,0,0,0,0,0,0,0,0,0,0,0,0,0,0,0,0,0,0,0,0,0,0,0,0,0,0,0,0,0],"id":12,"left_children":[1,3,5,7,9,11,13,15,17,19,21,23,25,27,29,31,33,