{"learner":{"attributes":{"scikit_learn":"{\"_estimator_type\": \"classifier\"}"},"feature_names":[],"feature_types":[],"gradient_booster":{"model":{"cats":{"enc":[],"feature_segments":[],"sorted_idx":[]},"gbtree_model_param":{"num_parallel_tree":"1","num_trees":"120"},"iteration_indptr":[0,1,2,3,4,5,6,7,8,9,10,11,12,13,14,15,16,17,18,19,20,21,22,23,24,25,26,27,28,29,30,31,32,33,34,35,36,37,38,39,40,41,42,43,44,45,46,47,48,49,50,51,52,53,54,55,56,57,58,59,60,61,62,63,64,65,66,67,68,69,70,71,72,73,74,75,76,77,78,79,80,81,82,83,84,85,86,87,88,89,90,91,92,93,94,95,96,97,98,99,100,101,102,103,104,105,106,107,108,109,110,111,112,113,114,115,116,117,118,119,120],"tree_info":[0,0,0,0,0,0,0,0,0,0,0,0,0,0,0,0,0,0,0,0,0,0,0,0,0,0,0,0,0,0,0,0,0,0,0,0,0,0,0,0,0,0,0,0,0,0,0,0,0,0,0,0,0,0,0,0,0,0,0,0,0,0,0,0,0,0,0,0,0,0,0,0,0,0,0,0,0,0,0,0,0,0,0,0,0,0,0,0,0,0,0,0,0,0,0,0,0,0,0,0,0,0,0,0,0,0,0,0,0,0,0,0,0,0,0,0,0,0,0,0],"trees":[{"base_weights":[-3.541214E-4,-3.2246858E-1,6.668572E-1,-5.3245103E-1,3.9872053E-1,4.6684724E-1,8.916757E-1,-7.5724673E-1,-4.271948E-2,1.8618365E-1,8.8801247E-1,1.4714965E-1,6.274238E-1,1.0922023E0,7.496667E-1,-9.130969E-1,-2.875041E-1,-1.912255E-1,3.1804055E-1,4.528132E-1,-7.0674936E-3,9.8447263E-1,4.4335324E-1,-6.651929E-2,4.125226E-1,4.6114504E-1,7.747939E-1,4.9250275E-1,1.1480663E0,5.8684766E-1,8.621294E-1,-1.0431576E0,-1.9633856E-1,-4.2353836E-1,4.8697528E-1,5.172401E-1,-2.5974682E-1,-1.2311956E-1,4.7408766E-1,3.0886117E-1,8.427786E-1,4.3797123E-1,-1.0962117E-1,1.1588378E0,7.792354E-1,6.401641E-1,1.1039544E-1,1.7623585E-1,-3.0153057E-1,3.3858916E-1,6.8554485E-1,7.045974E-1,3.7379256E-1,6.3558865E-1,8.7894875E-1,5.8042103E-1,-2.2505816E-2,1.1010009E0,1.3222519E0,7.4516696E-1,4.6064484E-1,5.884646E-1,9.3276066E-1,-5.2209236E-2,-1.1430285E-1,-4.2001586E-2,1.591201E-2,-5.2779783E-2,6.4173684E-4,6.652721E-2,4.1010384E-3,9.104096E-2,3.742763E-2,-1.1859326E-2,-4.699402E-2,-2.7050555E-2,2.3804134E-2,6.1417896E-2,1.9311052E-2,-4.2254702E-4,4.3678936E-2,3.0100126E-2,9.5260166E-2,5.293566E-2,-5.6461594E-3,-2.7210066E-2,1.1469497E-2,1.359807E-1,1.0453593E-1,4.784211E-2,9.3641065E-2,5.206665E-2,1.14408374E-1,-2.3500962E-2,5.429106E-2,5.235982E-2,8.668386E-3,-6.662134E-3,-5.092618E-2,3.1183425E-2,8.8794135E-2,7.6139286E-2,4.285989E-2,7.117262E-2,-1.11604705E-1,1.7568648E-3,4.5873128E-2,5.7933476E-2,9.218085E-2,8.3806E-2,1.1124106E-1,8.955464E-2,4.5578685E-2,4.367263E-2,-3.5245802E-2,1.0207206E-1,1.1773645E-1,1.3615076E-1,1.07928135E-1,9.190431E-2,5.360029E-2,2.447936E-2,5.730748E-2,4.541538E-2,8.911601E-2,8.260404E-2,1.0348262E-1],"categories":[],"categories_nodes":[],"categories_segments":[],"categories_sizes":[],"default_left":[0,0,0,0,0,0,0,0,0,0,0,0,0,0,0,0,0,0,0,0,0,0,0,0,0,0,0,0,0,0,0,0,0,0,0,0,0,0,0,0,0,0,0,0,0,0,0,0,0,0,0,0,0,0,0,0,0,0,0,0,0,0,0,0,0,0,0,0,0,0,0,0,0,0,0,0,0,0,0,0,0,0,0,0,0,0,0,0,0,0,0,0,0,0,0,0,0,0,0,0,0,0,0,0,0,0,0,0,0,0,0,0,0,0,0,0,0,0,0,0,0,0,0,0,0,0,0],"id":0,"left_children":[1,3,5,7,9,11,13,15,17,19,21,23,25,27,29,31,33,35,37,39,41,43,45,47,49,51,53,55,57,59,61,63,65,67,69,71,73,75,77,79,81,83,85,87,89,91,93,95,97,99,101,103,105,107,109,111,113,115,117,119,121,123,125,-1,-1,-1,-1,-1,-1,-1,-1,-1,-1,-1,-1,-1,-1,-1,-1,-1,-1,-1,-1,-1,-1,-1,-1,-1,-1,-1,-1,-1,-1,-1,-1,-1,-1,-1,-1,-1,-1,-1,-1,-1,-1,-1,-1,-1,-1,-1,-1,-1,-1,-1,-1,-1,-1,-1,-1,-1,-1,-1,-1,-1,-1,-1,-1],"loss_changes":[3.35258E4,1.5931899E4,2.2833926E3,8.97007E3,2.4669856E3,1.3798169E3,6.800801E2,4.0881719E3,1.3734734E3,8.523057E2,3.0770898E2,5.0969043E2,4.3809033E2,3.3146387E2,2.5586768E2,3.9088594E3,1.4661228E3,8.817344E2,5.1470795E2,3.8993787E2,4.3779202E2,2.1033398E2,8.397011E1,2.841722E2,8.069733E1,1.7857227E2,1.3695068E2,3.833246E1,7.286426E1,1.1400549E2,1.5947705E2,1.8463945E3,5.122239E2,5.3056226E2,1.6530374E2,8.969937E1,4.912599E2,1.04086044E2,2.1726611E2,2.0340564E2,1.1118494E2,8.1200226E1,2.8415997E2,7.131445E1,1.2789038E2,4.7929047E1,7.148593E1,7.617764E1,1.2346445E2,4.612317E1,1.6304932E1,2.9600586E1,1.8731244E2,6.487927E1,5.083008E1,2.798526E1,1.8998995E1,4.258789E1,1.6876709E1,9.177112E1,7.7206116E1,6.875458E1,7.0805176E1,0E0,0E0,0E0,0E0,0E0,0E0,0E0,0E0,0E0,0E0,0E0,0E0,0E0,0E0,0E0,0E0,0E0,0E0,0E0,0E0,0E0,0E0,0E0,0E0,0E0,0E0,0E0,0E0,0E0,0E0,0E0,0E0,0E0,0E0,0E0,0E0,0E0,0E0,0E0,0E0,0E0,0E0,0E0,0E0,0E0,0E0,0E0,0E0,0E0,0E0,0E0,0E0,0E0,0E0,0E0,0E0,0E0,0E0,0E0,0E0,0E0,0E0,0E0,0E0],"parents":[2147483647,0,0,1,1,2,2,3,3,4,4,5,5,6,6,7,7,8,8,9,9,10,10,11,11,12,12,13,13,14,14,15,15,16,16,17,17,18,18,19,19,20,20,21,21,22,22,23,23,24,24,25,25,26,26,27,27,28,28,29,29,30,30,31,31,32,32,33,33,34,34,35,35,36,36,37,37,38,38,39,39,40,40,41,41,42,42,43,43,44,44,45,45,46,46,47,47,48,48,49,49,50,50,51,51,52,52,53,53,54,54,55,55,56,56,57,57,58,58,59,59,60,60,61,61,62,62],"right_children":[2,4,6,8,10,12,14,16,18,20,22,24,26,28,30,32,34,36,38,40,42,44,46,48,50,52,54,56,58,60,62,64,66,68,70,72,74,76,78,80,82,84,86,88,90,92,94,96,98,100,102,104,106,108,110,112,114,116,118,120,122,124,126,-1,-1,-1,-1,-1,-1,-1,-1,-1,-1,-1,-1,-1,-1,-1,-1,-1,-1,-1,-1,-1,-1,-1,-1,-1,-1,-1,-1,-1,-1,-1,-1,-1,-1,-1,-1,-1,-1,-1,-1,-1,-1,-1,-1,-1,-1,-1,-1,-1,-1,-1,-1,-1,-1,-1,-1,-1,-1,-1,-1,-1,-1,-1,-1],"split_conditions":[1.731458E-1,2.0022608E-1,-2.5011856E-2,7.751908E-2,1.0153583E0,3.87401E-1,-2.3008613E-1,6.814617E-2,1.2594487E-1,-8.572492E-2,4.492926E-1,7.121912E-2,8.6130984E-2,-7.381727E-1,5.0050807E-1,3.4638625E-2,7.3154235E-1,-5.7115394E-1,-6.3218854E-2,1.0332943E-1,-2.0800377E-1,-4.410187E-2,-4.0784843E-2,-6.0693044E-2,2.046363E-1,-2.479165E-1,-6.4845294E-2,-1.1302312E-1,7.7417433E-1,4.3206558E-2,-1.12126924E-1,-1.6158454E-1,-2.1582698E-2,-2.9897928E-2,1.4393108E-1,-4.56835E-2,-3.0350223E-2,1.0091329E-1,9.4938874E-2,-8.5766625E-1,4.0372247E-1,2.741694E-1,-1.2748773E-2,-3.2604656E-1,-1.1223916E0,-1.0630582E-1,-1.3665688E-1,-2.4592292E-1,4.173772E-2,4.0515405E-1,4.3199617E-1,8.7248427E-1,-9.82458E-2,4.0759185E-1,2.208067E-1,-1.7630182E-1,-5.1817928E-2,-1.1738253E-1,5.464716E-1,-5.199338E-2,-1.563962E-2,2.6454455E-1,-5.313188E-2,-5.2209236E-2,-1.1430285E-1,-4.2001586E-2,1.591201E-2,-5.2779783E-2,6.4173684E-4,6.652721E-2,4.1010384E-3,9.104096E-2,3.742763E-2,-1.1859326E-2,-4.699402E-2,-2.7050555E-2,2.3804134E-2,6.1417896E-2,1.9311052E-2,-4.2254702E-4,4.3678936E-2,3.0100126E-2,9.5260166E-2,5.293566E-2,-5.6461594E-3,-2.7210066E-2,1.1469497E-2,1.359807E-1,1.0453593E-1,4.784211E-2,9.3641065E-2,5.206665E-2,1.14408374E-1,-2.3500962E-2,5.429106E-2,5.235982E-2,8.668386E-3,-6.662134E-3,-5.092618E-2,3.1183425E-2,8.8794135E-2,7.6139286E-2,4.285989E-2,7.117262E-2,-1.11604705E-1,1.7568648E-3,4.5873128E-2,5.7933476E-2,9.218085E-2,8.3806E-2,1.1124106E-1,8.955464E-2,4.5578685E-2,4.367263E-2,-3.5245802E-2,1.0207206E-1,1.1773645E-1,1.3615076E-1,1.07928135E-1,9.190431E-2,5.360029E-2,2.447936E-2,5.730748E-2,4.541538E-2,8.911601E-2,8.260404E-2,1.0348262E-1],"split_indices":[98,96,96,86,96,98,90,82,93,90,51,82,92,87,98,98,93,87,82,70,61,48,48,58,64,72,83,51,80,81,48,79,96,98,48,73,92,63,48,98,96,48,51,64,98,50,50,79,72,3,48,42,48,82,10,37,23,75,64,52,48,75,69,0,0,0,0,0,0,0,0,0,0,0,0,0,0,0,0,0,0,0,0,0,0,0,0,0,0,0,0,0,0,0,0,0,0,0,0,0,0,0,0,0,0,0,0,0,0,0,0,0,0,0,0,0,0,0,0,0,0,0,0,0,0,0,0],"split_type":[0,0,0,0,0,0,0,0,0,0,0,0,0,0,0,0,0,0,0,0,0,0,0,0,0,0,0,0,0,0,0,0,0,0,0,0,0,0,0,0,0,0,0,0,0,0,0,0,0,0,0,0,0,0,0,0,0,0,0,0,0,0,0,0,0,0,0,0,0,0,0,0,0,0,0,0,0,0,0,0,0,0,0,0,0,0,0,0,0,0,0,0,0,0,0,0,0,0,0,0,0,0,0,0,0,0,0,0,0,0,0,0,0,0,0,0,0,0,0,0,0,0,0,0,0,0,0],"sum_hessian":[1.5599116E5,1.0520236E5,5.0788793E4,8.147906E4,2.3723299E4,2.6878977E4,2.3909816E4,5.5844754E4,2.5634309E4,1.6540064E4,7.183234E3,8.987454E3,1.7891523E4,9.909801E3,1.4000016E4,4.193178E4,1.3912975E4,1.8159475E4,7.474835E3,6.9499043E3,9.590161E3,5.90175E3,1.2814839E3,4.9791597E3,4.0082942E3,8.408396E3,9.483127E3,8.4530145E2,9.064499E3,5.7220596E3,8.277956E3,3.5491203E4,6.4405776E3,1.1834708E4,2.0782664E3,1.6008795E3,1.6558596E4,1.9531901E3,5.5216445E3,5.0774165E3,1.8724878E3,1.7954427E3,7.7947183E3,3.1883494E3,2.7134006E3,8.048284E2,4.7665543E2,2.4493506E3,2.529809E3,3.155922E3,8.523721E2,2.2184592E3,6.1899375E3,4.0616895E3,5.4214375E3,7.219318E2,1.2336964E2,7.1420293E3,1.9224696E3,2.5359043E3,3.186155E3,1.7001117E3,6.5778447E3,5.709381E3,2.978182E4,3.9529485E3,2.4876294E3,9.524818E3,2.3098892E3,1.4843367E3,5.9392975E2,4.254546E2,1.1754249E3,9.907118E3,6.6514766E3,1.387299E3,5.658912E2,3.6837783E3,1.8378663E3,1.4731212E3,3.6042952E3,3.1622614E2,1.5562617E3,1.515301E3,2.8014172E2,4.5203027E3,3.2744155E3,1.1466549E3,2.0416943E3,9.325867E2,1.780814E3,6.522012E2,1.5262726E2,2.652691E2,2.1138632E2,5.0103677E2,1.9483138E3,1.1878595E3,1.3419496E3,3.010853E3,1.4506905E2,6.565898E2,1.9578226E2,2.2104133E3,8.045846E0,1.1920043E3,4.997933E3,3.3970537E3,6.646356E2,4.6173403E3,8.04097E2,2.0285284E2,5.19079E2,5.1444653E1,7.192499E1,3.4887275E3,3.6533018E3,1.6511051E3,2.7136444E2,1.3829103E3,1.1529941E3,1.0922845E3,2.0938704E3,1.1793259E3,5.2078564E2,3.2200452E3,3.3577998E3],"tree_param":{"num_deleted":"0","num_feature":"100","num_nodes":"127","size_leaf_vector":"1"}},{"base_weights":[1.3565358E-3,-2.9243854E-1,5.99205E-1,1.3446504E-1,-7.668788E-1,4.3272537E-1,8.3503586E-1,4.7789392E-1,-1.3288996E-1,-9.201015E-1,-2.629008E-1,2.0750639E-1,6.291411E-1,9.6787643E-1,6.757955E-1,7.594036E-1,2.7756014E-1,-2.9155737E-1,9.1053754E-2,-4.6422982E-1,-1.0538611E0,-3.6395547E-1,1.4793158E-1,-1.3744274E-1,3.0256632E-1,5.316264E-1,8.2263243E-1,8.838049E-1,1.1356943E0,8.348655E-1,5.4057986E-1,9.474951E-1,5.5310374E-1,4.7362745E-1,1.3282745E-1,-1.458926E-1,-6.968975E-1,3.1187966E-1,6.420835E-3,1.3507418E-1,-5.147626E-1,-1.1733773E0,-4.8092726E-1,-5.735593E-1,-2.3462814E-1,-1.5498252E-2,4.1293052E-1,-3.5742038E-1,1.6643232E-1,2.3987003E-1,5.342577E-1,6.9104815E-1,4.4221216E-1,7.7480525E-1,1.0633744E0,7.3325825E-1,9.9822277E-1,1.0823026E0,1.3240932E0,1.7534254E-1,8.6578125E-1,3.4590822E-1,6.461096E-1,7.014289E-2,1.08228795E-1,1.1685174E-2,6.6785656E-2,3.414228E-2,7.497137E-2,3.671674E-2,-6.103092E-3,1.6620642E-2,-2.6481027E-2,-3.75268E-2,-8.395072E-2,3.4653444E-2,-5.1575072E-2,-6.472738E-3,4.5213986E-2,3.6746155E-2,-3.7077293E-2,-6.7394696E-2,-2.5153209E-2,-4.875006E-3,-1.1931515E-1,7.4298563E-3,-6.3354686E-2,6.4739087E-3,-6.5677986E-2,-2.7907992E-2,3.1036777E-2,3.3100028E-2,-1.5681585E-2,2.7916376E-2,6.990959E-2,-2.7062943E-2,-1.0447513E-1,7.2898837E-3,6.338411E-2,7.2710566E-2,2.0991666E-2,6.43414E-2,4.1639302E-2,8.0938496E-2,5.765174E-2,9.7602615E-3,5.1764127E-2,5.825742E-2,8.396962E-2,1.0053402E-2,1.0766532E-1,4.5882117E-2,8.658146E-2,9.519407E-2,1.2419597E-1,1.0175683E-1,1.2330011E-1,1.3379596E-1,8.6455755E-2,-2.119407E-2,5.799144E-2,1.2506305E-1,8.2669765E-2,1.8108679E-2,5.8857214E-2,8.6506985E-2,5.5707365E-2],"categories":[],"categories_nodes":[],"categories_segments":[],"categories_sizes":[],"default_left":[0,0,0,0,0,0,0,0,0,0,0,0,0,0,0,0,0,0,0,0,0,0,0,0,0,0,0,0,0,0,0,0,0,0,0,0,0,0,0,0,0,0,0,0,0,0,0,0,0,0,0,0,0,0,0,0,0,0,0,0,0,0,0,0,0,0,0,0,0,0,0,0,0,0,0,0,0,0,0,0,0,0,0,0,0,0,0,0,0,0,0,0,0,0,0,0,0,0,0,0,0,0,0,0,0,0,0,0,0,0,0,0,0,0,0,0,0,0,0,0,0,0,0,0,0,0,0],"id":1,"left_children":[1,3,5,7,9,11,13,15,17,19,21,23,25,27,29,31,33,35,37,39,41,43,45,47,49,51,53,55,57,59,61,63,65,67,69,71,73,75,77,79,81,83,85,87,89,91,93,95,97,99,101,103,105,107,109,111,113,115,117,119,121,123,125,-1,-1,-1,-1,-1,-1,-1,-1,-1,-1,-1,-1,-1,-1,-1,-1,-1,-1,-1,-1,-1,-1,-1,-1,-1,-1,-1,-1,-1,-1,-1,-1,-1,-1,-1,-1,-1,-1,-1,-1,-1,-1,-1,-1,-1,-1,-1,-1,-1,-1,-1,-1,-1,-1,-1,-1,-1,-1,-1,-1,-1,-1,-1,-1],"loss_changes":[2.7403637E4,2.1187803E4,2.0179453E3,5.055927E3,3.8257832E3,1.3330107E3,4.493213E2,1.3591108E3,1.1001895E3,2.3163125E3,4.7969E2,4.6043982E2,3.032881E2,1.6258398E2,2.0770801E2,3.88312E2,3.9958984E2,1.0699174E3,2.3997833E2,2.6115125E2,2.0108633E3,2.5121863E2,9.881257E1,2.0286928E2,1.5976813E2,1.5230298E2,6.1263184E1,1.3240967E2,3.745996E1,9.047754E1,1.07302246E2,1.7304932E2,2.3928613E2,2.1803748E2,3.6816977E2,4.9488025E2,2.1941895E2,1.022186E2,2.9444202E2,7.903492E1,3.3298584E2,5.404219E2,4.298169E2,1.879497E2,1.3904767E2,6.919809E1,3.3120193E1,1.0472467E2,5.5682793E1,1.2630719E2,2.9882385E1,5.164795E1,1.7831091E2,5.5671875E1,1.12838745E1,1.21161865E2,4.8327637E1,2.8187744E1,4.255005E0,3.1503723E1,6.2825195E1,7.356897E1,6.5664795E1,0E0,0E0,0E0,0E0,0E0,0E0,0E0,0E0,0E0,0E0,0E0,0E0,0E0,0E0,0E0,0E0,0E0,0E0,0E0,0E0,0E0,0E0,0E0,0E0,0E0,0E0,0E0,0E0,0E0,0E0,0E0,0E0,0E0,0E0,0E0,0E0,0E0,0E0,0E0,0E0,0E0,0E0,0E0,0E0,0E0,0E0,0E0,0E0,0E0,0E0,0E0,0E0,0E0,0E0,0E0,0E0,0E0,0E0,0E0,0E0,0E0,0E0,0E0,0E0],"parents":[2147483647,0,0,1,1,2,2,3,3,4,4,5,5,6,6,7,7,8,8,9,9,10,10,11,11,12,12,13,13,14,14,15,15,16,16,17,17,18,18,19,19,20,20,21,21,22,22,23,23,24,24,25,25,26,26,27,27,28,28,29,29,30,30,31,31,32,32,33,33,34,34,35,35,36,36,37,37,38,38,39,39,40,40,41,41,42,42,43,43,44,44,45,45,46,46,47,47,48,48,49,49,50,50,51,51,52,52,53,53,54,54,55,55,56,56,57,57,58,58,59,59,60,60,61,61,62,62],"right_children":[2,4,6,8,10,12,14,16,18,20,22,24,26,28,30,32,34,36,38,40,42,44,46,48,50,52,54,56,58,60,62,64,66,68,70,72,74,76,78,80,82,84,86,88,90,92,94,96,98,100,102,104,106,108,110,112,114,116,118,120,122,124,126,-1,-1,-1,-1,-1,-1,-1,-1,-1,-1,-1,-1,-1,-1,-1,-1,-1,-1,-1,-1,-1,-1,-1,-1,-1,-1,-1,-1,-1,-1,-1,-1,-1,-1,-1,-1,-1,-1,-1,-1,-1,-1,-1,-1,-1,-1,-1,-1,-1,-1,-1,-1,-1,-1,-1,-1,-1,-1,-1,-1,-1,-1,-1,-1],"split_conditions":[1.5971357E-1,-7.715258E-1,4.8450433E-2,-1.6215047E0,1.7763929E-3,4.9380985E-1,-1.72027E-2,-2.5104702E0,-3.8717616E-1,-2.4074276E-1,7.722383E-3,-1.4586276E-1,3.1962365E-1,3.2413137E-1,1.4397431E-2,-5.9852876E-2,-3.3422863E-1,1.1812177E-2,-2.1745199E-1,-5.545848E-1,1.747239E-1,5.088239E-2,7.258243E-2,1.8127596E-1,2.0984055E-1,-1.7501311E-2,2.0799965E-1,-9.8028384E-2,3.3786732E-1,-1.0898074E0,-1.2379571E-2,-5.5375594E-1,-5.3449535E-1,2.1774608E-1,-1.824127E-1,-1.8251982E-1,-1.8251982E-1,4.8149222E-1,4.3789804E-1,-7.463438E-2,5.879248E-3,-5.665747E-1,-4.122437E-1,-1.1737461E-1,3.2454216E-1,-1.8626522E-1,7.99199E-2,3.3250007E-1,2.8324044E-1,-1.9025352E0,-1.2574434E-1,-9.8815046E-2,-9.82458E-2,-1.2914443E-1,-6.744731E-1,-3.6170992E-1,3.8715935E-1,1.4811274E-1,3.52817E-1,1.2674694E-2,-5.6514037E-1,7.664723E-2,-9.844314E-2,7.014289E-2,1.08228795E-1,1.1685174E-2,6.6785656E-2,3.414228E-2,7.497137E-2,3.671674E-2,-6.103092E-3,1.6620642E-2,-2.6481027E-2,-3.75268E-2,-8.395072E-2,3.4653444E-2,-5.1575072E-2,-6.472738E-3,4.5213986E-2,3.6746155E-2,-3.7077293E-2,-6.7394696E-2,-2.5153209E-2,-4.875006E-3,-1.1931515E-1,7.4298563E-3,-6.3354686E-2,6.4739087E-3,-6.5677986E-2,-2.7907992E-2,3.1036777E-2,3.3100028E-2,-1.5681585E-2,2.7916376E-2,6.990959E-2,-2.7062943E-2,-1.0447513E-1,7.2898837E-3,6.338411E-2,7.2710566E-2,2.0991666E-2,6.43414E-2,4.1639302E-2,8.0938496E-2,5.765174E-2,9.7602615E-3,5.1764127E-2,5.825742E-2,8.396962E-2,1.0053402E-2,1.0766532E-1,4.5882117E-2,8.658146E-2,9.519407E-2,1.2419597E-1,1.0175683E-1,1.2330011E-1,1.3379596E-1,8.6455755E-2,-2.119407E-2,5.799144E-2,1.2506305E-1,8.2669765E-2,1.8108679E-2,5.8857214E-2,8.6506985E-2,5.5707365E-2],"split_indices":[98,99,96,99,98,98,89,99,98,97,96,82,92,53,81,48,97,48,58,79,89,98,71,53,64,79,10,92,46,71,48,89,62,96,48,83,83,84,82,62,82,2,95,56,86,42,85,76,36,49,72,44,48,83,5,76,46,43,17,24,52,44,77,0,0,0,0,0,0,0,0,0,0,0,0,0,0,0,0,0,0,0,0,0,0,0,0,0,0,0,0,0,0,0,0,0,0,0,0,0,0,0,0,0,0,0,0,0,0,0,0,0,0,0,0,0,0,0,0,0,0,0,0,0,0,0,0],"split_type":[0,0,0,0,0,0,0,0,0,0,0,0,0,0,0,0,0,0,0,0,0,0,0,0,0,0,0,0,0,0,0,0,0,0,0,0,0,0,0,0,0,0,0,0,0,0,0,0,0,0,0,0,0,0,0,0,0,0,0,0,0,0,0,0,0,0,0,0,0,0,0,0,0,0,0,0,0,0,0,0,0,0,0,0,0,0,0,0,0,0,0,0,0,0,0,0,0,0,0,0,0,0,0,0,0,0,0,0,0,0,0,0,0,0,0,0,0,0,0,0,0,0,0,0,0,0,0],"sum_hessian":[1.5601523E5,1.0460882E5,5.1406418E4,5.506331E4,4.9545508E4,3.0135648E4,2.1270771E4,2.4102207E4,3.0961102E4,3.799361E4,1.1551898E4,1.4039448E4,1.6096199E4,1.1593896E4,9.676874E3,1.0019701E4,1.4082506E4,1.812147E4,1.283963E4,8.619974E3,2.9373637E4,9.271461E3,2.2804375E3,3.0329983E3,1.100645E4,1.0704934E4,5.3912656E3,7.7284497E3,3.8654475E3,4.4438613E3,5.2330127E3,5.239267E3,4.7804346E3,5.979666E3,8.10284E3,1.3331843E4,4.7896284E3,3.5567087E3,9.282921E3,6.7017834E2,7.9497954E3,2.4302908E4,5.0707285E3,3.5364382E3,5.735023E3,1.4111168E3,8.6932074E2,1.7592711E3,1.273727E3,8.663987E3,2.342463E3,3.844187E3,6.8607466E3,4.501241E3,8.9002405E2,3.3405237E3,4.387926E3,3.0171426E3,8.483048E2,1.9928104E2,4.24458E3,1.8410631E3,3.3919495E3,1.8564663E3,3.382801E3,9.9599835E2,3.784436E3,4.0449614E3,1.9347045E3,3.6679968E3,4.4348433E3,3.6781511E3,9.653692E3,1.4724417E3,3.3171865E3,3.4143245E3,1.4238423E2,8.0058384E3,1.2770829E3,4.594017E2,2.1077666E2,4.9529937E3,2.9968018E3,4.199904E2,2.3882918E4,1.0934178E3,3.9773108E3,4.0792126E2,3.1285168E3,5.3029814E3,4.3204163E2,4.0840375E2,1.002713E3,5.937503E2,2.7557047E2,1.5632673E3,1.9600381E2,1.0623046E3,2.114225E2,5.0043295E2,8.1635547E3,1.213844E3,1.1286188E3,1.8876945E3,1.9564926E3,1.2324409E3,5.6283057E3,1.1385157E3,3.3627258E3,1.2224149E1,8.7779987E2,1.0894501E3,2.2510737E3,3.6918105E3,6.961153E2,2.1159614E3,9.0118134E2,8.2160187E2,2.6702938E1,1.02059235E2,9.7221794E1,3.884624E2,3.8561177E3,1.097422E3,7.436412E2,9.7802954E2,2.41392E3],"tree_param":{"num_deleted":"0","num_feature":"100","num_nodes":"127","size_leaf_vector":"1"}},{"base_weights":[1.7087916E-3,-2.5880566E-1,5.486028E-1,1.2636335E-1,-6.8540794E-1,3.738846E-1,7.475005E-1,5.251326E-1,-6.360039E-2,-8.239939E-1,-2.3144469E-1,1.5156999E-1,5.549804E-1,9.373388E-1,6.201404E-1,8.7097216E-1,4.0449592E-1,-2.7138326E-1,1.0930406E-1,-6.353577E-1,-1.1002023E0,-3.2913303E-1,1.128037E-1,-1.12355575E-1,2.8059196E-1,4.085418E-1,6.699117E-1,4.3567505E-1,9.859263E-1,4.8045766E-1,7.229861E-1,6.2332094E-1,1.0167407E0,6.562917E-2,4.9293646E-1,-1.5506695E-1,-5.707052E-1,3.9964178E-1,3.5832275E-2,-4.8316714E-1,-8.6804646E-1,-7.826063E-1,-1.2078476E0,-5.5624163E-1,-2.1814597E-1,4.978552E-1,2.0559087E-2,1.3243738E-1,-3.2630563E-1,2.076832E-1,5.2370816E-1,4.586703E-1,-2.148275E-3,5.593275E-1,8.071114E-1,7.2904575E-1,3.207616E-1,9.331682E-1,1.1667858E0,6.5608734E-1,3.713068E-1,5.0991696E-1,7.782918E-1,8.4093615E-2,2.629826E-2,1.2194973E-1,9.119333E-2,3.6286946E-2,-3.2678295E-2,6.329237E-2,3.6701344E-2,1.3151044E-2,-2.6921494E-2,-7.769865E-2,-7.211761E-3,4.5643825E-2,-8.068528E-3,1.0956967E-2,-2.1170905E-2,-7.204081E-2,-2.9534677E-2,-5.4944593E-2,-1.0268798E-1,-4.777367E-2,-9.110009E-2,2.6439679E-5,-1.22661434E-1,2.495E-3,-6.433074E-2,-2.5642192E-2,2.8959665E-2,7.622538E-2,2.605775E-2,-2.7509404E-2,1.3804783E-2,2.4478815E-2,-8.406002E-3,-5.0593447E-3,-5.2278917E-2,4.0635938E-4,2.8084407E-2,1.4963689E-2,5.6684036E-2,6.0300153E-2,3.290141E-2,-3.7662733E-2,1.34366555E-2,4.4217672E-2,7.374029E-2,8.917337E-2,6.470529E-2,1.2554774E-1,6.1547387E-2,3.9688002E-2,-1.6513294E-2,9.666749E-2,6.290707E-2,8.696344E-2,1.1900814E-1,8.249047E-2,5.5471282E-2,1.4034802E-2,4.8231076E-2,7.1930416E-2,3.2619547E-2,6.958322E-2,8.975467E-2],"categories":[],"categories_nodes":[],"categories_segments":[],"categories_sizes":[],"default_left":[0,0,0,0,0,0,0,0,0,0,0,0,0,0,0,0,0,0,0,0,0,0,0,0,0,0,0,0,0,0,0,0,0,0,0,0,0,0,0,0,0,0,0,0,0,0,0,0,0,0,0,0,0,0,0,0,0,0,0,0,0,0,0,0,0,0,0,0,0,0,0,0,0,0,0,0,0,0,0,0,0,0,0,0,0,0,0,0,0,0,0,0,0,0,0,0,0,0,0,0,0,0,0,0,0,0,0,0,0,0,0,0,0,0,0,0,0,0,0,0,0,0,0,0,0,0,0],"id":2,"left_children":[1,3,5,7,9,11,13,15,17,19,21,23,25,27,29,31,33,35,37,39,41,43,45,47,49,51,53,55,57,59,61,63,65,67,69,71,73,75,77,79,81,83,85,87,89,91,93,95,97,99,101,103,105,107,109,111,113,115,117,119,121,123,125,-1,-1,-1,-1,-1,-1,-1,-1,-1,-1,-1,-1,-1,-1,-1,-1,-1,-1,-1,-1,-1,-1,-1,-1,-1,-1,-1,-1,-1,-1,-1,-1,-1,-1,-1,-1,-1,-1,-1,-1,-1,-1,-1,-1,-1,-1,-1,-1,-1,-1,-1,-1,-1,-1,-1,-1,-1,-1,-1,-1,-1,-1,-1,-1],"loss_changes":[2.2144637E4,1.729896E4,1.7424902E3,4.191171E3,3.1425078E3,1.0748582E3,5.664199E2,7.444624E2,1.346414E3,1.9932598E3,3.929748E2,4.0822415E2,2.4736182E2,2.2903516E2,2.0132129E2,1.6600146E2,3.9668506E2,5.9253284E2,4.3633435E2,8.0494434E2,5.299414E2,2.2930261E2,9.1754684E1,2.0621974E2,1.4260834E2,1.3325244E2,1.24598145E2,2.785048E1,8.079883E1,1.13933105E2,9.485547E1,1.340943E2,6.060083E1,3.198203E2,1.8481226E2,4.0106836E2,4.8982495E2,1.1273175E2,2.980146E2,6.125366E2,4.5444385E2,1.5354614E2,2.6290625E2,1.5117688E2,1.1892813E2,3.1123291E1,7.24722E1,4.4695915E1,1.1378847E2,9.2296234E1,2.9875244E1,1.077489E2,3.6095924E1,9.494824E1,4.921411E1,1.3198685E1,2.227082E1,6.714014E1,1.2353516E1,3.858728E1,9.4161194E1,6.3957E1,6.2464355E1,0E0,0E0,0E0,0E0,0E0,0E0,0E0,0E0,0E0,0E0,0E0,0E0,0E0,0E0,0E0,0E0,0E0,0E0,0E0,0E0,0E0,0E0,0E0,0E0,0E0,0E0,0E0,0E0,0E0,0E0,0E0,0E0,0E0,0E0,0E0,0E0,0E0,0E0,0E0,0E0,0E0,0E0,0E0,0E0,0E0,0E0,0E0,0E0,0E0,0E0,0E0,0E0,0E0,0E0,0E0,0E0,0E0,0E0,0E0,0E0,0E0,0E0,0E0,0E0],"parents":[2147483647,0,0,1,1,2,2,3,3,4,4,5,5,6,6,7,7,8,8,9,9,10,10,11,11,12,12,13,13,14,14,15,15,16,16,17,17,18,18,19,19,20,20,21,21,22,22,23,23,24,24,25,25,26,26,27,27,28,28,29,29,30,30,31,31,32,32,33,33,34,34,35,35,36,36,37,37,38,38,39,39,40,40,41,41,42,42,43,43,44,44,45,45,46,46,47,47,48,48,49,49,50,50,51,51,52,52,53,53,54,54,55,55,56,56,57,57,58,58,59,59,60,60,61,61,62,62],"right_children":[2,4,6,8,10,12,14,16,18,20,22,24,26,28,30,32,34,36,38,40,42,44,46,48,50,52,54,56,58,60,62,64,66,68,70,72,74,76,78,80,82,84,86,88,90,92,94,96,98,100,102,104,106,108,110,112,114,116,118,120,122,124,126,-1,-1,-1,-1,-1,-1,-1,-1,-1,-1,-1,-1,-1,-1,-1,-1,-1,-1,-1,-1,-1,-1,-1,-1,-1,-1,-1,-1,-1,-1,-1,-1,-1,-1,-1,-1,-1,-1,-1,-1,-1,-1,-1,-1,-1,-1,-1,-1,-1,-1,-1,-1,-1,-1,-1,-1,-1,-1,-1,-1,-1,-1,-1,-1],"split_conditions":[1.63893E-1,-7.715258E-1,-2.943456E-2,-1.8961396E0,1.7763929E-3,4.9380985E-1,-2.5382993E-1,-3.173108E0,3.4796838E-2,-3.3135894E-1,9.657429E-4,-4.040576E-2,9.465297E-2,-7.381727E-1,5.0050807E-1,-2.2377701E-1,-1.3895748E0,1.9341053E-2,-3.074656E-1,9.8768696E-2,-1.07597426E-1,4.5934714E-2,-4.2142555E-2,-5.424955E-2,2.046363E-1,4.4840172E-1,2.6965165E-1,-1.8049754E-1,3.3786732E-1,8.977403E-2,-1.12126924E-1,1.1812177E-2,-1.7379391E-1,-1.3226336E-1,-1.2914443E-1,-2.4592292E-1,-3.1186745E-1,4.579868E-1,5.915561E-1,-1.3584161E-1,-2.332173E-1,-8.1159875E-2,-7.399958E-1,-9.739677E-2,3.2454216E-1,-2.1453124E-2,3.8109835E-2,-2.6762438E-1,-1.6773207E-1,7.121912E-2,-4.2958418E-1,-9.8815046E-2,-1.563962E-2,1.1647286E0,1.7145801E-2,-2.1408756E-1,-1.1302312E-1,4.931907E-1,-3.1435004E-1,-8.698358E-2,-2.114795E-2,-2.0373673E0,1.9395028E-1,8.4093615E-2,2.629826E-2,1.2194973E-1,9.119333E-2,3.6286946E-2,-3.2678295E-2,6.329237E-2,3.6701344E-2,1.3151044E-2,-2.6921494E-2,-7.769865E-2,-7.211761E-3,4.5643825E-2,-8.068528E-3,1.0956967E-2,-2.1170905E-2,-7.204081E-2,-2.9534677E-2,-5.4944593E-2,-1.0268798E-1,-4.777367E-2,-9.110009E-2,2.6439679E-5,-1.22661434E-1,2.495E-3,-6.433074E-2,-2.5642192E-2,2.8959665E-2,7.622538E-2,2.605775E-2,-2.7509404E-2,1.3804783E-2,2.4478815E-2,-8.406002E-3,-5.0593447E-3,-5.2278917E-2,4.0635938E-4,2.8084407E-2,1.4963689E-2,5.6684036E-2,6.0300153E-2,3.290141E-2,-3.7662733E-2,1.34366555E-2,4.4217672E-2,7.374029E-2,8.917337E-2,6.470529E-2,1.2554774E-1,6.1547387E-2,3.9688002E-2,-1.6513294E-2,9.666749E-2,6.290707E-2,8.696344E-2,1.1900814E-1,8.249047E-2,5.5471282E-2,1.4034802E-2,4.8231076E-2,7.1930416E-2,3.2619547E-2,6.958322E-2,8.975467E-2],"split_indices":[98,99,96,99,98,98,90,99,86,99,96,82,92,87,98,84,98,48,63,70,97,98,63,65,64,79,82,37,46,94,48,48,48,48,83,79,98,58,90,86,97,67,2,79,86,45,98,96,87,82,43,44,48,98,44,4,51,94,15,72,48,99,46,0,0,0,0,0,0,0,0,0,0,0,0,0,0,0,0,0,0,0,0,0,0,0,0,0,0,0,0,0,0,0,0,0,0,0,0,0,0,0,0,0,0,0,0,0,0,0,0,0,0,0,0,0,0,0,0,0,0,0,0,0,0,0,0],"split_type":[0,0,0,0,0,0,0,0,0,0,0,0,0,0,0,0,0,0,0,0,0,0,0,0,0,0,0,0,0,0,0,0,0,0,0,0,0,0,0,0,0,0,0,0,0,0,0,0,0,0,0,0,0,0,0,0,0,0,0,0,0,0,0,0,0,0,0,0,0,0,0,0,0,0,0,0,0,0,0,0,0,0,0,0,0,0,0,0,0,0,0,0,0,0,0,0,0,0,0,0,0,0,0,0,0,0,0,0,0,0,0,0,0,0,0,0,0,0,0,0,0,0,0,0,0,0,0],"sum_hessian":[1.5542753E5,1.0527841E5,5.0149125E4,5.5326305E4,4.9952098E4,2.6698852E4,2.3450271E4,1.7851312E4,3.7474992E4,3.826863E4,1.168347E4,1.1986262E4,1.4712591E4,9.413093E3,1.403718E4,4.6149673E3,1.3236347E4,1.7020516E4,2.0454477E4,2.2740992E4,1.5527637E4,9.10092E3,2.5825498E3,3.9356602E3,8.0506016E3,6.4715195E3,8.241071E3,8.3206055E2,8.581032E3,5.954958E3,8.082221E3,1.7118768E3,2.9030903E3,2.739911E3,1.0496436E4,1.2258421E4,4.762095E3,4.1299106E3,1.6324565E4,1.3750516E4,8.990476E3,3.932749E3,1.1594888E4,2.986253E3,6.114667E3,4.9826654E2,2.0842832E3,1.8357036E3,2.0999565E3,6.194708E3,1.8558934E3,5.7674346E3,7.04085E2,4.5659517E3,3.6751196E3,2.326831E2,5.9937744E2,6.6479395E3,1.9330933E3,2.2804995E3,3.6744583E3,1.6676622E3,6.414559E3,1.0664772E3,6.453996E2,9.856503E2,1.91744E3,1.5590516E3,1.1808591E3,4.96873E3,5.5277056E3,3.4918088E3,8.766611E3,3.3680635E3,1.3940319E3,3.6932505E3,4.3665994E2,1.2578308E4,3.7462576E3,6.07464E3,7.675875E3,2.9924473E3,5.998029E3,1.16684E3,2.7659092E3,1.7737448E2,1.1417513E4,3.8916534E2,2.5970874E3,5.686489E3,4.2817844E2,2.3461855E2,2.63648E2,5.923443E2,1.491939E3,1.2084506E3,6.2725305E2,8.743281E2,1.2256284E3,1.6377145E3,4.5569937E3,1.923318E2,1.6635616E3,2.7275344E3,3.0399E3,1.876303E2,5.164547E2,2.756205E3,1.8097466E3,2.401098E3,1.2740219E3,3.950657E1,1.9317653E2,5.1835675E2,8.1020645E1,5.9861797E3,6.617596E2,1.433166E2,1.7897766E3,8.529532E2,1.4275465E3,1.1934951E3,2.4809634E3,7.780286E2,8.8963354E2,3.7963682E3,2.618191E3],"tree_param":{"num_deleted":"0","num_feature":"100","num_nodes":"127","size_leaf_vector":"1"}},{"base_weights":[6.909939E-4,-2.3687556E-1,4.9750957E-1,1.4433248E-1,-5.9153646E-1,3.379129E-1,6.8448806E-1,4.7911778E-1,-3.5972703E-2,-7.030237E-1,-2.0275375E-1,9.279983E-2,4.7379258E-1,8.5234946E-1,5.677505E-1,8.05425E-1,3.672192E-1,-2.3495245E-1,1.224779E-1,-5.3189325E-1,-9.9312717E-1,-2.8432956E-1,1.6210358E-1,2.525241E-1,-9.611574E-2,3.3723566E-1,5.988383E-1,3.7413865E-1,8.976715E-1,7.4263495E-1,4.887501E-1,5.9978247E-1,9.276337E-1,4.952285E-2,4.5094195E-1,4.6907447E-2,-3.4427333E-1,4.6555582E-1,7.273082E-2,-1.08549386E-1,-6.097104E-1,-7.125134E-1,-1.091155E0,9.106005E-1,-3.0019894E-1,-8.456281E-2,3.79536E-1,4.109477E-1,1.00211345E-1,-2.9735574E-1,1.3217041E-1,6.2044114E-1,2.578569E-1,4.9468377E-1,6.923879E-1,2.6035574E-1,8.133152E-1,8.578675E-1,1.1023084E0,6.546552E-1,8.6677706E-1,4.4265378E-1,7.5290614E-1,7.1741454E-2,4.2110845E-2,8.417686E-2,1.0426285E-1,4.356289E-2,-9.140976E-3,6.238229E-2,3.5462733E-2,-2.2721155E-2,2.7993178E-2,-2.4018483E-2,-6.1628994E-2,1.9052017E-2,6.263349E-2,1.4259172E-2,-1.1603791E-2,7.1033667E-4,-6.508791E-2,-3.7306633E-2,-7.788199E-2,-7.4407004E-2,2.2996727E-2,-1.1051219E-1,3.8619414E-2,1.212938E-1,6.0635187E-2,-2.8378068E-2,-1.711396E-1,1.1153289E-2,-2.920036E-2,6.783716E-2,2.2305854E-2,5.7274587E-2,2.9867074E-2,1.3468117E-3,4.327097E-2,-1.412524E-2,-5.2899282E-2,5.3666537E-3,4.452048E-2,8.7217696E-2,5.0506722E-2,4.914243E-2,1.7711112E-2,2.748304E-2,5.837E-2,6.532495E-2,9.3132176E-2,1.3767309E-2,6.21457E-2,4.7795285E-2,9.7980715E-2,8.205073E-2,1.1044147E-1,9.711885E-2,1.18381694E-1,8.430127E-2,5.6406956E-2,9.8171934E-2,7.417674E-2,7.509681E-2,3.9403073E-2,6.338102E-2,8.5612394E-2],"categories":[],"categories_nodes":[],"categories_segments":[],"categories_sizes":[],"default_left":[0,0,0,0,0,0,0,0,0,0,0,0,0,0,0,0,0,0,0,0,0,0,0,0,0,0,0,0,0,0,0,0,0,0,0,0,0,0,0,0,0,0,0,0,0,0,0,0,0,0,0,0,0,0,0,0,0,0,0,0,0,0,0,0,0,0,0,0,0,0,0,0,0,0,0,0,0,0,0,0,0,0,0,0,0,0,0,0,0,0,0,0,0,0,0,0,0,0,0,0,0,0,0,0,0,0,0,0,0,0,0,0,0,0,0,0,0,0,0,0,0,0,0,0,0,0,0],"id":3,"left_children":[1,3,5,7,9,11,13,15,17,19,21,23,25,27,29,31,33,35,37,39,41,43,45,47,49,51,53,55,57,59,61,63,65,67,69,71,73,75,77,79,81,83,85,87,89,91,93,95,97,99,101,103,105,107,109,111,113,115,117,119,121,123,125,-1,-1,-1,-1,-1,-1,-1,-1,-1,-1,-1,-1,-1,-1,-1,-1,-1,-1,-1,-1,-1,-1,-1,-1,-1,-1,-1,-1,-1,-1,-1,-1,-1,-1,-1,-1,-1,-1,-1,-1,-1,-1,-1,-1,-1,-1,-1,-1,-1,-1,-1,-1,-1,-1,-1,-1,-1,-1,-1,-1,-1,-1,-1,-1],"loss_changes":[1.8244246E4,1.4138221E4,1.4919434E3,3.0423806E3,2.3479316E3,8.985244E2,4.5071973E2,6.4389453E2,1.0328721E3,2.0895312E3,3.594109E2,2.904016E2,2.961831E2,2.0432129E2,1.8731152E2,1.1264307E2,3.4946216E2,4.4750348E2,3.1122754E2,8.7233154E2,4.288672E2,1.874002E2,1.1839499E2,1.25791626E2,2.0261308E2,1.8640332E2,8.792578E1,4.0722763E1,6.930469E1,4.5577637E1,1.1364014E2,3.504651E1,2.7001465E1,1.4922084E2,1.7292798E2,2.593648E2,2.9613257E2,1.02002075E2,2.1008217E2,2.579878E2,8.9491016E2,1.2052124E2,2.3923047E2,1.11844635E1,2.251734E2,4.2124683E1,5.470572E1,4.625818E1,7.671382E1,8.467859E1,5.0761948E1,5.230658E1,1.22194275E2,8.379846E1,4.399829E1,2.8802078E1,8.91703E0,6.5640625E1,1.38220215E1,4.1782837E1,2.4406494E1,1.1920984E2,1.6535278E1,0E0,0E0,0E0,0E0,0E0,0E0,0E0,0E0,0E0,0E0,0E0,0E0,0E0,0E0,0E0,0E0,0E0,0E0,0E0,0E0,0E0,0E0,0E0,0E0,0E0,0E0,0E0,0E0,0E0,0E0,0E0,0E0,0E0,0E0,0E0,0E0,0E0,0E0,0E0,0E0,0E0,0E0,0E0,0E0,0E0,0E0,0E0,0E0,0E0,0E0,0E0,0E0,0E0,0E0,0E0,0E0,0E0,0E0,0E0,0E0,0E0,0E0,0E0,0E0],"parents":[2147483647,0,0,1,1,2,2,3,3,4,4,5,5,6,6,7,7,8,8,9,9,10,10,11,11,12,12,13,13,14,14,15,15,16,16,17,17,18,18,19,19,20,20,21,21,22,22,23,23,24,24,25,25,26,26,27,27,28,28,29,29,30,30,31,31,32,32,33,33,34,34,35,35,36,36,37,37,38,38,39,39,40,40,41,41,42,42,43,43,44,44,45,45,46,46,47,47,48,48,49,49,50,50,51,51,52,52,53,53,54,54,55,55,56,56,57,57,58,58,59,59,60,60,61,61,62,62],"right_children":[2,4,6,8,10,12,14,16,18,20,22,24,26,28,30,32,34,36,38,40,42,44,46,48,50,52,54,56,58,60,62,64,66,68,70,72,74,76,78,80,82,84,86,88,90,92,94,96,98,100,102,104,106,108,110,112,114,116,118,120,122,124,126,-1,-1,-1,-1,-1,-1,-1,-1,-1,-1,-1,-1,-1,-1,-1,-1,-1,-1,-1,-1,-1,-1,-1,-1,-1,-1,-1,-1,-1,-1,-1,-1,-1,-1,-1,-1,-1,-1,-1,-1,-1,-1,-1,-1,-1,-1,-1,-1,-1,-1,-1,-1,-1,-1,-1,-1,-1,-1,-1,-1,-1,-1,-1,-1],"split_conditions":[1.5971357E-1,-8.8088393E-1,-2.5011856E-2,-1.8961396E0,1.7763929E-3,3.87401E-1,-2.3008613E-1,-3.173108E0,3.4796838E-2,-3.3135894E-1,1.0914092E-2,1.0252116E-1,9.465297E-2,-7.381727E-1,-2.8533107E-1,-2.2377701E-1,-1.3895748E0,-2.4592292E-1,-4.7265318E-1,-2.150177E-1,-1.0379835E-1,-7.399958E-1,4.63898E-2,-1.14281446E-1,2.4556175E-2,-2.2157793E-1,8.317314E-1,2.0413725E-1,3.8715935E-1,2.0641837E-1,2.29141E-1,-1.4305491E-2,-4.942337E-2,-2.409374E-1,-2.5386338E0,-3.7755984E-1,2.3156318E-1,-1.1738253E-1,4.6895748E-1,5.534923E-1,-1.1435632E-1,1.792687E-1,8.158954E-1,-2.3048806E-1,7.558075E-1,1.3552766E-2,-4.2142555E-2,-3.5552148E-2,2.4126028E-1,-8.49365E-2,3.1166512E-1,-4.2066184E-1,-2.479165E-1,-1.0618138E-1,2.2518672E-1,1.3634093E-1,3.4245473E-1,9.2227596E-1,-3.9837457E-2,-9.084343E-2,1.4096291E-1,-3.3665118E-1,1.0110142E-2,7.1741454E-2,4.2110845E-2,8.417686E-2,1.0426285E-1,4.356289E-2,-9.140976E-3,6.238229E-2,3.5462733E-2,-2.2721155E-2,2.7993178E-2,-2.4018483E-2,-6.1628994E-2,1.9052017E-2,6.263349E-2,1.4259172E-2,-1.1603791E-2,7.1033667E-4,-6.508791E-2,-3.7306633E-2,-7.788199E-2,-7.4407004E-2,2.2996727E-2,-1.1051219E-1,3.8619414E-2,1.212938E-1,6.0635187E-2,-2.8378068E-2,-1.711396E-1,1.1153289E-2,-2.920036E-2,6.783716E-2,2.2305854E-2,5.7274587E-2,2.9867074E-2,1.3468117E-3,4.327097E-2,-1.412524E-2,-5.2899282E-2,5.3666537E-3,4.452048E-2,8.7217696E-2,5.0506722E-2,4.914243E-2,1.7711112E-2,2.748304E-2,5.837E-2,6.532495E-2,9.3132176E-2,1.3767309E-2,6.21457E-2,4.7795285E-2,9.7980715E-2,8.205073E-2,1.1044147E-1,9.711885E-2,1.18381694E-1,8.430127E-2,5.6406956E-2,9.8171934E-2,7.417674E-2,7.509681E-2,3.9403073E-2,6.338102E-2,8.5612394E-2],"split_indices":[98,99,96,99,98,98,90,99,86,99,96,94,92,87,70,84,98,79,63,95,97,2,71,44,71,30,98,30,46,46,73,44,53,44,99,85,64,75,90,92,97,65,29,8,28,42,63,79,36,92,92,46,72,75,10,15,50,53,15,30,64,65,23,0,0,0,0,0,0,0,0,0,0,0,0,0,0,0,0,0,0,0,0,0,0,0,0,0,0,0,0,0,0,0,0,0,0,0,0,0,0,0,0,0,0,0,0,0,0,0,0,0,0,0,0,0,0,0,0,0,0,0,0,0,0,0,0],"split_type":[0,0,0,0,0,0,0,0,0,0,0,0,0,0,0,0,0,0,0,0,0,0,0,0,0,0,0,0,0,0,0,0,0,0,0,0,0,0,0,0,0,0,0,0,0,0,0,0,0,0,0,0,0,0,0,0,0,0,0,0,0,0,0,0,0,0,0,0,0,0,0,0,0,0,0,0,0,0,0,0,0,0,0,0,0,0,0,0,0,0,0,0,0,0,0,0,0,0,0,0,0,0,0,0,0,0,0,0,0,0,0,0,0,0,0,0,0,0,0,0,0,0,0,0,0,0,0],"sum_hessian":[1.5457425E5,1.0457132E5,5.0002938E4,5.039969E4,5.4171625E4,2.697827E4,2.3024668E4,1.7641613E4,3.275808E4,4.2098633E4,1.2072994E4,9.622301E3,1.7355967E4,9.441733E3,1.3582936E4,4.503313E3,1.3138301E4,1.4521601E4,1.8236479E4,2.6480668E4,1.5617964E4,9.867101E3,2.205893E3,5.2138013E3,4.4085E3,8.297899E3,9.058068E3,8.1816864E2,8.623564E3,4.22394E3,9.358996E3,1.6808418E3,2.822471E3,2.740546E3,1.0397755E4,4.0584216E3,1.046318E4,2.308396E3,1.5928082E4,4.1121265E3,2.2368541E4,4.045533E3,1.1572432E4,1.2858458E2,9.738517E3,1.0337574E3,1.1721357E3,2.5548018E3,2.6589995E3,2.342885E3,2.065615E3,1.8151259E3,6.482774E3,4.289067E3,4.769001E3,6.510785E2,1.6709013E2,7.223676E3,1.3998884E3,2.4756885E3,1.7482512E3,7.970744E3,1.3882515E3,1.0117378E3,6.69104E2,1.6206627E3,1.2018082E3,7.322757E2,2.0082703E3,3.7182197E3,6.6795347E3,1.8647921E3,2.1936296E3,7.5688174E3,2.894362E3,8.524106E2,1.4559856E3,1.1625775E4,4.302307E3,3.3901565E3,7.2197E2,9.32407E3,1.3044472E4,3.9146704E3,1.3086241E2,1.1464301E4,1.0813044E2,6.2996815E1,6.558777E1,9.627706E3,1.1081048E2,5.31648E2,5.0210944E2,4.016818E2,7.70454E2,1.0449141E3,1.5098877E3,2.109664E3,5.493354E2,1.4006072E3,9.4227795E2,1.6523933E3,4.132216E2,5.6838965E2,1.2467362E3,1.6640918E3,4.818682E3,1.2372875E3,3.0517793E3,4.1009766E3,6.680244E2,4.8700262E2,1.6407588E2,5.671687E1,1.1037327E2,6.27685E3,9.468259E2,5.41581E2,8.5830743E2,8.0127234E2,1.6744163E3,9.072301E2,8.4102106E2,1.0838307E3,6.8869136E3,6.478648E2,7.4038666E2],"tree_param":{"num_deleted":"0","num_feature":"100","num_nodes":"127","size_leaf_vector":"1"}},{"base_weights":[1.2626682E-3,2.3838194E-1,-3.6892068E-1,5.1333654E-1,8.816159E-2,-4.937144E-1,1.9064692E-1,7.9037195E-1,4.3973508E-1,5.570199E-2,6.9362134E-1,-6.7469275E-1,-2.431382E-1,3.6011732E-1,-2.4131295E-1,6.219057E-1,9.073677E-1,6.964483E-1,3.6958268E-1,4.2026564E-1,1.6403364E-2,3.506609E-1,8.7138724E-1,-7.5808144E-1,-2.6396465E-1,-1.6089102E-3,-4.4074556E-1,1.4157246E-1,5.198366E-1,1.887357E-2,-5.983291E-1,6.732926E-1,3.1249565E-1,1.0806469E0,8.3366907E-1,5.824045E-1,8.513783E-1,5.135166E-1,2.4817574E-1,6.8259275E-1,2.9509047E-1,3.9707887E-1,-1.8912531E-2,1.5196334E-1,5.219625E-1,-9.705973E-2,9.062845E-1,-4.4045195E-1,-8.405916E-1,-3.8424355E-1,3.7141144E-1,-4.4660634E-1,1.6718714E-1,-3.0175176E-1,-8.073605E-1,-3.289722E-1,1.9109948E-1,2.0654924E-1,5.858149E-1,-2.403288E-1,1.8031584E-1,-9.3598676E-1,-4.255961E-1,9.348374E-2,6.0849216E-2,7.441449E-2,-9.364515E-3,1.0320498E-1,1.2127785E-1,6.521191E-2,9.356892E-2,1.020441E-1,5.30114E-2,7.728811E-2,9.908072E-2,4.548048E-2,8.068703E-2,4.5551576E-2,9.72041E-3,9.0756886E-2,4.449777E-2,-4.4639915E-2,3.2621194E-2,1.0015183E-2,4.7233082E-2,1.1037433E-2,-1.3142212E-2,3.4649607E-2,-1.5671542E-2,6.292885E-2,2.8794516E-2,1.0949815E-2,-7.435366E-2,9.656652E-2,6.0497057E-2,3.38299E-3,-5.3202886E-2,-9.777604E-2,-6.7243956E-2,-1.934287E-2,-6.4854E-2,4.5482397E-2,-1.5779557E-2,-5.8526516E-2,2.4573034E-2,8.870731E-3,5.4988753E-2,2.806656E-3,-3.942553E-2,-1.4602448E-2,-1.0025638E-1,-1.3705519E-2,-9.498832E-2,4.4779304E-2,9.74599E-3,-2.0495234E-2,2.8843189E-2,1.7733192E-2,6.285551E-2,-4.294233E-2,2.2971896E-2,4.0439326E-2,-5.5267673E-4,-6.382398E-2,-1.2156993E-1,2.2270825E-2,-4.8892003E-2],"categories":[],"categories_nodes":[],"categories_segments":[],"categories_sizes":[],"default_left":[0,0,0,0,0,0,0,0,0,0,0,0,0,0,0,0,0,0,0,0,0,0,0,0,0,0,0,0,0,0,0,0,0,0,0,0,0,0,0,0,0,0,0,0,0,0,0,0,0,0,0,0,0,0,0,0,0,0,0,0,0,0,0,0,0,0,0,0,0,0,0,0,0,0,0,0,0,0,0,0,0,0,0,0,0,0,0,0,0,0,0,0,0,0,0,0,0,0,0,0,0,0,0,0,0,0,0,0,0,0,0,0,0,0,0,0,0,0,0,0,0,0,0,0,0,0,0],"id":4,"left_children":[1,3,5,7,9,11,13,15,17,19,21,23,25,27,29,31,33,35,37,39,41,43,45,47,49,51,53,55,57,59,61,63,65,67,69,71,73,75,77,79,81,83,85,87,89,91,93,95,97,99,101,103,105,107,109,111,113,115,117,119,121,123,125,-1,-1,-1,-1,-1,-1,-1,-1,-1,-1,-1,-1,-1,-1,-1,-1,-1,-1,-1,-1,-1,-1,-1,-1,-1,-1,-1,-1,-1,-1,-1,-1,-1,-1,-1,-1,-1,-1,-1,-1,-1,-1,-1,-1,-1,-1,-1,-1,-1,-1,-1,-1,-1,-1,-1,-1,-1,-1,-1,-1,-1,-1,-1,-1],"loss_changes":[1.3491093E4,3.8695454E3,4.1906387E3,6.7457715E2,1.1906702E3,2.224996E3,8.012083E2,1.3635547E2,4.707627E2,8.238572E2,1.8764111E2,9.755791E2,9.821804E2,2.742981E2,2.865127E2,4.5108276E1,5.142578E1,9.866504E1,3.588601E2,1.8353998E2,6.9788434E2,3.57984E1,6.8684204E1,6.2026074E2,3.6770126E2,6.957217E2,5.7651514E2,7.744245E1,9.374219E1,7.474085E1,7.5437225E1,4.0843628E1,7.156528E1,6.577881E0,5.2716797E1,7.357605E1,2.5254395E1,1.615105E2,3.4884332E2,9.618286E1,8.760004E1,9.842432E1,6.910125E2,2.9443296E1,1.4025742E1,9.628936E0,3.4470215E1,2.122008E2,4.328994E2,2.0384619E2,3.388739E1,2.4466733E2,2.0163385E2,2.5045007E2,4.0145496E2,3.7593105E1,7.218123E1,2.6728943E1,6.536694E1,6.1030502E1,4.5831463E1,3.5802856E1,3.5497757E1,0E0,0E0,0E0,0E0,0E0,0E0,0E0,0E0,0E0,0E0,0E0,0E0,0E0,0E0,0E0,0E0,0E0,0E0,0E0,0E0,0E0,0E0,0E0,0E0,0E0,0E0,0E0,0E0,0E0,0E0,0E0,0E0,0E0,0E0,0E0,0E0,0E0,0E0,0E0,0E0,0E0,0E0,0E0,0E0,0E0,0E0,0E0,0E0,0E0,0E0,0E0,0E0,0E0,0E0,0E0,0E0,0E0,0E0,0E0,0E0,0E0,0E0,0E0,0E0],"parents":[2147483647,0,0,1,1,2,2,3,3,4,4,5,5,6,6,7,7,8,8,9,9,10,10,11,11,12,12,13,13,14,14,15,15,16,16,17,17,18,18,19,19,20,20,21,21,22,22,23,23,24,24,25,25,26,26,27,27,28,28,29,29,30,30,31,31,32,32,33,33,34,34,35,35,36,36,37,37,38,38,39,39,40,40,41,41,42,42,43,43,44,44,45,45,46,46,47,47,48,48,49,49,50,50,51,51,52,52,53,53,54,54,55,55,56,56,57,57,58,58,59,59,60,60,61,61,62,62],"right_children":[2,4,6,8,10,12,14,16,18,20,22,24,26,28,30,32,34,36,38,40,42,44,46,48,50,52,54,56,58,60,62,64,66,68,70,72,74,76,78,80,82,84,86,88,90,92,94,96,98,100,102,104,106,108,110,112,114,116,118,120,122,124,126,-1,-1,-1,-1,-1,-1,-1,-1,-1,-1,-1,-1,-1,-1,-1,-1,-1,-1,-1,-1,-1,-1,-1,-1,-1,-1,-1,-1,-1,-1,-1,-1,-1,-1,-1,-1,-1,-1,-1,-1,-1,-1,-1,-1,-1,-1,-1,-1,-1,-1,-1,-1,-1,-1,-1,-1,-1,-1,-1,-1,-1,-1,-1,-1],"split_conditions":[-6.774512E-1,-1.7476007E0,1.2043421E-1,-3.173108E0,6.2244767E-1,5.0284646E-2,1.6095592E-1,-2.2377701E-1,-3.6301523E-1,-4.1324812E-1,-7.001547E-2,1.751684E-1,-2.0968806E-2,2.2059794E-1,5.286747E-2,3.6986423E-1,-1.824127E-1,1.9395028E-1,-9.739677E-2,-3.6576545E-1,-6.2860835E-1,-3.886788E-2,-2.668553E-1,-1.9031492E-1,3.3394137E-1,-9.3323566E-2,7.747495E-2,-2.092638E-1,-1.5962036E-1,1.6275942E-1,-3.3022165E-1,-8.6627066E-1,-6.5312904E-1,1.2923476E-1,-4.942337E-2,-1.4941335E0,3.9603803E-1,7.0172507E-1,-1.2574434E-1,-5.088061E-2,-8.353706E-1,-6.018301E-1,-2.5800131E-2,-5.2769754E-2,8.077595E-2,1.5188454E-1,2.0397833E-2,-5.7876173E-2,-2.5940748E-2,4.8732422E-2,-6.831523E-2,9.998121E-2,6.694726E-2,-1.144029E-1,-1.2116066E-1,3.5009712E-1,-8.6362824E-2,-2.074605E-1,-1.7572361E-1,1.4632004E-1,-9.8815046E-2,-6.427931E-2,-3.3063647E-1,9.348374E-2,6.0849216E-2,7.441449E-2,-9.364515E-3,1.0320498E-1,1.2127785E-1,6.521191E-2,9.356892E-2,1.020441E-1,5.30114E-2,7.728811E-2,9.908072E-2,4.548048E-2,8.068703E-2,4.5551576E-2,9.72041E-3,9.0756886E-2,4.449777E-2,-4.4639915E-2,3.2621194E-2,1.0015183E-2,4.7233082E-2,1.1037433E-2,-1.3142212E-2,3.4649607E-2,-1.5671542E-2,6.292885E-2,2.8794516E-2,1.0949815E-2,-7.435366E-2,9.656652E-2,6.0497057E-2,3.38299E-3,-5.3202886E-2,-9.777604E-2,-6.7243956E-2,-1.934287E-2,-6.4854E-2,4.5482397E-2,-1.5779557E-2,-5.8526516E-2,2.4573034E-2,8.870731E-3,5.4988753E-2,2.806656E-3,-3.942553E-2,-1.4602448E-2,-1.0025638E-1,-1.3705519E-2,-9.498832E-2,4.4779304E-2,9.74599E-3,-2.0495234E-2,2.8843189E-2,1.7733192E-2,6.285551E-2,-4.294233E-2,2.2971896E-2,4.0439326E-2,-5.5267673E-4,-6.382398E-2,-1.2156993E-1,2.2270825E-2,-4.8892003E-2],"split_indices":[99,99,82,99,80,89,91,84,82,72,56,76,91,82,52,48,48,46,79,94,81,67,74,97,95,71,83,90,97,95,50,49,74,0,53,49,46,87,72,89,73,89,83,48,41,48,78,87,71,91,81,54,54,62,61,45,81,16,87,76,44,38,59,0,0,0,0,0,0,0,0,0,0,0,0,0,0,0,0,0,0,0,0,0,0,0,0,0,0,0,0,0,0,0,0,0,0,0,0,0,0,0,0,0,0,0,0,0,0,0,0,0,0,0,0,0,0,0,0,0,0,0,0,0,0,0,0],"split_type":[0,0,0,0,0,0,0,0,0,0,0,0,0,0,0,0,0,0,0,0,0,0,0,0,0,0,0,0,0,0,0,0,0,0,0,0,0,0,0,0,0,0,0,0,0,0,0,0,0,0,0,0,0,0,0,0,0,0,0,0,0,0,0,0,0,0,0,0,0,0,0,0,0,0,0,0,0,0,0,0,0,0,0,0,0,0,0,0,0,0,0,0,0,0,0,0,0,0,0,0,0,0,0,0,0,0,0,0,0,0,0,0,0,0,0,0,0,0,0,0,0,0,0,0,0,0,0],"sum_hessian":[1.536943E5,9.368509E4,6.000921E4,3.3099418E4,6.0585676E4,4.9066586E4,1.0942622E4,6.9457866E3,2.6153633E4,5.75039E4,3.0817773E3,2.8488854E4,2.0577734E4,7.8593403E3,3.0832812E3,2.8492974E3,4.0964893E3,5.611217E3,2.0542416E4,5.5945884E3,5.190931E4,1.0530739E3,2.0287035E3,2.3680283E4,4.8085703E3,9.260241E3,1.1317493E4,3.3193457E3,4.5399946E3,1.7840485E3,1.2992329E3,2.4424744E3,4.0682294E2,1.2183229E3,2.8781663E3,3.2348252E3,2.3763918E3,9.397724E3,1.1144692E4,1.8057858E3,3.7888025E3,4.4060093E3,4.75033E4,4.8842416E2,5.646498E2,7.0498314E1,1.9582052E3,4.884261E3,1.8796021E4,4.0435142E3,7.650559E2,2.5461565E3,6.7140845E3,8.207593E3,3.109901E3,3.1556778E2,3.0037778E3,7.9051086E2,3.749484E3,6.845254E2,1.0995231E3,4.382079E2,8.61025E2,4.8232175E2,1.9601526E3,1.9681467E2,2.1000826E2,8.9716364E2,3.211592E2,1.0381388E3,1.8400276E3,3.4300076E2,2.8918245E3,1.5245989E3,8.5179285E2,7.832647E3,1.5650767E3,4.694874E3,6.4498184E3,9.261135E2,8.7967224E2,1.5207883E2,3.6367236E3,8.9133514E2,3.5146743E3,2.2103629E4,2.5399672E4,2.995328E2,1.8889136E2,3.8595328E2,1.7869649E2,5.405701E1,1.6441303E1,1.6339865E3,3.242188E2,7.9055634E2,4.093705E3,1.034905E4,8.446972E3,2.3491929E3,1.6943213E3,6.610095E2,1.0404642E2,2.121437E3,4.247195E2,5.5725596E3,1.141525E3,1.7979077E3,6.4096846E3,7.091375E2,2.4007634E3,2.4199152E2,7.357628E1,8.0186066E2,2.2019172E3,1.3094472E2,6.5956616E2,3.5564175E2,3.3938423E3,4.8821063E2,1.9631476E2,4.9794998E2,6.0157306E2,2.1385083E2,2.2435706E2,7.639398E1,7.8463104E2],"tree_param":{"num_deleted":"0","num_feature":"100","num_nodes":"127","size_leaf_vector":"1"}},{"base_weights":[7.3074474E-4,-2.0756426E-1,4.143079E-1,2.562003E-1,-4.1136312E-1,3.0387223E-1,6.2575316E-1,5.45751E-1,1.3682011E-1,-1.9408062E-1,-5.572304E-1,1.783336E-1,4.9487343E-1,6.9378054E-1,4.2498216E-1,2.8400522E-1,6.305153E-1,2.6615936E-1,8.226649E-3,-3.2347274E-1,2.9089889E-2,-6.561046E-1,-2.124116E-1,1.2689388E-1,4.2877164E-1,4.2505947E-1,6.3180774E-1,6.254724E-1,8.6111414E-1,2.0364709E-1,5.909312E-1,4.9400148E-1,1.163207E-1,7.517038E-1,5.0718623E-1,1.8281871E-1,5.3370357E-1,2.4826548E-1,-8.760644E-2,-1.8582064E-1,-5.3857213E-1,3.3911836E-1,-3.168879E-2,-3.9023355E-1,-7.712732E-1,-3.1433743E-1,1.3685145E-2,-6.7250296E-3,2.3663679E-1,6.0334736E-1,3.3492336E-1,3.99145E-1,7.634995E-1,5.300596E-1,7.5293547E-1,2.5912222E-1,6.68166E-1,9.0989614E-1,5.090917E-1,4.8219353E-2,4.917678E-1,4.8160046E-1,7.941394E-1,4.1569304E-2,8.582126E-2,7.1399875E-2,4.7380417E-3,9.503646E-2,6.531116E-2,6.936404E-2,3.9177574E-2,1.6646002E-3,3.284891E-2,1.9815512E-2,5.8820944E-2,1.1407886E-2,4.2375114E-2,-2.057769E-2,1.2997183E-2,5.299647E-3,-2.5955735E-2,-2.9895434E-2,-7.1581855E-2,5.4587364E-2,1.6362004E-2,-8.577949E-3,2.4892136E-2,-1.9725224E-2,-5.4585196E-2,-8.3362475E-2,-2.3510506E-2,-4.8840266E-2,-1.9792827E-2,5.466452E-2,-3.986347E-3,5.9054118E-2,-3.7803494E-3,7.2886564E-2,2.1117609E-2,4.266183E-2,7.242164E-2,-1.3975989E-3,3.8818307E-2,5.422398E-2,3.403708E-2,8.751615E-2,2.988019E-2,4.227693E-2,6.862363E-2,6.9462486E-2,9.483651E-2,5.0571016E-3,4.7355566E-2,6.2268462E-2,8.5007116E-2,8.383595E-2,1.0069295E-1,1.4144383E-2,6.261669E-2,-1.8698517E-2,2.0240564E-2,-3.4080788E-3,5.5911183E-2,4.2418845E-2,7.3969565E-2,6.353081E-2,9.117948E-2],"categories":[],"categories_nodes":[],"categories_segments":[],"categories_sizes":[],"default_left":[0,0,0,0,0,0,0,0,0,0,0,0,0,0,0,0,0,0,0,0,0,0,0,0,0,0,0,0,0,0,0,0,0,0,0,0,0,0,0,0,0,0,0,0,0,0,0,0,0,0,0,0,0,0,0,0,0,0,0,0,0,0,0,0,0,0,0,0,0,0,0,0,0,0,0,0,0,0,0,0,0,0,0,0,0,0,0,0,0,0,0,0,0,0,0,0,0,0,0,0,0,0,0,0,0,0,0,0,0,0,0,0,0,0,0,0,0,0,0,0,0,0,0,0,0,0,0],"id":5,"left_children":[1,3,5,7,9,11,13,15,17,19,21,23,25,27,29,31,33,35,37,39,41,43,45,47,49,51,53,55,57,59,61,63,65,67,69,71,73,75,77,79,81,83,85,87,89,91,93,95,97,99,101,103,105,107,109,111,113,115,117,119,121,123,125,-1,-1,-1,-1,-1,-1,-1,-1,-1,-1,-1,-1,-1,-1,-1,-1,-1,-1,-1,-1,-1,-1,-1,-1,-1,-1,-1,-1,-1,-1,-1,-1,-1,-1,-1,-1,-1,-1,-1,-1,-1,-1,-1,-1,-1,-1,-1,-1,-1,-1,-1,-1,-1,-1,-1,-1,-1,-1,-1,-1,-1,-1,-1,-1],"loss_changes":[1.3156664E4,9.599971E3,1.1943359E3,1.0717917E3,2.2363242E3,8.0571606E2,2.3940283E2,2.0065747E2,3.6520056E2,8.1849963E2,1.4392588E3,2.6119537E2,1.27140625E2,1.4927686E2,1.6311469E2,7.798094E1,1.018042E2,2.4399146E2,2.5332822E2,5.311432E2,1.9604483E2,1.00434766E3,2.1685165E2,2.4672336E2,5.6406494E1,7.713977E1,5.5040405E1,1.454607E2,6.473657E1,8.532253E1,5.603363E1,2.7697418E1,5.0792835E1,6.688025E1,7.271173E1,2.0208087E2,4.7427856E1,7.394249E1,2.0238562E2,1.9270029E2,2.9712317E2,6.178824E1,1.3206084E2,2.9776953E2,7.6511523E2,1.3132526E2,8.349384E1,1.4087665E2,1.15621704E2,2.5469147E1,4.180455E1,6.881506E1,3.2269928E1,4.0730896E1,2.271582E1,4.351013E1,6.8458496E1,2.2294678E1,1.9899445E1,4.4973904E1,2.366507E1,2.4188538E1,1.5991821E1,0E0,0E0,0E0,0E0,0E0,0E0,0E0,0E0,0E0,0E0,0E0,0E0,0E0,0E0,0E0,0E0,0E0,0E0,0E0,0E0,0E0,0E0,0E0,0E0,0E0,0E0,0E0,0E0,0E0,0E0,0E0,0E0,0E0,0E0,0E0,0E0,0E0,0E0,0E0,0E0,0E0,0E0,0E0,0E0,0E0,0E0,0E0,0E0,0E0,0E0,0E0,0E0,0E0,0E0,0E0,0E0,0E0,0E0,0E0,0E0,0E0,0E0,0E0,0E0],"parents":[2147483647,0,0,1,1,2,2,3,3,4,4,5,5,6,6,7,7,8,8,9,9,10,10,11,11,12,12,13,13,14,14,15,15,16,16,17,17,18,18,19,19,20,20,21,21,22,22,23,23,24,24,25,25,26,26,27,27,28,28,29,29,30,30,31,31,32,32,33,33,34,34,35,35,36,36,37,37,38,38,39,39,40,40,41,41,42,42,43,43,44,44,45,45,46,46,47,47,48,48,49,49,50,50,51,51,52,52,53,53,54,54,55,55,56,56,57,57,58,58,59,59,60,60,61,61,62,62],"right_children":[2,4,6,8,10,12,14,16,18,20,22,24,26,28,30,32,34,36,38,40,42,44,46,48,50,52,54,56,58,60,62,64,66,68,70,72,74,76,78,80,82,84,86,88,90,92,94,96,98,100,102,104,106,108,110,112,114,116,118,120,122,124,126,-1,-1,-1,-1,-1,-1,-1,-1,-1,-1,-1,-1,-1,-1,-1,-1,-1,-1,-1,-1,-1,-1,-1,-1,-1,-1,-1,-1,-1,-1,-1,-1,-1,-1,-1,-1,-1,-1,-1,-1,-1,-1,-1,-1,-1,-1,-1,-1,-1,-1,-1,-1,-1,-1,-1,-1,-1,-1,-1,-1,-1,-1,-1,-1],"split_conditions":[1.24504484E-1,-1.370644E0,1.01637565E-1,-2.5386338E0,-6.367843E-1,6.2202805E-1,4.931907E-1,-5.5210984E-1,1.4201224E-2,-3.3201697E-1,1.7763929E-3,2.622313E-1,1.1327143E0,3.2413137E-1,7.7968966E-3,-9.5622614E-2,-2.3134995E-1,3.7376732E-1,-5.506969E-2,1.12271635E-2,-3.571184E-1,-1.3707495E-1,4.992696E-2,-4.2609442E-2,-2.1355313E-1,3.2738173E-1,-2.4435666E-1,-9.1407657E-1,8.3644456E-1,1.1316073E-1,8.929854E-1,2.2722846E-1,-4.4811225E-1,-2.0081893E-1,-1.1042E-1,-3.1827252E-2,-7.3549956E-1,2.6911384E-1,2.0747015E-1,-1.179347E0,-4.8618678E-2,6.2055543E-2,8.7975794E-1,-8.2225665E-2,2.6467794E-1,9.040887E-3,-1.2793657E-1,-1.9322511E0,-1.9025352E0,1.9795535E-2,-3.977429E-1,-1.5474947E-1,2.2527803E-1,2.464767E-1,1.5597221E-1,1.4970996E-2,1.9902405E-1,7.460513E-2,-2.5430164E-1,8.973891E-2,-4.9491075E-1,2.1265559E-1,1.5557358E-1,4.1569304E-2,8.582126E-2,7.1399875E-2,4.7380417E-3,9.503646E-2,6.531116E-2,6.936404E-2,3.9177574E-2,1.6646002E-3,3.284891E-2,1.9815512E-2,5.8820944E-2,1.1407886E-2,4.2375114E-2,-2.057769E-2,1.2997183E-2,5.299647E-3,-2.5955735E-2,-2.9895434E-2,-7.1581855E-2,5.4587364E-2,1.6362004E-2,-8.577949E-3,2.4892136E-2,-1.9725224E-2,-5.4585196E-2,-8.3362475E-2,-2.3510506E-2,-4.8840266E-2,-1.9792827E-2,5.466452E-2,-3.986347E-3,5.9054118E-2,-3.7803494E-3,7.2886564E-2,2.1117609E-2,4.266183E-2,7.242164E-2,-1.3975989E-3,3.8818307E-2,5.422398E-2,3.403708E-2,8.751615E-2,2.988019E-2,4.227693E-2,6.862363E-2,6.9462486E-2,9.483651E-2,5.0571016E-3,4.7355566E-2,6.2268462E-2,8.5007116E-2,8.383595E-2,1.0069295E-1,1.4144383E-2,6.261669E-2,-1.8698517E-2,2.0240564E-2,-3.4080788E-3,5.5911183E-2,4.2418845E-2,7.3969565E-2,6.353081E-2,9.117948E-2],"split_indices":[98,99,96,99,99,98,94,75,97,98,98,64,98,53,44,44,61,78,87,64,79,97,71,66,72,1,80,92,64,87,96,50,46,44,33,53,77,89,86,99,79,56,94,79,89,74,68,49,49,43,66,77,19,81,10,24,33,33,44,46,50,15,44,0,0,0,0,0,0,0,0,0,0,0,0,0,0,0,0,0,0,0,0,0,0,0,0,0,0,0,0,0,0,0,0,0,0,0,0,0,0,0,0,0,0,0,0,0,0,0,0,0,0,0,0,0,0,0,0,0,0,0,0,0,0,0,0],"split_type":[0,0,0,0,0,0,0,0,0,0,0,0,0,0,0,0,0,0,0,0,0,0,0,0,0,0,0,0,0,0,0,0,0,0,0,0,0,0,0,0,0,0,0,0,0,0,0,0,0,0,0,0,0,0,0,0,0,0,0,0,0,0,0,0,0,0,0,0,0,0,0,0,0,0,0,0,0,0,0,0,0,0,0,0,0,0,0,0,0,0,0,0,0,0,0,0,0,0,0,0,0,0,0,0,0,0,0,0,0,0,0,0,0,0,0,0,0,0,0,0,0,0,0,0,0,0,0],"sum_hessian":[1.527231E5,1.01569086E5,5.1154008E4,3.1007707E4,7.056138E4,3.3604934E4,1.7549074E4,9.051114E3,2.1956592E4,2.8343502E4,4.221788E4,2.0278498E4,1.3326436E4,1.3105927E4,4.4431475E3,2.2151738E3,6.8359404E3,1.09460205E4,1.1010571E4,1.7941021E4,1.0402482E4,3.2809188E4,9.408693E3,1.6824309E4,3.4541887E3,8.829136E3,4.4973E3,9.31013E3,3.7957974E3,1.9048177E3,2.5383298E3,9.8263947E2,1.2325343E3,3.445322E3,3.3906184E3,8.347453E3,2.5985674E3,3.1411516E3,7.8694194E3,1.094114E4,6.9998813E3,1.7043112E3,8.698171E3,9.917846E3,2.289134E4,6.4848794E3,2.9238142E3,7.5872686E3,9.23704E3,1.2057797E3,2.248409E3,8.203194E3,6.259422E2,2.447096E3,2.0502039E3,9.724737E2,8.337655E3,3.3324187E3,4.6337888E2,1.238092E3,6.667258E2,1.6525759E3,8.8575397E2,8.105136E2,1.7212589E2,1.2649848E2,1.1060358E3,1.1398708E3,2.3054512E3,1.2944034E3,2.0962148E3,3.899843E3,4.4476104E3,3.637696E2,2.2347979E3,1.7809688E3,1.360183E3,5.099726E3,2.7696936E3,2.581265E3,8.359874E3,2.977421E3,4.0224607E3,7.815057E2,9.2280554E2,7.2930493E3,1.4051212E3,4.4284385E3,5.4894077E3,2.050611E4,2.38523E3,2.5975693E3,3.88731E3,2.6610538E2,2.6577087E3,3.743824E2,7.212886E3,4.5293198E2,8.784108E3,4.9156552E2,7.142142E2,2.9786435E2,1.9505446E3,2.3859666E3,5.817227E3,5.0396213E2,1.2198009E2,1.4527756E3,9.9432025E2,1.5825659E3,4.676381E2,4.9362518E2,4.788485E2,6.6735137E3,1.6641422E3,1.9237773E3,1.4086412E3,1.12453255E2,3.5092563E2,4.9016052E2,7.4793146E2,7.574824E1,5.909776E2,1.3540234E3,2.985525E2,3.796447E2,5.0610925E2],"tree_param":{"num_deleted":"0","num_feature":"100","num_nodes":"127","size_leaf_vector":"1"}},{"base_weights":[8.4476656E-4,-1.7809303E-1,3.9909175E-1,2.6413137E-1,-3.3909073E-1,2.69825E-1,5.487024E-1,5.1762074E-1,1.6033025E-1,-1.5258478E-1,-4.7563034E-1,7.587114E-2,3.7199855E-1,4.625829E-1,6.746887E-1,6.984127E-1,3.3542705E-1,2.5050783E-1,-6.1998952E-2,-2.851257E-1,3.3365157E-2,-5.9312105E-1,-1.4540109E-1,-1.1976716E-1,1.9644445E-1,-1.1397719E-1,3.9941564E-1,3.9900127E-1,7.3850715E-1,4.75985E-1,7.485166E-1,4.61227E-1,7.947664E-1,9.273796E-2,4.671576E-1,8.8007694E-1,2.3011641E-1,-3.3368635E-1,9.512064E-2,-1.5170725E-1,-6.0717463E-1,-5.1167174E-3,3.6560547E-1,-2.6845092E-1,-6.788311E-1,-2.4586156E-1,4.444732E-2,9.05834E-2,-3.0766585E-1,3.0942032E-1,6.3060805E-2,3.5459885E-1,-2.7973643E-1,2.885066E-1,5.01092E-1,2.6152354E-1,4.7322306E-1,5.917038E-1,8.992905E-1,3.4777677E-1,6.990696E-1,8.9284116E-1,6.895271E-1,7.114803E-2,3.365722E-2,6.799236E-2,9.331673E-2,2.9557198E-2,-1.23732425E-2,3.8854305E-2,7.393819E-2,1.2459554E-1,7.084771E-2,2.011276E-2,6.8149135E-2,-1.9519044E-2,-6.459276E-2,9.1217056E-2,6.7910156E-3,1.0608635E-2,-2.451703E-2,-3.8244277E-2,-7.220372E-2,-1.0402939E-2,1.2644774E-2,4.891707E-2,-6.1136163E-3,1.5965935E-2,-3.4645453E-2,-3.9319757E-2,-7.8493826E-2,-5.9361155E-3,-3.3577234E-2,2.945592E-2,-7.5979293E-3,-6.7096963E-3,2.704677E-2,-2.7611991E-3,-4.3785993E-2,2.5663292E-2,5.6930896E-2,1.6876956E-2,-1.2431915E-2,4.0833518E-2,-1.2161534E-1,9.900197E-2,-3.399866E-2,5.4907203E-2,2.1184484E-2,4.543319E-2,7.158374E-2,6.0669817E-2,1.8548256E-2,4.3189168E-2,6.836366E-2,4.6353422E-2,7.811626E-2,9.205163E-2,2.8008495E-2,2.6304265E-2,7.871708E-2,1.02566555E-1,6.382562E-2,8.4199466E-2,1.1489983E-1,6.4711444E-2,9.621497E-2],"categories":[],"categories_nodes":[],"categories_segments":[],"categories_sizes":[],"default_left":[0,0,0,0,0,0,0,0,0,0,0,0,0,0,0,0,0,0,0,0,0,0,0,0,0,0,0,0,0,0,0,0,0,0,0,0,0,0,0,0,0,0,0,0,0,0,0,0,0,0,0,0,0,0,0,0,0,0,0,0,0,0,0,0,0,0,0,0,0,0,0,0,0,0,0,0,0,0,0,0,0,0,0,0,0,0,0,0,0,0,0,0,0,0,0,0,0,0,0,0,0,0,0,0,0,0,0,0,0,0,0,0,0,0,0,0,0,0,0,0,0,0,0,0,0,0,0],"id":6,"left_children":[1,3,5,7,9,11,13,15,17,19,21,23,25,27,29,31,33,35,37,39,41,43,45,47,49,51,53,55,57,59,61,63,65,67,69,71,73,75,77,79,81,83,85,87,89,91,93,95,97,99,101,103,105,107,109,111,113,115,117,119,121,123,125,-1,-1,-1,-1,-1,-1,-1,-1,-1,-1,-1,-1,-1,-1,-1,-1,-1,-1,-1,-1,-1,-1,-1,-1,-1,-1,-1,-1,-1,-1,-1,-1,-1,-1,-1,-1,-1,-1,-1,-1,-1,-1,-1,-1,-1,-1,-1,-1,-1,-1,-1,-1,-1,-1,-1,-1,-1,-1,-1,-1,-1,-1,-1,-1],"loss_changes":[1.0813244E4,7.454296E3,9.096343E2,7.3519543E2,1.9545293E3,5.0013123E2,2.362627E2,2.6716455E2,3.9753223E2,7.995999E2,1.719209E3,2.0547025E2,2.202981E2,2.269751E2,1.2948438E2,9.273303E1,1.2928088E2,1.8088745E2,2.442961E2,8.137887E2,1.7263016E2,9.0933203E2,2.2182033E2,1.3131317E2,8.1186615E1,6.8726456E1,1.7631396E2,1.0732849E2,5.67041E1,6.841162E1,5.430957E1,3.6546387E1,4.538806E1,6.258133E1,5.5820557E1,2.6880493E1,1.7866418E2,9.055191E1,8.055864E1,3.2275873E2,1.4294238E2,1.5749591E2,7.3935394E1,2.2806693E2,7.8336426E2,1.2751373E2,1.2126657E2,4.449176E1,6.39653E1,3.9877228E1,4.8995674E1,2.0022102E1,5.0311314E1,1.4942957E2,8.1637695E1,9.685216E1,5.916687E1,3.048883E1,1.4928101E1,5.6621277E1,1.6725433E1,2.3368164E1,5.238086E1,0E0,0E0,0E0,0E0,0E0,0E0,0E0,0E0,0E0,0E0,0E0,0E0,0E0,0E0,0E0,0E0,0E0,0E0,0E0,0E0,0E0,0E0,0E0,0E0,0E0,0E0,0E0,0E0,0E0,0E0,0E0,0E0,0E0,0E0,0E0,0E0,0E0,0E0,0E0,0E0,0E0,0E0,0E0,0E0,0E0,0E0,0E0,0E0,0E0,0E0,0E0,0E0,0E0,0E0,0E0,0E0,0E0,0E0,0E0,0E0,0E0,0E0,0E0,0E0],"parents":[2147483647,0,0,1,1,2,2,3,3,4,4,5,5,6,6,7,7,8,8,9,9,10,10,11,11,12,12,13,13,14,14,15,15,16,16,17,17,18,18,19,19,20,20,21,21,22,22,23,23,24,24,25,25,26,26,27,27,28,28,29,29,30,30,31,31,32,32,33,33,34,34,35,35,36,36,37,37,38,38,39,39,40,40,41,41,42,42,43,43,44,44,45,45,46,46,47,47,48,48,49,49,50,50,51,51,52,52,53,53,54,54,55,55,56,56,57,57,58,58,59,59,60,60,61,61,62,62],"right_children":[2,4,6,8,10,12,14,16,18,20,22,24,26,28,30,32,34,36,38,40,42,44,46,48,50,52,54,56,58,60,62,64,66,68,70,72,74,76,78,80,82,84,86,88,90,92,94,96,98,100,102,104,106,108,110,112,114,116,118,120,122,124,126,-1,-1,-1,-1,-1,-1,-1,-1,-1,-1,-1,-1,-1,-1,-1,-1,-1,-1,-1,-1,-1,-1,-1,-1,-1,-1,-1,-1,-1,-1,-1,-1,-1,-1,-1,-1,-1,-1,-1,-1,-1,-1,-1,-1,-1,-1,-1,-1,-1,-1,-1,-1,-1,-1,-1,-1,-1,-1,-1,-1,-1,-1,-1,-1],"split_conditions":[1.731458E-1,-1.4698993E0,-3.6315963E-2,-2.6818945E0,-6.367843E-1,3.87401E-1,8.317314E-1,-5.9852876E-2,8.8646926E-2,-3.8717616E-1,1.7763929E-3,-3.3867285E-2,-4.9086115E-1,1.2827156E0,-5.5230805E-3,-4.2730945E-1,-1.7903072E-1,-1.6379751E0,-6.91569E-1,-3.1034125E-2,4.3789804E-1,-1.1380284E-1,-2.5011856E-2,-6.0693044E-2,1.24766506E-1,-1.7476007E0,9.465297E-2,-5.5230805E-3,1.9794941E-1,2.4812777E-1,-9.3271166E-2,-1.8833499E-1,1.0673685E-1,-4.5653183E-2,6.463845E-1,-3.1261665E-1,5.582774E-1,2.2930938E-1,-1.9322511E0,-2.25937E-1,-2.8686824E-1,1.3658693E-2,2.741694E-1,-1.3695242E-1,-4.7775127E-2,-1.5312806E-1,-1.7826341E-1,1.3257584E-1,-1.4685011E-1,3.9180356E-1,1.0252116E-1,6.72879E-1,-5.342529E-1,-2.2157793E-1,1.8260983E-1,-6.2860835E-1,1.8627493E-1,1.0544963E-1,8.228874E-1,2.504272E-1,-1.6449665E-1,2.034991E-1,3.9603803E-1,7.114803E-2,3.365722E-2,6.799236E-2,9.331673E-2,2.9557198E-2,-1.23732425E-2,3.8854305E-2,7.393819E-2,1.2459554E-1,7.084771E-2,2.011276E-2,6.8149135E-2,-1.9519044E-2,-6.459276E-2,9.1217056E-2,6.7910156E-3,1.0608635E-2,-2.451703E-2,-3.8244277E-2,-7.220372E-2,-1.0402939E-2,1.2644774E-2,4.891707E-2,-6.1136163E-3,1.5965935E-2,-3.4645453E-2,-3.9319757E-2,-7.8493826E-2,-5.9361155E-3,-3.3577234E-2,2.945592E-2,-7.5979293E-3,-6.7096963E-3,2.704677E-2,-2.7611991E-3,-4.3785993E-2,2.5663292E-2,5.6930896E-2,1.6876956E-2,-1.2431915E-2,4.0833518E-2,-1.2161534E-1,9.900197E-2,-3.399866E-2,5.4907203E-2,2.1184484E-2,4.543319E-2,7.158374E-2,6.0669817E-2,1.8548256E-2,4.3189168E-2,6.836366E-2,4.6353422E-2,7.811626E-2,9.205163E-2,2.8008495E-2,2.6304265E-2,7.871708E-2,1.02566555E-1,6.382562E-2,8.4199466E-2,1.1489983E-1,6.4711444E-2,9.621497E-2],"split_indices":[98,99,96,99,99,98,98,48,48,98,98,82,48,96,48,67,84,49,98,48,82,81,96,58,81,99,92,48,46,46,20,44,47,44,81,47,67,44,49,64,97,78,48,62,67,44,42,63,30,43,94,25,0,30,10,81,10,53,48,36,8,10,46,0,0,0,0,0,0,0,0,0,0,0,0,0,0,0,0,0,0,0,0,0,0,0,0,0,0,0,0,0,0,0,0,0,0,0,0,0,0,0,0,0,0,0,0,0,0,0,0,0,0,0,0,0,0,0,0,0,0,0,0,0,0,0,0],"split_type":[0,0,0,0,0,0,0,0,0,0,0,0,0,0,0,0,0,0,0,0,0,0,0,0,0,0,0,0,0,0,0,0,0,0,0,0,0,0,0,0,0,0,0,0,0,0,0,0,0,0,0,0,0,0,0,0,0,0,0,0,0,0,0,0,0,0,0,0,0,0,0,0,0,0,0,0,0,0,0,0,0,0,0,0,0,0,0,0,0,0,0,0,0,0,0,0,0,0,0,0,0,0,0,0,0,0,0,0,0,0,0,0,0,0,0,0,0,0,0,0,0,0,0,0,0,0,0],"sum_hessian":[1.5173847E5,1.0469716E5,4.7041305E4,2.7943105E4,7.6754055E4,2.523797E4,2.1803336E4,8.116958E3,1.9826148E4,3.2442043E4,4.431201E4,8.708518E3,1.6529453E4,1.2953489E4,8.849846E3,4.0727288E3,4.044229E3,1.4104984E4,5.7211636E3,1.8940879E4,1.3501165E4,3.268306E4,1.162895E4,3.3206106E3,5.3879067E3,8.825657E2,1.5646887E4,1.0529587E4,2.4239016E3,2.3994106E3,6.4504355E3,1.178212E3,2.8945168E3,1.4234644E3,2.6207646E3,4.4119778E2,1.3663787E4,2.0958855E3,3.6252783E3,1.3393634E4,5.5472446E3,1.2100593E4,1.4005717E3,6.82689E3,2.5856172E4,7.6045957E3,4.024354E3,1.5669475E3,1.753663E3,2.916399E3,2.4715078E3,2.3032706E2,6.522386E2,7.4855044E3,8.161383E3,3.6932559E3,6.8363315E3,1.269481E3,1.1544208E3,1.5253441E3,8.740666E2,1.867427E3,4.5830083E3,3.9018356E2,7.8802844E2,1.5851213E3,1.3093955E3,7.3469006E2,6.8877435E2,2.0353976E3,5.8536707E2,1.3886166E2,3.0233615E2,1.2840568E4,8.232187E2,1.4530181E3,6.428674E2,1.1579439E2,3.509484E3,3.563768E3,9.829865E3,1.8777345E3,3.66951E3,6.9075635E3,5.1930293E3,1.0859756E3,3.145961E2,1.0520171E3,5.774873E3,7.0046934E3,1.8851477E4,2.474156E3,5.1304395E3,1.3074625E3,2.7168916E3,8.3534235E2,7.316052E2,5.5691766E2,1.1967452E3,2.4256914E3,4.907077E2,1.5801688E3,8.91339E2,2.2342365E2,6.903414E0,2.8847765E1,6.233908E2,1.7002765E3,5.785228E3,6.7045933E3,1.4567894E3,6.654744E2,3.0277815E3,5.7164966E3,1.1198346E3,7.5927515E2,5.102058E2,1.1156892E3,3.87315E1,1.2800868E3,2.4525732E2,1.347157E2,7.393509E2,1.5617172E3,3.0570984E2,3.968925E3,6.1408325E2],"tree_param":{"num_deleted":"0","num_feature":"100","num_nodes":"127","size_leaf_vector":"1"}},{"base_weights":[2.5876001E-3,-1.6837996E-1,3.4839585E-1,-2.8391832E-1,2.3682772E-1,2.4535568E-1,5.2436733E-1,-4.0255514E-1,-6.4814137E-3,1.276284E-1,5.138402E-1,1.1472945E-1,3.835638E-1,6.442182E-1,4.0591988E-1,-4.887674E-1,-1.4189923E-1,1.742583E-1,-1.420575E-1,1.0970927E-2,3.022417E-1,6.7172176E-1,3.265722E-1,1.6525373E-2,2.8742197E-1,3.2831156E-1,6.853459E-1,5.1457155E-1,7.572242E-1,1.4363284E-1,4.6758145E-1,-1.2251157E-1,-5.5520314E-1,-1.9613187E-1,3.7151283E-1,5.029251E-1,3.316768E-2,-2.6240322E-1,8.529343E-2,4.0807673E-1,-5.0271064E-2,3.9387366E-1,8.291709E-2,3.3949885E-1,7.3553616E-1,7.976989E-2,4.8543546E-1,-7.9707816E-2,1.829069E-1,3.5902303E-1,7.746222E-2,9.4011265E-1,3.129452E-1,5.3352404E-1,8.5311604E-1,8.864431E-1,4.7851846E-1,7.10547E-1,9.1502655E-1,3.5166702E-1,-1.660321E-2,4.4615138E-1,9.112941E-1,1.4925748E-2,-5.21361E-2,-6.26802E-2,-2.4421483E-2,-1.8805286E-4,-2.9547194E-2,5.4300148E-2,1.1620182E-2,6.343895E-2,3.239129E-2,1.8626241E-2,-1.1349282E-2,-3.6093637E-3,-3.4404885E-2,2.2453303E-2,-1.66454E-2,7.118883E-2,2.730001E-2,4.220727E-3,-2.5802791E-2,1.907812E-2,5.3167578E-2,-3.7267596E-2,1.54890865E-2,5.4832906E-2,1.5366859E-2,8.162042E-2,5.608383E-2,-1.16894925E-2,3.1803537E-2,3.3771235E-2,6.662926E-2,1.284824E-2,-1.6672982E-2,4.321411E-2,8.486215E-3,4.082349E-2,1.1549309E-2,5.933767E-2,-9.904868E-4,7.270058E-2,1.2132789E-1,4.282427E-2,2.3169726E-2,3.8396057E-2,7.546487E-2,5.4368865E-2,8.850594E-2,1.10963546E-1,6.94147E-2,4.1336674E-2,6.983145E-2,8.927121E-2,6.475029E-2,-2.7686587E-2,9.285452E-2,3.0897358E-2,1.3073699E-1,-1.09000646E-1,2.9654542E-3,6.997775E-2,4.119849E-2,5.552737E-2,1.0435237E-1],"categories":[],"categories_nodes":[],"categories_segments":[],"categories_sizes":[],"default_left":[0,0,0,0,0,0,0,0,0,0,0,0,0,0,0,0,0,0,0,0,0,0,0,0,0,0,0,0,0,0,0,0,0,0,0,0,0,0,0,0,0,0,0,0,0,0,0,0,0,0,0,0,0,0,0,0,0,0,0,0,0,0,0,0,0,0,0,0,0,0,0,0,0,0,0,0,0,0,0,0,0,0,0,0,0,0,0,0,0,0,0,0,0,0,0,0,0,0,0,0,0,0,0,0,0,0,0,0,0,0,0,0,0,0,0,0,0,0,0,0,0,0,0,0,0,0,0],"id":7,"left_children":[1,3,5,7,9,11,13,15,17,19,21,23,25,27,29,31,33,35,37,39,41,43,45,47,49,51,53,55,57,59,61,63,65,67,69,71,73,75,77,79,81,83,85,87,89,91,93,95,97,99,101,103,105,107,109,111,113,115,117,119,121,123,125,-1,-1,-1,-1,-1,-1,-1,-1,-1,-1,-1,-1,-1,-1,-1,-1,-1,-1,-1,-1,-1,-1,-1,-1,-1,-1,-1,-1,-1,-1,-1,-1,-1,-1,-1,-1,-1,-1,-1,-1,-1,-1,-1,-1,-1,-1,-1,-1,-1,-1,-1,-1,-1,-1,-1,-1,-1,-1,-1,-1,-1,-1,-1,-1],"loss_changes":[8.897201E3,4.714631E3,9.0261523E2,2.5791406E3,6.758113E2,5.668812E2,2.607417E2,1.2333662E3,5.751873E2,3.2647037E2,1.865542E2,2.7380692E2,2.541875E2,1.3347485E2,1.495282E2,1.003542E3,3.7996133E2,4.66524E2,3.669936E2,2.3371104E2,1.2897205E2,7.239502E1,1.1333417E2,1.6482838E2,8.796066E1,1.20967896E2,5.9664307E1,5.6667603E1,3.529248E1,5.8743393E1,7.080115E1,6.8667065E2,7.7722363E2,2.3813828E2,5.7023407E1,7.090619E1,1.5809395E2,1.6203741E2,1.6279187E2,5.2499664E1,1.5998087E2,1.266004E2,6.2124695E1,2.141418E1,4.0037964E1,5.3154774E1,4.677014E1,1.18185486E2,9.214325E1,5.2256104E1,6.715109E1,1.7486298E1,1.1778467E2,4.0776245E1,1.05849E1,1.5332306E1,5.533246E1,4.272119E1,1.8149231E1,3.0880196E1,4.950358E1,6.163159E1,1.5617493E1,0E0,0E0,0E0,0E0,0E0,0E0,0E0,0E0,0E0,0E0,0E0,0E0,0E0,0E0,0E0,0E0,0E0,0E0,0E0,0E0,0E0,0E0,0E0,0E0,0E0,0E0,0E0,0E0,0E0,0E0,0E0,0E0,0E0,0E0,0E0,0E0,0E0,0E0,0E0,0E0,0E0,0E0,0E0,0E0,0E0,0E0,0E0,0E0,0E0,0E0,0E0,0E0,0E0,0E0,0E0,0E0,0E0,0E0,0E0,0E0,0E0,0E0,0E0,0E0],"parents":[2147483647,0,0,1,1,2,2,3,3,4,4,5,5,6,6,7,7,8,8,9,9,10,10,11,11,12,12,13,13,14,14,15,15,16,16,17,17,18,18,19,19,20,20,21,21,22,22,23,23,24,24,25,25,26,26,27,27,28,28,29,29,30,30,31,31,32,32,33,33,34,34,35,35,36,36,37,37,38,38,39,39,40,40,41,41,42,42,43,43,44,44,45,45,46,46,47,47,48,48,49,49,50,50,51,51,52,52,53,53,54,54,55,55,56,56,57,57,58,58,59,59,60,60,61,61,62,62],"right_children":[2,4,6,8,10,12,14,16,18,20,22,24,26,28,30,32,34,36,38,40,42,44,46,48,50,52,54,56,58,60,62,64,66,68,70,72,74,76,78,80,82,84,86,88,90,92,94,96,98,100,102,104,106,108,110,112,114,116,118,120,122,124,126,-1,-1,-1,-1,-1,-1,-1,-1,-1,-1,-1,-1,-1,-1,-1,-1,-1,-1,-1,-1,-1,-1,-1,-1,-1,-1,-1,-1,-1,-1,-1,-1,-1,-1,-1,-1,-1,-1,-1,-1,-1,-1,-1,-1,-1,-1,-1,-1,-1,-1,-1,-1,-1,-1,-1,-1,-1,-1,-1,-1,-1,-1,-1,-1],"split_conditions":[1.24504484E-1,2.0022608E-1,7.4281216E-1,8.41115E-2,1.0153583E0,-8.0238774E-2,-4.3306872E-2,6.814617E-2,-8.3458245E-2,-1.2102885E-1,-4.410187E-2,1.5177055E-1,1.2827156E0,1.7555755E-1,-9.312278E-2,-1.9848949E-1,3.946534E-1,-3.998465E-1,2.8133405E-2,-5.8024544E-1,8.8646926E-2,-7.9469585E-1,-1.1223916E0,3.968239E-1,2.0122233E-1,-7.070507E-1,1.9794941E-1,-3.1467718E-1,1.7277658E-1,-5.4866828E-2,4.46748E-1,-4.2820875E-2,1.7763929E-3,-3.2239896E-1,-5.2399047E-2,-2.624964E-1,1.55862365E-2,-1.2588702E-1,9.4938874E-2,-2.298968E-1,2.1604348E-3,-9.698616E-2,-1.1006391E0,2.1818033E-3,1.476188E-1,3.243213E-2,5.7301387E-2,-9.399077E-2,-9.739677E-2,3.0667397E-1,-3.1673387E-1,1.3061115E-1,8.977403E-2,-3.3751896E-1,-2.8709707E-1,-3.972349E-2,7.074149E-1,-1.0927284E-1,-7.0090306E-1,8.6031985E-1,-5.7456714E-1,-2.2095591E-1,-4.167608E-1,1.4925748E-2,-5.21361E-2,-6.26802E-2,-2.4421483E-2,-1.8805286E-4,-2.9547194E-2,5.4300148E-2,1.1620182E-2,6.343895E-2,3.239129E-2,1.8626241E-2,-1.1349282E-2,-3.6093637E-3,-3.4404885E-2,2.2453303E-2,-1.66454E-2,7.118883E-2,2.730001E-2,4.220727E-3,-2.5802791E-2,1.907812E-2,5.3167578E-2,-3.7267596E-2,1.54890865E-2,5.4832906E-2,1.5366859E-2,8.162042E-2,5.608383E-2,-1.16894925E-2,3.1803537E-2,3.3771235E-2,6.662926E-2,1.284824E-2,-1.6672982E-2,4.321411E-2,8.486215E-3,4.082349E-2,1.1549309E-2,5.933767E-2,-9.904868E-4,7.270058E-2,1.2132789E-1,4.282427E-2,2.3169726E-2,3.8396057E-2,7.546487E-2,5.4368865E-2,8.850594E-2,1.10963546E-1,6.94147E-2,4.1336674E-2,6.983145E-2,8.927121E-2,6.475029E-2,-2.7686587E-2,9.285452E-2,3.0897358E-2,1.3073699E-1,-1.09000646E-1,2.9654542E-3,6.997775E-2,4.119849E-2,5.552737E-2,1.0435237E-1],"split_indices":[98,96,98,86,96,96,90,82,44,93,48,82,96,48,48,94,56,94,93,81,48,59,98,98,44,62,46,28,33,41,26,44,98,48,45,44,94,90,48,45,48,60,98,26,61,43,43,94,79,94,8,11,94,71,44,0,88,20,38,44,31,20,41,0,0,0,0,0,0,0,0,0,0,0,0,0,0,0,0,0,0,0,0,0,0,0,0,0,0,0,0,0,0,0,0,0,0,0,0,0,0,0,0,0,0,0,0,0,0,0,0,0,0,0,0,0,0,0,0,0,0,0,0,0,0,0,0],"split_type":[0,0,0,0,0,0,0,0,0,0,0,0,0,0,0,0,0,0,0,0,0,0,0,0,0,0,0,0,0,0,0,0,0,0,0,0,0,0,0,0,0,0,0,0,0,0,0,0,0,0,0,0,0,0,0,0,0,0,0,0,0,0,0,0,0,0,0,0,0,0,0,0,0,0,0,0,0,0,0,0,0,0,0,0,0,0,0,0,0,0,0,0,0,0,0,0,0,0,0,0,0,0,0,0,0,0,0,0,0,0,0,0,0,0,0,0,0,0,0,0,0,0,0,0,0,0,0],"sum_hessian":[1.5048686E5,1.00700875E5,4.9785984E4,7.8358516E4,2.2342355E4,3.140132E4,1.8384666E4,5.488731E4,2.3471207E4,1.6026222E4,6.3161343E3,1.6144403E4,1.5256917E4,9.135988E3,9.248678E3,4.12447E4,1.3642609E4,1.0059869E4,1.3411339E4,9.608164E3,6.418058E3,3.425545E3,2.890589E3,1.0292513E4,5.8518896E3,1.2897624E4,2.3592935E3,4.2573164E3,4.878672E3,1.7610612E3,7.487616E3,6.333178E3,3.4911523E4,1.2339756E4,1.3028528E3,3.0206897E3,7.0391797E3,8.769268E3,4.642071E3,1.2830349E3,8.325129E3,4.526239E3,1.8918195E3,5.5298425E2,2.8725608E3,1.1325759E3,1.7580133E3,6.521229E3,3.771284E3,4.3632217E3,1.4886681E3,3.145333E2,1.2583091E4,1.2407081E3,1.1185853E3,3.7418454E2,3.8831318E3,3.7692483E3,1.1094235E3,7.657259E2,9.953352E2,7.1445596E3,3.430569E2,3.7670212E3,2.5661567E3,2.8377223E4,6.5342983E3,4.175645E3,8.1641113E3,7.786908E2,5.241619E2,1.7401791E3,1.2805106E3,3.44391E3,3.5952698E3,2.3253062E3,6.4439614E3,2.9889907E3,1.65308E3,3.935655E2,8.894694E2,5.761377E3,2.5637517E3,1.8306355E3,2.6956033E3,2.5752316E2,1.6342963E3,2.594603E2,2.9352396E2,1.96263E3,9.099307E2,6.2073193E2,5.11844E2,9.692238E2,7.887894E2,1.922173E3,4.599056E3,1.0637572E3,2.7075269E3,3.629172E3,7.340497E2,2.1474979E2,1.2739183E3,1.7874739E2,1.3578589E2,5.1998306E3,7.38326E3,7.417454E2,4.989628E2,1.06356445E2,1.0122289E3,1.7097195E2,2.032126E2,2.9974976E3,8.8563434E2,9.657027E2,2.8035457E3,1.2223723E1,1.0971997E3,7.3424866E2,3.147727E1,4.0189148E1,9.5514606E2,8.458829E2,6.298677E3,9.431593E1,2.4874094E2],"tree_param":{"num_deleted":"0","num_feature":"100","num_nodes":"127","size_leaf_vector":"1"}},{"base_weights":[-1.4760396E-4,-1.5453617E-1,3.1471172E-1,-2.5591496E-1,2.2826761E-1,2.1359111E-1,4.6786943E-1,-3.5105297E-1,3.4184813E-2,1.4017056E-1,4.9784026E-1,6.1694443E-2,3.1698662E-1,6.003172E-1,3.7685418E-1,-4.0561625E-1,6.336885E-2,-1.9103251E-1,1.3061942E-1,9.283264E-2,5.6885827E-1,5.905666E-1,2.0795982E-1,-1.0249777E-1,1.5072824E-1,2.3641352E-1,4.4584888E-1,2.179791E-1,6.417553E-1,2.307174E-1,4.5335424E-1,-1.6981685E-1,-4.841216E-1,2.7869073E-1,-4.32546E-2,-6.8433784E-2,-4.1453192E-1,2.0873287E-1,-1.2553683E-1,2.5336573E-1,-2.7131045E-2,6.861503E-1,2.9391697E-1,6.130821E-1,-2.1908619E-2,-1.04784355E-1,3.439675E-1,5.4912806E-2,-2.5735426E-1,6.456224E-1,1.293952E-1,-2.5970176E-1,2.6521966E-1,3.817819E-1,6.017877E-1,1.4655454E-1,7.3570335E-1,5.9956825E-1,8.0249435E-1,3.7188742E-1,6.413256E-2,3.7092322E-1,5.5996954E-1,2.1801526E-3,-3.1265747E-2,-5.4708797E-2,-2.067624E-2,4.9469184E-2,1.6645808E-2,-2.130168E-2,1.0762565E-2,1.7210241E-2,-1.4783205E-2,-1.3598477E-2,-6.0228314E-2,1.6443131E-2,5.234774E-2,-1.6605107E-2,6.181558E-2,7.867901E-2,2.306934E-2,3.4274515E-2,-8.780489E-3,7.828501E-2,5.5280615E-2,1.6873438E-2,6.423358E-2,6.808039E-2,4.2532112E-2,5.9079737E-3,-1.0183722E-1,1.5120345E-2,-4.8539486E-2,2.2138381E-2,7.3439434E-2,-3.5592254E-2,1.2606713E-2,-1.9932149E-2,-7.569385E-2,-3.28513E-2,7.477658E-2,-1.3462685E-1,1.3735856E-2,9.425058E-3,-4.5223784E-2,7.39904E-2,2.4385205E-2,2.8907439E-2,5.050301E-2,4.3989297E-2,7.301005E-2,1.09588385E-1,1.1272488E-2,1.2654875E-1,5.4418456E-2,5.631271E-2,8.297809E-2,8.806538E-2,6.486094E-2,5.454252E-2,2.0359395E-2,-6.6920035E-3,3.3444405E-2,2.5963673E-2,4.9066033E-2,5.994993E-2,1.1415699E-2],"categories":[],"categories_nodes":[],"categories_segments":[],"categories_sizes":[],"default_left":[0,0,0,0,0,0,0,0,0,0,0,0,0,0,0,0,0,0,0,0,0,0,0,0,0,0,0,0,0,0,0,0,0,0,0,0,0,0,0,0,0,0,0,0,0,0,0,0,0,0,0,0,0,0,0,0,0,0,0,0,0,0,0,0,0,0,0,0,0,0,0,0,0,0,0,0,0,0,0,0,0,0,0,0,0,0,0,0,0,0,0,0,0,0,0,0,0,0,0,0,0,0,0,0,0,0,0,0,0,0,0,0,0,0,0,0,0,0,0,0,0,0,0,0,0,0,0],"id":8,"left_children":[1,3,5,7,9,11,13,15,17,19,21,23,25,27,29,31,33,35,37,39,41,43,45,47,49,51,53,55,57,59,61,63,65,67,69,71,73,75,77,79,81,83,85,87,89,91,93,95,97,99,101,103,105,107,109,111,113,115,117,119,121,123,125,-1,-1,-1,-1,-1,-1,-1,-1,-1,-1,-1,-1,-1,-1,-1,-1,-1,-1,-1,-1,-1,-1,-1,-1,-1,-1,-1,-1,-1,-1,-1,-1,-1,-1,-1,-1,-1,-1,-1,-1,-1,-1,-1,-1,-1,-1,-1,-1,-1,-1,-1,-1,-1,-1,-1,-1,-1,-1,-1,-1,-1,-1,-1,-1],"loss_changes":[7.2672676E3,3.8929917E3,7.616821E2,2.1889062E3,4.9874548E2,4.6530798E2,2.3556201E2,1.3504976E3,4.2543076E2,3.2122778E2,1.3892712E2,1.754541E2,1.8292749E2,1.26051025E2,1.2953125E2,9.7686035E2,1.5955547E2,1.6089078E2,2.7445764E2,2.7460385E2,5.0563812E1,5.4054688E1,5.3429287E1,1.0288422E2,8.207445E1,1.5510828E2,6.751416E1,2.8748001E1,4.8244873E1,9.3725464E1,6.667529E1,3.6084714E2,6.913428E2,5.5714447E1,1.190918E2,7.247757E1,1.0870389E2,1.4646997E2,9.668944E1,7.357138E1,1.8318732E2,1.3785889E1,2.0499805E1,4.7773804E1,1.13519125E1,3.7215363E1,4.171723E1,6.1247368E1,6.1530106E1,3.221895E1,8.7867355E1,4.0648647E1,1.03822266E2,5.4801086E1,4.0661682E1,2.1939518E1,8.884964E0,4.7314697E1,1.7360474E1,6.290338E1,6.484473E1,5.7103333E1,5.837683E1,0E0,0E0,0E0,0E0,0E0,0E0,0E0,0E0,0E0,0E0,0E0,0E0,0E0,0E0,0E0,0E0,0E0,0E0,0E0,0E0,0E0,0E0,0E0,0E0,0E0,0E0,0E0,0E0,0E0,0E0,0E0,0E0,0E0,0E0,0E0,0E0,0E0,0E0,0E0,0E0,0E0,0E0,0E0,0E0,0E0,0E0,0E0,0E0,0E0,0E0,0E0,0E0,0E0,0E0,0E0,0E0,0E0,0E0,0E0,0E0,0E0,0E0,0E0,0E0],"parents":[2147483647,0,0,1,1,2,2,3,3,4,4,5,5,6,6,7,7,8,8,9,9,10,10,11,11,12,12,13,13,14,14,15,15,16,16,17,17,18,18,19,19,20,20,21,21,22,22,23,23,24,24,25,25,26,26,27,27,28,28,29,29,30,30,31,31,32,32,33,33,34,34,35,35,36,36,37,37,38,38,39,39,40,40,41,41,42,42,43,43,44,44,45,45,46,46,47,47,48,48,49,49,50,50,51,51,52,52,53,53,54,54,55,55,56,56,57,57,58,58,59,59,60,60,61,61,62,62],"right_children":[2,4,6,8,10,12,14,16,18,20,22,24,26,28,30,32,34,36,38,40,42,44,46,48,50,52,54,56,58,60,62,64,66,68,70,72,74,76,78,80,82,84,86,88,90,92,94,96,98,100,102,104,106,108,110,112,114,116,118,120,122,124,126,-1,-1,-1,-1,-1,-1,-1,-1,-1,-1,-1,-1,-1,-1,-1,-1,-1,-1,-1,-1,-1,-1,-1,-1,-1,-1,-1,-1,-1,-1,-1,-1,-1,-1,-1,-1,-1,-1,-1,-1,-1,-1,-1,-1,-1,-1,-1,-1,-1,-1,-1,-1,-1,-1,-1,-1,-1,-1,-1,-1,-1,-1,-1,-1],"split_conditions":[1.24504484E-1,2.2837988E-1,2.2392208E-2,1.08225554E-1,2.871535E-1,3.87401E-1,-2.5382993E-1,3.5394487E-1,-2.3670861E-1,1.6182431E0,1.8859625E-1,-3.3867285E-2,2.2635639E-1,-7.381727E-1,-5.5230805E-3,-9.334218E-2,-2.2519855E-1,4.5409516E-1,2.2677125E-1,-1.7379391E-1,5.5398226E-2,-1.0518165E-1,-1.7903072E-1,1.626251E-3,-1.9322511E0,-4.9086115E-1,1.0744133E-1,2.5514543E-1,7.7417433E-1,-6.9755055E-2,-7.186666E-2,-6.0683925E-2,1.7763929E-3,-8.156256E-2,6.314242E-1,-1.8443882E-1,3.6658864E-2,1.3329282E0,4.5459932E-1,-3.4850708E-1,-4.4090828E-1,-6.3034254E-1,1.21774346E-1,3.2365885E-1,9.4938874E-2,-2.6074404E-1,1.5878758E-1,-2.1744925E-1,2.152516E-1,-1.3621686E-1,-8.1044954E-1,-9.739677E-2,-1.9025352E0,4.9026992E-2,2.6209903E-1,-5.723047E-1,-2.3610687E-1,2.504272E-1,4.8692595E-2,-1.3064563E-1,1.1965721E-1,5.5630486E-2,5.459107E-1,2.1801526E-3,-3.1265747E-2,-5.4708797E-2,-2.067624E-2,4.9469184E-2,1.6645808E-2,-2.130168E-2,1.0762565E-2,1.7210241E-2,-1.4783205E-2,-1.3598477E-2,-6.0228314E-2,1.6443131E-2,5.234774E-2,-1.6605107E-2,6.181558E-2,7.867901E-2,2.306934E-2,3.4274515E-2,-8.780489E-3,7.828501E-2,5.5280615E-2,1.6873438E-2,6.423358E-2,6.808039E-2,4.2532112E-2,5.9079737E-3,-1.0183722E-1,1.5120345E-2,-4.8539486E-2,2.2138381E-2,7.3439434E-2,-3.5592254E-2,1.2606713E-2,-1.9932149E-2,-7.569385E-2,-3.28513E-2,7.477658E-2,-1.3462685E-1,1.3735856E-2,9.425058E-3,-4.5223784E-2,7.39904E-2,2.4385205E-2,2.8907439E-2,5.050301E-2,4.3989297E-2,7.301005E-2,1.09588385E-1,1.1272488E-2,1.2654875E-1,5.4418456E-2,5.631271E-2,8.297809E-2,8.806538E-2,6.486094E-2,5.454252E-2,2.0359395E-2,-6.6920035E-3,3.3444405E-2,2.5963673E-2,4.9066033E-2,5.994993E-2,1.1415699E-2],"split_indices":[98,96,96,82,93,98,90,89,93,96,48,82,92,87,48,67,44,92,48,48,48,49,84,65,49,48,10,15,80,70,97,44,98,23,89,79,75,93,3,1,63,52,40,90,48,54,36,54,87,39,15,79,49,33,48,37,37,36,44,52,39,33,90,0,0,0,0,0,0,0,0,0,0,0,0,0,0,0,0,0,0,0,0,0,0,0,0,0,0,0,0,0,0,0,0,0,0,0,0,0,0,0,0,0,0,0,0,0,0,0,0,0,0,0,0,0,0,0,0,0,0,0,0,0,0,0,0],"split_type":[0,0,0,0,0,0,0,0,0,0,0,0,0,0,0,0,0,0,0,0,0,0,0,0,0,0,0,0,0,0,0,0,0,0,0,0,0,0,0,0,0,0,0,0,0,0,0,0,0,0,0,0,0,0,0,0,0,0,0,0,0,0,0,0,0,0,0,0,0,0,0,0,0,0,0,0,0,0,0,0,0,0,0,0,0,0,0,0,0,0,0,0,0,0,0,0,0,0,0,0,0,0,0,0,0,0,0,0,0,0,0,0,0,0,0,0,0,0,0,0,0,0,0,0,0,0,0],"sum_hessian":[1.4949739E5,1.0031118E5,4.9186215E4,7.930816E4,2.1003023E4,2.9627436E4,1.9558781E4,5.972212E4,1.9586033E4,1.5830947E4,5.1720757E3,1.2000012E4,1.7627424E4,7.963905E3,1.1594876E4,5.2773867E4,6.948251E3,5.871803E3,1.371423E4,1.425775E4,1.5731982E3,3.9178157E3,1.2542599E3,4.219129E3,7.7808833E3,1.0847618E4,6.7798057E3,7.7934607E2,7.1845586E3,3.9854858E3,7.6093906E3,1.3182365E4,3.9591504E4,2.3006218E3,4.647629E3,3.7926714E3,2.0791318E3,1.0509577E4,3.204653E3,6.097321E3,8.1604287E3,1.1017063E3,4.7149188E2,3.7788965E3,1.3891916E2,3.8021054E2,8.740493E2,2.09263E3,2.1264988E3,3.2033487E2,7.4605483E3,5.948452E2,1.0252772E4,4.8079307E3,1.9718751E3,6.859907E2,9.335531E1,5.694683E3,1.4898754E3,2.1566394E3,1.8288463E3,4.2939478E3,3.3154429E3,5.630281E3,7.5520845E3,3.226557E4,7.3259326E3,7.8548413E2,1.5151378E3,2.1867764E3,2.4608528E3,9.40939E2,2.8517324E3,8.3783954E2,1.2412924E3,9.214169E3,1.2954087E3,3.0398286E3,1.6482443E2,2.4721646E2,5.8501045E3,1.1493262E3,7.0111025E3,6.357767E2,4.659296E2,3.4795883E2,1.2353306E2,2.7752815E3,1.003615E3,1.2934709E2,9.572075E0,2.2768129E2,1.5252925E2,6.663881E2,2.076612E2,3.083363E2,1.7842937E3,1.9064415E3,2.2005731E2,3.0190815E1,2.9014407E2,3.9142387E1,7.421406E3,2.0975276E2,3.8509247E2,4.4019342E2,9.812579E3,2.7458462E3,2.0620842E3,8.738059E2,1.0980692E3,2.252412E1,6.634666E2,2.3298574E1,7.005674E1,4.919418E3,7.7526544E2,9.8490936E2,5.0496594E2,1.0606731E3,1.0959663E3,1.2322018E3,5.966445E2,2.2271504E3,2.0667976E3,3.0450925E3,2.7035025E2],"tree_param":{"num_deleted":"0","num_feature":"100","num_nodes":"127","size_leaf_vector":"1"}},{"base_weights":[1.7523407E-3,-1.3760374E-1,2.8842938E-1,8.6614884E-2,-3.4922686E-1,1.833814E-1,4.2204478E-1,2.939964E-1,-2.0254059E-2,-1.6374119E-1,-4.3819648E-1,1.03374615E-1,3.6215407E-1,5.5229884E-1,3.3606994E-1,4.166709E-1,1.5627721E-1,5.4591488E-2,-1.9838575E-1,-2.7282548E-1,8.0769375E-2,-5.290522E-1,-2.203197E-1,2.9929918E-1,4.270548E-2,1.2876429E-1,4.365422E-1,2.705198E-1,6.038642E-1,-6.2963374E-2,3.610468E-1,5.6125915E-1,2.6476145E-1,-2.3847839E-1,2.2239953E-1,-4.8457958E-2,1.4886005E-1,-3.9269412E-1,-7.7518276E-3,1.23882115E-1,-3.2853204E-1,2.0050289E-1,-1.5104154E-1,-4.4532797E-1,-7.9620445E-1,-3.3361745E-1,-3.9189644E-2,7.685626E-1,2.544155E-1,-7.867909E-2,1.5937082E-1,2.4814463E-1,-1.0264544E-1,6.174235E-1,3.8508603E-1,-1.9233616E-1,3.1699872E-1,4.9133623E-1,7.206767E-1,5.746066E-1,-1.4995988E-1,5.207755E-1,3.0302343E-1,7.72876E-2,4.8383646E-2,-3.1369116E-2,2.9516099E-2,-7.015666E-2,-4.1073533E-3,5.4660268E-2,1.7422492E-2,-8.28587E-4,-5.11671E-2,3.7782315E-2,9.878985E-3,1.0501055E-1,-4.1269973E-2,7.0443384E-2,-3.7219264E-3,3.4710363E-2,-1.5978841E-2,-3.746683E-2,8.394378E-3,1.0882491E-2,4.3313514E-2,-4.618908E-2,5.705028E-3,-1.2567437E-2,-5.04269E-2,-8.735501E-2,-5.031469E-2,-4.7798242E-2,-1.8564953E-2,-1.2389616E-2,2.6377855E-2,8.941355E-2,-2.4247307E-3,1.4214185E-2,4.3753088E-2,9.601884E-3,-2.0573182E-2,9.464707E-3,3.653985E-2,1.4875804E-2,6.1127942E-2,-2.1955144E-2,3.163482E-2,6.44364E-2,-3.7844107E-2,3.9439555E-2,-1.508817E-1,-3.4487113E-2,6.915003E-2,5.2809805E-2,2.370457E-2,7.63809E-2,4.086953E-2,6.6095404E-2,8.4627055E-2,6.482642E-2,-1.2370067E-1,3.746033E-2,-2.4960449E-2,8.554944E-2,4.8824277E-2,2.5446272E-2,5.1234413E-2],"categories":[],"categories_nodes":[],"categories_segments":[],"categories_sizes":[],"default_left":[0,0,0,0,0,0,0,0,0,0,0,0,0,0,0,0,0,0,0,0,0,0,0,0,0,0,0,0,0,0,0,0,0,0,0,0,0,0,0,0,0,0,0,0,0,0,0,0,0,0,0,0,0,0,0,0,0,0,0,0,0,0,0,0,0,0,0,0,0,0,0,0,0,0,0,0,0,0,0,0,0,0,0,0,0,0,0,0,0,0,0,0,0,0,0,0,0,0,0,0,0,0,0,0,0,0,0,0,0,0,0,0,0,0,0,0,0,0,0,0,0,0,0,0,0,0,0],"id":9,"left_children":[1,3,5,7,9,11,13,15,17,19,21,23,25,27,29,31,33,35,37,39,41,43,45,47,49,51,53,55,57,59,61,63,65,67,69,71,73,75,77,79,81,83,85,87,89,91,93,95,97,99,101,103,105,107,109,111,113,115,117,119,121,123,125,-1,-1,-1,-1,-1,-1,-1,-1,-1,-1,-1,-1,-1,-1,-1,-1,-1,-1,-1,-1,-1,-1,-1,-1,-1,-1,-1,-1,-1,-1,-1,-1,-1,-1,-1,-1,-1,-1,-1,-1,-1,-1,-1,-1,-1,-1,-1,-1,-1,-1,-1,-1,-1,-1,-1,-1,-1,-1,-1,-1,-1,-1,-1,-1],"loss_changes":[5.9357725E3,4.744009E3,6.8208057E2,1.0759037E3,8.4872656E2,3.8915808E2,2.3936084E2,2.7885217E2,4.2714404E2,4.4478036E2,6.8797705E2,2.2344745E2,1.459939E2,1.2339502E2,1.2847351E2,1.9162048E2,2.0310922E2,2.1915833E2,3.5110623E2,2.5486542E2,1.4283264E2,5.48313E2,2.0994766E2,9.342139E1,2.0330774E2,5.623369E1,5.9131836E1,2.8399002E1,9.412207E1,4.224307E1,1.1225488E2,7.290112E1,7.49957E1,1.020443E2,1.0398099E2,2.0056616E2,1.3503418E2,1.359245E2,1.0045882E2,9.000665E1,1.9245203E2,7.231796E1,1.1341444E2,3.5186475E2,1.3220557E2,1.3436053E2,1.0109929E2,3.8601578E1,8.33714E1,1.5619371E2,9.7582535E1,4.836087E1,3.402092E1,3.810083E1,8.819891E1,1.6527866E1,2.008496E1,8.2191284E1,2.5876587E1,1.3006668E1,3.509244E1,3.476129E1,9.033118E1,0E0,0E0,0E0,0E0,0E0,0E0,0E0,0E0,0E0,0E0,0E0,0E0,0E0,0E0,0E0,0E0,0E0,0E0,0E0,0E0,0E0,0E0,0E0,0E0,0E0,0E0,0E0,0E0,0E0,0E0,0E0,0E0,0E0,0E0,0E0,0E0,0E0,0E0,0E0,0E0,0E0,0E0,0E0,0E0,0E0,0E0,0E0,0E0,0E0,0E0,0E0,0E0,0E0,0E0,0E0,0E0,0E0,0E0,0E0,0E0,0E0,0E0,0E0,0E0],"parents":[2147483647,0,0,1,1,2,2,3,3,4,4,5,5,6,6,7,7,8,8,9,9,10,10,11,11,12,12,13,13,14,14,15,15,16,16,17,17,18,18,19,19,20,20,21,21,22,22,23,23,24,24,25,25,26,26,27,27,28,28,29,29,30,30,31,31,32,32,33,33,34,34,35,35,36,36,37,37,38,38,39,39,40,40,41,41,42,42,43,43,44,44,45,45,46,46,47,47,48,48,49,49,50,50,51,51,52,52,53,53,54,54,55,55,56,56,57,57,58,58,59,59,60,60,61,61,62,62],"right_children":[2,4,6,8,10,12,14,16,18,20,22,24,26,28,30,32,34,36,38,40,42,44,46,48,50,52,54,56,58,60,62,64,66,68,70,72,74,76,78,80,82,84,86,88,90,92,94,96,98,100,102,104,106,108,110,112,114,116,118,120,122,124,126,-1,-1,-1,-1,-1,-1,-1,-1,-1,-1,-1,-1,-1,-1,-1,-1,-1,-1,-1,-1,-1,-1,-1,-1,-1,-1,-1,-1,-1,-1,-1,-1,-1,-1,-1,-1,-1,-1,-1,-1,-1,-1,-1,-1,-1,-1,-1,-1,-1,-1,-1,-1,-1,-1,-1,-1,-1,-1,-1,-1,-1,-1,-1,-1],"split_conditions":[1.24504484E-1,-8.8088393E-1,-2.5011856E-2,-1.8961396E0,-4.8618678E-2,7.7863884E-1,-1.9018732E-1,-5.5428788E-2,4.9971793E-2,2.8148948E-3,-3.4006577E-2,-2.0308219E-1,-7.667453E-4,-6.155651E-1,-4.9086115E-1,-2.5104702E0,-1.5981377E0,3.4796838E-2,-4.3431658E-1,-5.545848E-1,4.221511E-2,-2.1469614E-1,3.4466065E-2,-3.364111E-1,7.121912E-2,7.934667E-2,-2.2157793E-1,-3.4816188E-1,1.5061721E-1,-7.7038425E-1,-3.0691516E-1,-8.848474E-1,-1.0390351E0,-5.992107E-1,-7.7412844E-1,3.8713318E-1,-3.582222E-1,-1.0049796E0,-1.9322511E0,-4.745436E-2,3.8109835E-2,1.7674357E-2,2.4785481E-2,-2.150177E-1,-4.1169956E-1,3.8109835E-2,1.1202574E-1,1.4338192E-1,1.4351884E-1,-1.594817E-2,1.9812284E-1,1.6554803E-1,2.1113361E-1,5.155799E-1,7.1241486E-1,2.5514543E-1,-1.7630182E-1,-1.2749764E0,3.8715935E-1,-4.988078E-1,-2.3935924E-1,-3.0924243E-1,3.566093E-1,7.72876E-2,4.8383646E-2,-3.1369116E-2,2.9516099E-2,-7.015666E-2,-4.1073533E-3,5.4660268E-2,1.7422492E-2,-8.28587E-4,-5.11671E-2,3.7782315E-2,9.878985E-3,1.0501055E-1,-4.1269973E-2,7.0443384E-2,-3.7219264E-3,3.4710363E-2,-1.5978841E-2,-3.746683E-2,8.394378E-3,1.0882491E-2,4.3313514E-2,-4.618908E-2,5.705028E-3,-1.2567437E-2,-5.04269E-2,-8.735501E-2,-5.031469E-2,-4.7798242E-2,-1.8564953E-2,-1.2389616E-2,2.6377855E-2,8.941355E-2,-2.4247307E-3,1.4214185E-2,4.3753088E-2,9.601884E-3,-2.0573182E-2,9.464707E-3,3.653985E-2,1.4875804E-2,6.1127942E-2,-2.1955144E-2,3.163482E-2,6.44364E-2,-3.7844107E-2,3.9439555E-2,-1.508817E-1,-3.4487113E-2,6.915003E-2,5.2809805E-2,2.370457E-2,7.63809E-2,4.086953E-2,6.6095404E-2,8.4627055E-2,6.482642E-2,-1.2370067E-1,3.746033E-2,-2.4960449E-2,8.554944E-2,4.8824277E-2,2.5446272E-2,5.1234413E-2],"split_indices":[98,99,96,99,79,98,90,48,48,82,98,30,48,87,48,99,98,86,98,79,52,99,88,9,82,79,30,52,46,68,70,49,50,85,57,79,85,11,49,48,98,96,89,95,49,98,63,46,40,79,64,22,46,23,38,15,37,49,46,48,10,28,46,0,0,0,0,0,0,0,0,0,0,0,0,0,0,0,0,0,0,0,0,0,0,0,0,0,0,0,0,0,0,0,0,0,0,0,0,0,0,0,0,0,0,0,0,0,0,0,0,0,0,0,0,0,0,0,0,0,0,0,0,0,0,0,0],"split_type":[0,0,0,0,0,0,0,0,0,0,0,0,0,0,0,0,0,0,0,0,0,0,0,0,0,0,0,0,0,0,0,0,0,0,0,0,0,0,0,0,0,0,0,0,0,0,0,0,0,0,0,0,0,0,0,0,0,0,0,0,0,0,0,0,0,0,0,0,0,0,0,0,0,0,0,0,0,0,0,0,0,0,0,0,0,0,0,0,0,0,0,0,0,0,0,0,0,0,0,0,0,0,0,0,0,0,0,0,0,0,0,0,0,0,0,0,0,0,0,0,0,0,0,0,0,0,0],"sum_hessian":[1.4857733E5,9.997781E4,4.8599523E4,4.8544547E4,5.1433266E4,2.7209713E4,2.1389812E4,1.6508225E4,3.2036322E4,1.667394E4,3.4759324E4,1.8798383E4,8.41133E3,8.502651E3,1.288716E4,8.729937E3,7.778288E3,2.2558582E4,9.47774E3,1.1529936E4,5.144004E3,2.4529127E4,1.0230197E4,4.4437686E3,1.4354614E4,2.0336298E3,6.3777E3,1.3162491E3,7.1864023E3,7.5904443E2,1.2128116E4,4.471369E3,4.2585674E3,1.1155798E3,6.6627085E3,1.0777582E4,1.1781E4,4.6931104E3,4.78463E3,1.4195507E3,1.0110385E4,3.392082E3,1.751922E3,1.8678152E4,5.850974E3,6.2930327E3,3.9371646E3,3.8652164E2,4.0572468E3,7.0351797E3,7.319434E3,1.3415002E3,6.9212946E2,1.4100444E3,4.967656E3,1.1982684E2,1.1964224E3,3.6629805E3,3.5234219E3,9.04632E1,6.6858124E2,3.2295967E3,8.89852E3,1.1953035E3,3.276066E3,2.1216176E2,4.0464058E3,3.326556E2,7.829242E2,8.606181E2,5.8020903E3,9.918426E3,8.5915625E2,2.1128281E3,9.668172E3,6.347966E1,4.629631E3,1.891933E2,4.5954365E3,7.942939E2,6.252567E2,9.093365E3,1.01701984E3,2.4342405E3,9.5784155E2,7.0201965E2,1.0499023E3,2.9083723E3,1.5769781E4,4.6276377E3,1.2233365E3,3.1841677E3,3.1088647E3,3.07736E3,8.5980444E2,3.335612E2,5.2960464E1,2.5162395E3,1.5410074E3,2.9622793E3,4.0729004E3,5.570817E3,1.7486172E3,1.0543455E3,2.8715482E2,5.415142E2,1.5061522E2,1.3732478E3,3.6796696E1,4.9441445E3,2.351124E1,1.0271056E2,1.7116274E1,3.2712134E2,8.6930096E2,8.5051874E2,2.8124617E3,2.3921592E3,1.1312627E3,8.7545876E1,2.9173257E0,1.0628762E2,5.6229364E2,2.8385086E2,2.9457458E3,7.22467E3,1.6738494E3],"tree_param":{"num_deleted":"0","num_feature":"100","num_nodes":"127","size_leaf_vector":"1"}},{"base_weights":[1.0146325E-3,1.9718713E-1,-1.5940902E-1,3.1940258E-1,9.3858555E-2,-2.4901791E-1,1.1896633E-1,2.6267704E-1,5.2095085E-1,4.138864E-1,6.685949E-2,-3.326488E-1,2.020502E-3,3.4110285E-2,3.3858618E-1,3.627079E-1,1.6215606E-1,3.9788452E-1,6.6015375E-1,3.67767E-1,8.760639E-1,-3.658261E-2,1.2937067E-1,-4.2602584E-1,-1.769681E-1,-1.3810788E-1,1.4579526E-1,1.3024535E-2,4.5465767E-1,4.1097254E-1,-5.192886E-2,6.318514E-1,3.2803202E-1,3.947499E-1,1.14361934E-1,2.8344157E-1,5.3337854E-1,5.918937E-1,7.778794E-1,2.9763144E-1,5.367341E-1,-7.109131E-3,9.152424E-1,1.9944698E-2,-3.497513E-1,1.1359104E-1,6.1883575E-1,-2.1387726E-1,-5.092554E-1,-6.627678E-3,-2.6864117E-1,-2.9796222E-1,5.3911842E-2,2.2018453E-1,-1.7689204E-1,3.268316E-1,-1.4078646E-2,2.3159751E-1,7.6267076E-1,4.964379E-1,2.6205498E-1,1.6937587E-1,-3.9619854E-1,5.0889302E-2,7.766502E-2,3.0376056E-2,6.387976E-2,3.4635913E-2,7.722078E-2,5.476148E-2,8.829093E-3,2.1960527E-2,6.1819404E-2,4.0334802E-2,7.000879E-2,7.2618626E-2,5.134514E-2,7.916798E-2,-9.263727E-3,3.7725106E-2,1.114444E-2,4.2736597E-2,7.506304E-2,9.4994456E-2,-1.0814215E-1,7.492912E-2,1.0863395E-1,-6.320177E-3,2.6315337E-2,-8.711948E-3,-5.3256918E-2,8.966054E-3,4.028819E-2,4.4149805E-2,7.4207254E-2,-2.6001772E-2,9.321914E-3,-5.699673E-2,-2.0626457E-2,-7.5607235E-3,2.315521E-2,2.6327075E-4,-3.678006E-2,-5.5526394E-2,-1.4016694E-2,3.1708103E-2,-4.7185924E-3,4.1242115E-2,7.814662E-3,2.5527084E-2,-2.9489696E-2,5.0186165E-2,6.342263E-3,-3.1664006E-3,4.5271005E-2,7.664489E-2,1.5815365E-3,8.0062166E-2,-9.9012226E-2,4.1036036E-2,6.5771304E-2,1.891859E-2,6.726375E-2,-2.69319E-4,4.260954E-2,-1.6113712E-2,-6.262136E-2],"categories":[],"categories_nodes":[],"categories_segments":[],"categories_sizes":[],"default_left":[0,0,0,0,0,0,0,0,0,0,0,0,0,0,0,0,0,0,0,0,0,0,0,0,0,0,0,0,0,0,0,0,0,0,0,0,0,0,0,0,0,0,0,0,0,0,0,0,0,0,0,0,0,0,0,0,0,0,0,0,0,0,0,0,0,0,0,0,0,0,0,0,0,0,0,0,0,0,0,0,0,0,0,0,0,0,0,0,0,0,0,0,0,0,0,0,0,0,0,0,0,0,0,0,0,0,0,0,0,0,0,0,0,0,0,0,0,0,0,0,0,0,0,0,0,0,0],"id":10,"left_children":[1,3,5,7,9,11,13,15,17,19,21,23,25,27,29,31,33,35,37,39,41,43,45,47,49,51,53,55,57,59,61,63,65,67,69,71,73,75,77,79,81,83,85,87,89,91,93,95,97,99,101,103,105,107,109,111,113,115,117,119,121,123,125,-1,-1,-1,-1,-1,-1,-1,-1,-1,-1,-1,-1,-1,-1,-1,-1,-1,-1,-1,-1,-1,-1,-1,-1,-1,-1,-1,-1,-1,-1,-1,-1,-1,-1,-1,-1,-1,-1,-1,-1,-1,-1,-1,-1,-1,-1,-1,-1,-1,-1,-1,-1,-1,-1,-1,-1,-1,-1,-1,-1,-1,-1,-1,-1],"loss_changes":[4.6380684E3,8.3724634E2,2.0224622E3,3.4713013E2,3.104073E2,1.287666E3,3.6793378E2,2.383003E2,1.1400525E2,5.925531E1,2.142591E2,6.6872266E2,3.088248E2,1.2628888E2,1.555622E2,1.1067285E2,1.3141312E2,5.4784607E1,2.46792E1,2.9978333E1,8.756531E0,2.2096521E2,1.594476E2,5.0765527E2,2.693767E2,2.3829549E2,1.8165373E2,1.153634E2,4.654106E1,5.8950745E1,6.569002E1,2.3727722E1,7.920691E1,3.6543182E1,1.10770996E2,4.0951813E1,3.4858063E1,2.0531067E1,1.3828491E1,2.6632996E1,1.7101227E1,1.309171E1,6.0614624E0,2.1384677E2,9.158945E1,1.384874E2,1.3764511E1,1.14864075E2,3.7980322E2,9.9196686E1,3.0167517E2,1.7192163E2,9.386496E1,1.67863E2,7.2387634E1,4.9685493E1,1.0250762E2,4.566851E1,1.976178E1,4.0658203E1,5.0578934E1,2.3191998E1,1.8137657E1,0E0,0E0,0E0,0E0,0E0,0E0,0E0,0E0,0E0,0E0,0E0,0E0,0E0,0E0,0E0,0E0,0E0,0E0,0E0,0E0,0E0,0E0,0E0,0E0,0E0,0E0,0E0,0E0,0E0,0E0,0E0,0E0,0E0,0E0,0E0,0E0,0E0,0E0,0E0,0E0,0E0,0E0,0E0,0E0,0E0,0E0,0E0,0E0,0E0,0E0,0E0,0E0,0E0,0E0,0E0,0E0,0E0,0E0,0E0,0E0,0E0,0E0,0E0,0E0],"parents":[2147483647,0,0,1,1,2,2,3,3,4,4,5,5,6,6,7,7,8,8,9,9,10,10,11,11,12,12,13,13,14,14,15,15,16,16,17,17,18,18,19,19,20,20,21,21,22,22,23,23,24,24,25,25,26,26,27,27,28,28,29,29,30,30,31,31,32,32,33,33,34,34,35,35,36,36,37,37,38,38,39,39,40,40,41,41,42,42,43,43,44,44,45,45,46,46,47,47,48,48,49,49,50,50,51,51,52,52,53,53,54,54,55,55,56,56,57,57,58,58,59,59,60,60,61,61,62,62],"right_children":[2,4,6,8,10,12,14,16,18,20,22,24,26,28,30,32,34,36,38,40,42,44,46,48,50,52,54,56,58,60,62,64,66,68,70,72,74,76,78,80,82,84,86,88,90,92,94,96,98,100,102,104,106,108,110,112,114,116,118,120,122,124,126,-1,-1,-1,-1,-1,-1,-1,-1,-1,-1,-1,-1,-1,-1,-1,-1,-1,-1,-1,-1,-1,-1,-1,-1,-1,-1,-1,-1,-1,-1,-1,-1,-1,-1,-1,-1,-1,-1,-1,-1,-1,-1,-1,-1,-1,-1,-1,-1,-1,-1,-1,-1,-1,-1,-1,-1,-1,-1,-1,-1,-1,-1,-1,-1],"split_conditions":[-1.0002451E0,-1.7476007E0,1.08225554E-1,1.6182431E0,-7.586858E-1,1.747239E-1,3.971278E-1,-5.1030595E-2,1.9794941E-1,3.8268408E-1,-7.5768955E-2,2.9360257E-2,-1.5881541E-1,4.2483687E-1,2.317547E-1,-1.0042893E0,-8.317404E-1,2.9456705E-2,3.8715935E-1,3.1692895E-1,-3.780832E-1,3.763395E-1,7.589107E-1,-1.07597426E-1,-5.099409E-2,3.4766823E-2,4.185015E-1,-3.5341167E-1,1.2702669E-1,5.1533885E-2,-7.2392344E-2,2.9399544E-2,2.961272E-1,3.0392775E-1,-7.178905E-1,2.0712318E-1,1.0544963E-1,-5.7291828E-2,8.9381176E-1,4.6680026E-2,1.5211362E-1,-8.721389E-2,8.3954275E-2,2.6458114E-1,5.5050816E-2,3.015673E-1,-2.0394774E-2,2.56515E-1,5.335726E-2,9.7666E-2,-2.505316E-1,-1.0898099E-1,-4.2664552E-1,-7.463438E-2,-6.298168E-2,-2.5246242E-2,4.0515405E-1,-1.9208501E-1,2.384072E-1,1.291408E-1,2.6003367E-1,5.2647997E-2,-9.8610744E-2,5.0889302E-2,7.766502E-2,3.0376056E-2,6.387976E-2,3.4635913E-2,7.722078E-2,5.476148E-2,8.829093E-3,2.1960527E-2,6.1819404E-2,4.0334802E-2,7.000879E-2,7.2618626E-2,5.134514E-2,7.916798E-2,-9.263727E-3,3.7725106E-2,1.114444E-2,4.2736597E-2,7.506304E-2,9.4994456E-2,-1.0814215E-1,7.492912E-2,1.0863395E-1,-6.320177E-3,2.6315337E-2,-8.711948E-3,-5.3256918E-2,8.966054E-3,4.028819E-2,4.4149805E-2,7.4207254E-2,-2.6001772E-2,9.321914E-3,-5.699673E-2,-2.0626457E-2,-7.5607235E-3,2.315521E-2,2.6327075E-4,-3.678006E-2,-5.5526394E-2,-1.4016694E-2,3.1708103E-2,-4.7185924E-3,4.1242115E-2,7.814662E-3,2.5527084E-2,-2.9489696E-2,5.0186165E-2,6.342263E-3,-3.1664006E-3,4.5271005E-2,7.664489E-2,1.5815365E-3,8.0062166E-2,-9.9012226E-2,4.1036036E-2,6.5771304E-2,1.891859E-2,6.726375E-2,-2.69319E-4,4.260954E-2,-1.6113712E-2,-6.262136E-2],"split_indices":[99,99,82,96,81,89,82,79,46,54,86,71,96,26,90,86,81,43,46,73,15,79,62,97,87,73,90,73,38,44,52,23,10,36,48,36,53,24,48,31,38,42,11,71,59,10,22,50,86,57,44,86,46,62,56,23,3,19,19,37,15,1,45,0,0,0,0,0,0,0,0,0,0,0,0,0,0,0,0,0,0,0,0,0,0,0,0,0,0,0,0,0,0,0,0,0,0,0,0,0,0,0,0,0,0,0,0,0,0,0,0,0,0,0,0,0,0,0,0,0,0,0,0,0,0,0,0],"split_type":[0,0,0,0,0,0,0,0,0,0,0,0,0,0,0,0,0,0,0,0,0,0,0,0,0,0,0,0,0,0,0,0,0,0,0,0,0,0,0,0,0,0,0,0,0,0,0,0,0,0,0,0,0,0,0,0,0,0,0,0,0,0,0,0,0,0,0,0,0,0,0,0,0,0,0,0,0,0,0,0,0,0,0,0,0,0,0,0,0,0,0,0,0,0,0,0,0,0,0,0,0,0,0,0,0,0,0,0,0,0,0,0,0,0,0,0,0,0,0,0,0,0,0,0,0,0,0],"sum_hessian":[1.4737533E5,6.630035E4,8.107497E4,3.037325E4,3.5927105E4,6.133225E4,1.9742719E4,2.3704072E4,6.669177E3,2.7940518E3,3.313305E4,4.6005617E4,1.5326633E4,1.4241346E4,5.5013726E3,1.1879695E4,1.1824378E4,3.5418015E3,3.1273752E3,2.5421714E3,2.518803E2,1.2480694E4,2.0652357E4,2.8756053E4,1.7249566E4,7.761762E3,7.564871E3,1.3562375E4,6.789705E2,4.6410493E3,8.60323E2,1.3539019E3,1.0525793E4,2.0143116E3,9.810065E3,1.9217323E3,1.6200692E3,1.9833884E3,1.1439868E3,1.7984323E3,7.437393E2,1.0733824E1,2.4114647E2,1.0573163E4,1.9075317E3,2.0008543E4,6.4381433E2,8.103684E3,2.0652367E4,6.0356396E3,1.1213927E4,4.2353374E3,3.5264243E3,6.147908E3,1.4169631E3,1.077362E3,1.2485013E4,3.9480695E2,2.8416354E2,2.9472546E3,1.6937948E3,5.2399475E2,3.3632825E2,7.346101E2,6.192918E2,9.765095E3,7.6069836E2,1.7871174E3,2.2719421E2,5.556793E2,9.254387E3,1.6153466E3,3.063858E2,9.1208075E2,7.079885E2,7.2829504E2,1.2550934E3,1.1262234E3,1.7763466E1,1.2590118E3,5.3942035E2,4.9409808E2,2.4964122E2,5.7379355E0,4.9958887E0,1.2514483E2,1.1600164E2,7.879958E3,2.6932043E3,7.834798E2,1.1240519E3,1.8481076E4,1.5274673E3,2.6584546E2,3.7796887E2,7.0452993E3,1.058385E3,1.7204195E4,3.4481729E3,4.6807295E3,1.3549098E3,3.0020598E3,8.211867E3,1.6090669E3,2.6262708E3,9.7812244E2,2.548302E3,2.6115234E3,3.5363848E3,3.0367346E2,1.1132897E3,6.4672253E2,4.306396E2,1.2032639E4,4.5237427E2,1.1276025E2,2.820467E2,2.7867307E2,5.490501E0,1.923935E3,1.0233197E3,1.4397352E3,2.5405956E2,3.143127E2,2.0968202E2,1.6718048E2,1.6914775E2],"tree_param":{"num_deleted":"0","num_feature":"100","num_nodes":"127","size_leaf_vector":"1"}},{"base_weights":[8.938539E-4,-9.86192E-2,2.993528E-1,1.043316E-1,-2.3542483E-1,2.546171E-1,4.9120343E-1,3.389017E-1,4.6935853E-2,-3.1088912E-1,-2.2032492E-2,1.8753962E-1,3.7033835E-1,3.8897222E-1,7.0121354E-1,4.932211E-1,1.8676291E-1,9.393761E-2,-1.6105667E-1,-2.2502138E-1,-5.4889965E-1,-9.718022E-2,1.5660824E-1,-2.2981139E-1,2.1234602E-1,2.8906864E-1,5.1875395E-1,2.520873E-1,4.7078708E-1,7.616932E-1,4.932238E-1,3.4951133E-1,6.181993E-1,3.860646E-2,3.4049875E-1,-8.60406E-3,1.8175106E-1,-3.8675708E-1,4.151871E-2,-1.3912016E-1,-4.2719507E-1,5.8666664E-1,-5.6689155E-1,1.0839156E0,-1.0904594E-1,2.903434E-1,5.4033626E-2,-3.105732E-1,4.333158E-1,1.6597743E-1,4.0722573E-1,2.5508368E-1,6.1481947E-1,4.4156376E-1,6.6573143E-1,1.8204816E-1,6.140573E-1,3.455976E-1,5.8373463E-1,1.7818628E-2,7.8117174E-1,1.1845464E0,3.898129E-1,2.1514317E-2,5.382557E-2,4.965895E-2,7.4907176E-2,-4.5378446E-3,3.396633E-2,2.2023547E-2,5.820344E-2,3.153538E-2,-5.6865695E-3,1.5125624E-2,4.9627118E-2,2.631483E-2,-4.469427E-2,-4.861663E-3,3.699001E-2,-1.3762878E-4,-2.4716213E-2,-6.456997E-2,-2.7468834E-2,1.12765245E-1,-4.897125E-4,-5.9918463E-2,-4.7465316E-3,1.4669451E-1,8.197811E-2,-1.3653575E-2,2.8961767E-2,3.143573E-2,-6.560244E-2,9.5180934E-4,3.767677E-2,-1.5741478E-3,-5.0002415E-2,5.341836E-4,9.830912E-2,3.8312223E-2,1.2595519E-2,3.592572E-2,7.980731E-2,2.1332337E-2,4.8454884E-2,7.147404E-2,2.3757646E-2,-4.2009946E-2,4.6050027E-2,7.029275E-2,3.5116654E-2,1.06482655E-2,5.6484193E-2,-2.8969264E-2,6.889227E-2,1.8494928E-2,5.1543552E-2,-2.9925773E-2,6.0166337E-2,5.930531E-2,-6.6430174E-2,7.885087E-2,-7.5490594E-2,1.23191E-1,6.289293E-2,2.0652374E-2,8.261809E-2],"categories":[],"categories_nodes":[],"categories_segments":[],"categories_sizes":[],"default_left":[0,0,0,0,0,0,0,0,0,0,0,0,0,0,0,0,0,0,0,0,0,0,0,0,0,0,0,0,0,0,0,0,0,0,0,0,0,0,0,0,0,0,0,0,0,0,0,0,0,0,0,0,0,0,0,0,0,0,0,0,0,0,0,0,0,0,0,0,0,0,0,0,0,0,0,0,0,0,0,0,0,0,0,0,0,0,0,0,0,0,0,0,0,0,0,0,0,0,0,0,0,0,0,0,0,0,0,0,0,0,0,0,0,0,0,0,0,0,0,0,0,0,0,0,0,0,0],"id":11,"left_children":[1,3,5,7,9,11,13,15,17,19,21,23,25,27,29,31,33,35,37,39,41,43,45,47,49,51,53,55,57,59,61,63,65,67,69,71,73,75,77,79,81,83,85,87,89,91,93,95,97,99,101,103,105,107,109,111,113,115,117,119,121,123,125,-1,-1,-1,-1,-1,-1,-1,-1,-1,-1,-1,-1,-1,-1,-1,-1,-1,-1,-1,-1,-1,-1,-1,-1,-1,-1,-1,-1,-1,-1,-1,-1,-1,-1,-1,-1,-1,-1,-1,-1,-1,-1,-1,-1,-1,-1,-1,-1,-1,-1,-1,-1,-1,-1,-1,-1,-1,-1,-1,-1,-1,-1,-1,-1],"loss_changes":[4.35228E3,3.0512832E3,3.1435767E2,5.957555E2,1.0571265E3,2.3059119E2,1.4845801E2,2.0414166E2,3.4758655E2,9.910088E2,2.3026126E2,1.9482483E2,1.3135876E2,5.2087708E1,2.8140015E1,7.73363E1,9.9796265E1,2.6113977E2,2.996626E2,6.189027E2,2.6300757E2,1.693204E2,6.9656265E1,5.6687836E1,1.6040399E2,7.786273E1,4.3459595E1,4.415406E1,4.1038025E1,2.5406372E1,3.624949E1,5.0879257E1,3.6363464E1,5.6465946E1,6.2336243E1,2.0920117E2,1.4976245E2,1.2137546E2,1.0227338E2,3.722627E2,3.5395386E2,6.433604E1,2.1227295E2,1.0955978E1,1.3104724E2,5.0302887E1,4.130863E1,5.2603912E1,2.7067598E1,1.2463611E2,6.3693176E1,6.106549E1,2.4899902E1,4.150067E1,1.5268127E1,4.229883E1,1.9323898E1,3.7714203E1,2.442987E1,1.836104E1,1.9862549E1,9.7071075E-1,3.5675934E1,0E0,0E0,0E0,0E0,0E0,0E0,0E0,0E0,0E0,0E0,0E0,0E0,0E0,0E0,0E0,0E0,0E0,0E0,0E0,0E0,0E0,0E0,0E0,0E0,0E0,0E0,0E0,0E0,0E0,0E0,0E0,0E0,0E0,0E0,0E0,0E0,0E0,0E0,0E0,0E0,0E0,0E0,0E0,0E0,0E0,0E0,0E0,0E0,0E0,0E0,0E0,0E0,0E0,0E0,0E0,0E0,0E0,0E0,0E0,0E0,0E0,0E0,0E0,0E0],"parents":[2147483647,0,0,1,1,2,2,3,3,4,4,5,5,6,6,7,7,8,8,9,9,10,10,11,11,12,12,13,13,14,14,15,15,16,16,17,17,18,18,19,19,20,20,21,21,22,22,23,23,24,24,25,25,26,26,27,27,28,28,29,29,30,30,31,31,32,32,33,33,34,34,35,35,36,36,37,37,38,38,39,39,40,40,41,41,42,42,43,43,44,44,45,45,46,46,47,47,48,48,49,49,50,50,51,51,52,52,53,53,54,54,55,55,56,56,57,57,58,58,59,59,60,60,61,61,62,62],"right_children":[2,4,6,8,10,12,14,16,18,20,22,24,26,28,30,32,34,36,38,40,42,44,46,48,50,52,54,56,58,60,62,64,66,68,70,72,74,76,78,80,82,84,86,88,90,92,94,96,98,100,102,104,106,108,110,112,114,116,118,120,122,124,126,-1,-1,-1,-1,-1,-1,-1,-1,-1,-1,-1,-1,-1,-1,-1,-1,-1,-1,-1,-1,-1,-1,-1,-1,-1,-1,-1,-1,-1,-1,-1,-1,-1,-1,-1,-1,-1,-1,-1,-1,-1,-1,-1,-1,-1,-1,-1,-1,-1,-1,-1,-1,-1,-1,-1,-1,-1,-1,-1,-1,-1,-1,-1,-1],"split_conditions":[2.7884772E-1,-1.0434142E0,1.2486203E0,-2.5386338E0,1.6685167E-2,1.3311374E-1,4.1426298E-1,-5.9852876E-2,2.741694E-1,-2.7707982E-1,-2.1582698E-2,-4.9086115E-1,1.2887488E-1,-5.5230805E-3,1.8619253E-1,-3.4943113E-1,3.6017705E-2,-2.3097079E-1,-3.8717616E-1,1.1812177E-2,-7.399958E-1,-7.399958E-1,8.977403E-2,4.6692356E-1,1.6703267E-1,6.765791E-1,9.619365E-2,2.504272E-1,1.0763623E-1,-4.646282E-1,-7.849865E-1,1.22682616E-1,1.17698245E-1,1.8184039E-1,2.3995082E-1,-2.5429285E-1,8.284117E-1,-3.974194E-1,2.0411123E-1,2.3996405E-2,-3.1186745E-1,-2.3048806E-1,7.863175E-2,1.7409021E-2,5.5674165E-1,8.441886E-1,7.1808845E-2,-1.7151557E-1,-1.1455577E-1,-2.1210814E-1,4.2501894E-1,3.566093E-1,1.362881E-1,-8.62758E-1,7.017636E-1,2.8491488E-1,-3.4595186E-1,-1.7892441E-1,-5.533207E-1,-1.8729012E-1,5.2855814E-1,1.06608436E-1,1.21257365E-1,2.1514317E-2,5.382557E-2,4.965895E-2,7.4907176E-2,-4.5378446E-3,3.396633E-2,2.2023547E-2,5.820344E-2,3.153538E-2,-5.6865695E-3,1.5125624E-2,4.9627118E-2,2.631483E-2,-4.469427E-2,-4.861663E-3,3.699001E-2,-1.3762878E-4,-2.4716213E-2,-6.456997E-2,-2.7468834E-2,1.12765245E-1,-4.897125E-4,-5.9918463E-2,-4.7465316E-3,1.4669451E-1,8.197811E-2,-1.3653575E-2,2.8961767E-2,3.143573E-2,-6.560244E-2,9.5180934E-4,3.767677E-2,-1.5741478E-3,-5.0002415E-2,5.341836E-4,9.830912E-2,3.8312223E-2,1.2595519E-2,3.592572E-2,7.980731E-2,2.1332337E-2,4.8454884E-2,7.147404E-2,2.3757646E-2,-4.2009946E-2,4.6050027E-2,7.029275E-2,3.5116654E-2,1.06482655E-2,5.6484193E-2,-2.8969264E-2,6.889227E-2,1.8494928E-2,5.1543552E-2,-2.9925773E-2,6.0166337E-2,5.930531E-2,-6.6430174E-2,7.885087E-2,-7.5490594E-2,1.23191E-1,6.289293E-2,2.0652374E-2,8.261809E-2],"split_indices":[98,99,98,99,98,83,48,48,48,99,96,48,33,48,39,75,43,75,98,48,2,2,94,41,10,53,55,36,46,15,43,92,47,36,55,25,82,24,15,84,98,8,57,63,86,32,67,41,6,19,40,46,44,48,65,35,10,82,39,23,35,76,23,0,0,0,0,0,0,0,0,0,0,0,0,0,0,0,0,0,0,0,0,0,0,0,0,0,0,0,0,0,0,0,0,0,0,0,0,0,0,0,0,0,0,0,0,0,0,0,0,0,0,0,0,0,0,0,0,0,0,0,0,0,0,0,0],"split_type":[0,0,0,0,0,0,0,0,0,0,0,0,0,0,0,0,0,0,0,0,0,0,0,0,0,0,0,0,0,0,0,0,0,0,0,0,0,0,0,0,0,0,0,0,0,0,0,0,0,0,0,0,0,0,0,0,0,0,0,0,0,0,0,0,0,0,0,0,0,0,0,0,0,0,0,0,0,0,0,0,0,0,0,0,0,0,0,0,0,0,0,0,0,0,0,0,0,0,0,0,0,0,0,0,0,0,0,0,0,0,0,0,0,0,0,0,0,0,0,0,0,0,0,0,0,0,0],"sum_hessian":[1.4653666E5,1.0989561E5,3.6641047E4,4.4250438E4,6.564517E4,2.9714541E4,6.9265054E3,8.697953E3,3.5552484E4,4.8494918E4,1.7150254E4,1.8812535E4,1.0902006E4,4.6606104E3,2.2658948E3,4.3169185E3,4.3810347E3,2.8999729E4,6.552756E3,3.5639203E4,1.2855714E4,1.2072319E4,5.077934E3,1.0549777E3,1.7757559E4,7.0464453E3,3.8555603E3,1.7450455E3,2.915565E3,1.7533811E3,5.125136E2,2.0097478E3,2.3071704E3,2.2316382E3,2.1493962E3,1.3378392E4,1.5621337E4,3.0990378E3,3.4537183E3,2.5013115E4,1.0626089E4,2.0001558E2,1.2655698E4,1.1917798E2,1.1953142E4,2.2033762E3,2.874558E3,9.4091583E2,1.14061844E2,1.4346003E4,3.4115554E3,6.3823687E3,6.64077E2,2.5305571E3,1.3250032E3,1.4633907E3,2.816548E2,1.3847678E3,1.5307972E3,4.479008E1,1.708591E3,6.532803E1,4.471856E2,1.1752329E3,8.345149E2,1.1983911E3,1.1087793E3,1.7455397E3,4.860986E2,1.4362053E3,7.131908E2,1.7339124E3,1.16444795E4,1.4241964E4,1.3793732E3,2.6238126E2,2.8366565E3,2.7105645E3,7.431538E2,1.0995652E4,1.4017462E4,4.3665957E3,6.259493E3,1.0400065E2,9.601494E1,1.1914795E4,7.4090405E2,4.6782883E1,7.2395096E1,1.1182697E4,7.7044446E2,2.1495007E3,5.3875397E1,2.527028E3,3.4752994E2,3.6850912E2,5.724067E2,6.47032E1,4.9358643E1,2.2312976E3,1.2114705E4,3.0403354E3,3.7122E2,5.4013145E3,9.8105414E2,5.2430817E2,1.3976884E2,5.3961876E1,2.4765952E3,1.1837902E3,1.4121298E2,1.2232023E3,2.401884E2,2.1327457E1,2.6032733E2,7.127101E2,6.7205774E2,3.0151329E1,1.5006459E3,2.4369646E1,2.0420433E1,1.7009531E3,7.637786E0,5.9074986E1,6.253046E0,3.1594952E2,1.3123608E2],"tree_param":{"num_deleted":"0","num_feature":"100","num_nodes":"127","size_leaf_vector":"1"}},{"base_weights":[1.9526856E-3,1.20416194E-1,-1.7944166E-1,2.708534E-1,4.3946255E-2,-2.596843E-1,5.8448214E-2,2.1822485E-1,4.618257E-1,5.005717E-1,2.7119836E-2,-3.2768157E-1,1.5903315E-2,1.648353E-1,-2.081293E-1,1.3729414E-1,3.4128645E-1,3.3818963E-1,6.0630274E-1,2.1042107E-1,7.627193E-1,9.533197E-3,4.420896E-1,7.914584E-1,-3.4088933E-1,2.1352357E-1,-1.6505605E-1,6.8789214E-2,2.9834816E-1,1.2007138E-1,-3.54983E-1,1.1010663E-1,4.9115837E-1,2.9843825E-1,5.3892374E-1,5.724814E-1,2.1192342E-1,6.291851E-1,1.4700533E-1,-1.3878445E-1,8.183247E-1,5.269119E-1,9.74425E-1,1.7083985E-1,-2.4895886E-2,2.3156753E-1,5.9127456E-1,1.2725337E0,2.7811414E-1,-1.3956825E-1,-4.0865895E-1,2.2961093E-2,3.4898356E-1,-3.318347E-1,2.737728E-2,-4.0015034E-2,1.7476796E-1,5.3027462E-2,3.499002E-1,-8.4656316E-1,1.6225724E-1,-4.8951522E-1,-1.2718894E-1,2.319856E-2,2.9783219E-3,9.956841E-2,4.114112E-2,4.6706613E-2,2.4335979E-2,2.550507E-2,6.404616E-2,9.584915E-2,5.1168032E-2,1.3891718E-2,5.6130063E-2,5.561743E-2,7.382934E-2,4.3998577E-2,-2.6795348E-2,1.51365E-2,-3.7007365E-2,6.70062E-2,1.3076977E-1,7.7058665E-2,3.2519206E-2,1.2310479E-1,6.820618E-2,9.630863E-3,4.4509366E-2,-1.2546088E-2,3.6804762E-3,1.6983127E-2,5.318733E-2,7.620875E-2,4.5770865E-2,1.1294525E-1,1.6823524E-1,9.716687E-2,-3.889946E-2,-1.572994E-2,4.137258E-2,-2.5595522E-2,-5.2477192E-2,1.1287379E-2,-2.2666004E-2,3.631077E-2,-6.020205E-2,-2.2918051E-2,-6.35671E-2,-1.535897E-3,4.580916E-2,-1.4160953E-2,1.3638116E-2,1.0308036E-2,4.308274E-2,-7.1976945E-2,1.5604821E-2,2.7638135E-2,5.2173235E-2,3.2980815E-2,-1.1246262E-1,4.361115E-2,6.0254144E-3,-3.6380116E-2,-7.512739E-2,7.564645E-2,-1.6300919E-2],"categories":[],"categories_nodes":[],"categories_segments":[],"categories_sizes":[],"default_left":[0,0,0,0,0,0,0,0,0,0,0,0,0,0,0,0,0,0,0,0,0,0,0,0,0,0,0,0,0,0,0,0,0,0,0,0,0,0,0,0,0,0,0,0,0,0,0,0,0,0,0,0,0,0,0,0,0,0,0,0,0,0,0,0,0,0,0,0,0,0,0,0,0,0,0,0,0,0,0,0,0,0,0,0,0,0,0,0,0,0,0,0,0,0,0,0,0,0,0,0,0,0,0,0,0,0,0,0,0,0,0,0,0,